{
	"bias": {
		"m": 1,
		"width": 1,
		"n": 300,
		"height": 300,
		"matrix": [
			[
				-0.9047250863855671,
				-0.30708217911064173,
				-0.41100689778803545,
				-0.7456707476214555,
				0.7456917060593864,
				-0.7753768235015315,
				0.021523775021875302,
				0.8679751018961568,
				0.09254715405460656,
				0.9899977692160511,
				0.6160654385882225,
				-0.5304844263226536,
				-0.9145784450910819,
				0.9229151614274409,
				0.19989690683457972,
				0.3597864524686143,
				0.6175148417892351,
				0.8056436833891181,
				0.14587872729270712,
				0.9059244452732504,
				-0.1798915773394616,
				-0.8124068946953358,
				-0.20596216120820188,
				0.6738523653509771,
				0.03617673298473978,
				-0.4518589779875377,
				0.18021424636094308,
				-0.09460624786277849,
				-0.5843937827727905,
				-0.8972694166331925,
				0.9495655909397942,
				0.5611045840165487,
				0.7567300484716277,
				0.658218371968097,
				0.3096174180879103,
				-0.6092531067471953,
				0.09277394251778404,
				-0.6387036816547145,
				0.9022723051131627,
				-0.720844985013473,
				-0.15268355915662468,
				-0.004332497025940629,
				0.8695626224327877,
				0.978428226905427,
				0.1631063284014993,
				0.818208338135038,
				-0.54032557592648,
				0.9310362686002658,
				-0.5615308378872625,
				0.14600786335345406,
				-0.34998918174648264,
				0.6893334628534213,
				0.9629024121086127,
				-0.2875257802143434,
				-0.07309917468672378,
				-0.06643119928120855,
				-0.46371215070181826,
				0.6752674334749433,
				0.16626096471188268,
				0.0475134301956639,
				-0.8787345617555475,
				0.5457845444809077,
				-0.688411014403238,
				0.9162805298937893,
				-0.35678317407114024,
				-0.2591766777144482,
				0.8990764613964766,
				-0.5892387392663299,
				-0.6365952705843254,
				-0.8482706458451625,
				0.3483165665326178,
				0.07234340043462639,
				0.28437936463783586,
				0.6311089973177695,
				0.5928713672825818,
				-0.014055396341122073,
				0.20867709759453268,
				-0.6958494760016629,
				0.5500754063942996,
				0.9393556348296555,
				-0.9209465493535771,
				0.16924677001673416,
				-0.9948748060844199,
				-0.9168337288595825,
				0.6884913017374661,
				-0.800719787340761,
				-0.4914857142542832,
				0.3244852881049831,
				0.4167722144883643,
				-0.6562747441373711,
				-0.19216848001564601,
				-0.11992663494973943,
				0.5464849045457614,
				0.28904129719781757,
				-0.4249820331225256,
				0.7241247164387046,
				0.5963569520937444,
				0.5437676510749614,
				-0.2447914095613286,
				0.07729415300158315,
				-0.8159415733492787,
				0.7549897420983656,
				0.32519706948659266,
				0.09937829313195401,
				0.3089543605006013,
				0.17604011086158167,
				0.5191872003162419,
				-0.11039515851560688,
				0.5901576207260542,
				0.42926479564132647,
				0.2868139388083617,
				-0.2999729403599902,
				0.16566357770405826,
				0.28660688549969215,
				0.21368209529478133,
				-0.4891129745418734,
				-0.7493956143191367,
				0.5258068165089891,
				-0.1859911573722255,
				0.9859956105123806,
				0.9138051000907161,
				-0.10158956773529226,
				0.41060690816828016,
				-0.8372998660092872,
				-0.6691831256976717,
				-0.6109139777003652,
				-0.3137985949839459,
				0.3155023590468602,
				-0.5955573966492231,
				0.4272481374700918,
				-0.6156562079896637,
				0.5688441538281537,
				0.5803418641047435,
				0.4500345542255242,
				0.45774645476662457,
				-0.7601816377153421,
				-0.770247763670699,
				0.27803984312080665,
				0.6484802793691489,
				-0.4023625283409218,
				0.8482938892364005,
				0.29349160704789545,
				-0.9554352046045715,
				-0.6881927179185321,
				-0.5995168526493364,
				-0.6801347170436567,
				0.283595502371198,
				-0.17935707632900177,
				-0.14815816254381842,
				0.8344547588371722,
				-0.6345167969769525,
				0.3431850521967639,
				-0.4800947237186972,
				-0.18238198591647947,
				0.9974464974646104,
				-0.7615226418211023,
				-0.22041380136503852,
				-0.5484971361950084,
				-0.0326327962639148,
				0.664555451863392,
				0.8234742355029239,
				-0.007955966004614012,
				-0.875062085333711,
				0.6509081445054568,
				-0.8812203820806461,
				0.35967837500084254,
				-0.4833584100824142,
				-0.4875968268656199,
				0.10708178394986989,
				0.9006665343617049,
				0.9318662972456648,
				0.07976592912621472,
				-0.48037332301557134,
				-0.9534767146579854,
				-0.678141968070598,
				-0.9170548558641745,
				0.894670442837322,
				0.9308574341679297,
				-0.3883101233186359,
				0.24422339180964592,
				-0.488161667675977,
				-0.43004594165013277,
				0.8700279948925158,
				0.7294825268570544,
				-0.2179869803525687,
				-0.7933309942497484,
				0.5947069399490732,
				-0.0127824170405626,
				0.5518857137288915,
				-0.856801827739778,
				0.0029447866271170575,
				-0.5795071945510197,
				0.40734588518473336,
				-0.5115656526341632,
				-0.5632289077085977,
				0.5412351602360004,
				0.8232281468258362,
				0.27421678509978875,
				-0.8252138233755972,
				-0.12548092500022268,
				-0.06579278574099812,
				-0.8454518209470114,
				0.32377476727344456,
				0.13332967056295297,
				-0.420571936020917,
				-0.6825261231539508,
				0.49564525296304307,
				-0.40906313393435134,
				-0.687275442448513,
				0.8107746880406923,
				0.15991386372578864,
				0.2218887655530124,
				-0.9887461574468359,
				0.6879220652464224,
				0.7197134544946677,
				-0.4187106355458905,
				-0.37694028604889196,
				0.3541442537216528,
				0.22506558741749627,
				0.4245926214043476,
				0.008358161452800772,
				0.24648395997153516,
				-0.20843303593858886,
				-0.8351102026436048,
				-0.5320326577078505,
				0.5285727803896503,
				-0.09941016600026442,
				0.26532985372180207,
				-0.32728445095129244,
				0.5092268500156454,
				-0.4337561434978534,
				-0.20027257591654735,
				-0.28140128602979786,
				0.9808577896723767,
				-0.008180416639904653,
				0.3372457403086422,
				-0.33106791947346714,
				0.8215484839081482,
				0.701748942394822,
				0.802049836449001,
				-0.3008600715327794,
				-0.2524562175561962,
				0.9251305914668757,
				0.46100427469097616,
				0.06625837560427517,
				-0.10177033999845708,
				-0.012871380108416819,
				-0.5163473623857495,
				0.07692379729606325,
				0.2574689581672924,
				-0.49467839905114186,
				-0.1692303325543234,
				0.6751193968323626,
				0.4549889620454448,
				-0.7617935071070709,
				-0.8195412872826231,
				-0.7816556308659006,
				0.3555546025172851,
				0.7838488390155871,
				-0.14998718620739648,
				-0.8700352681517596,
				0.6370679567511397,
				-0.7765729746861405,
				0.03396637113230794,
				0.7453497123481423,
				-0.3770167636562918,
				-0.08600642890267718,
				-0.9548587216723643,
				-0.3134877319495306,
				-0.14570897886796796,
				-0.00003379073968012847,
				0.6625928342412264,
				-0.8072176691041224,
				0.4558049349196578,
				-0.6261714574537258,
				-0.035193459186290355,
				0.30407737409202307,
				-0.3075810622411863,
				-0.11576972958885179,
				-0.001272121120132752,
				-0.880427597359744,
				-0.5203885305831126,
				-0.9171781011818902,
				-0.30369629072672266,
				0.18763584992042492,
				-0.46380793534045583,
				-0.3401502288757885,
				-0.30565898846488526,
				-0.0828527268575221,
				-0.3002225271506189,
				0.04318849131412783,
				0.47794446462778684,
				-0.6935710612907569,
				0.935520751093252,
				0.9868116814523766,
				-0.057849063157410896,
				-0.15227200618522696,
				-0.3780578714723566,
				0.5239371955753316,
				0.7783809743492873
			]
		]
	},
	"bias_Out": {
		"m": 1,
		"width": 1,
		"n": 25,
		"height": 25,
		"matrix": [
			[
				0.035888580948286654,
				0.008938320971576617,
				0.027456800314520906,
				0.011642070097785565,
				0.05162785411936213,
				0.03884584461135603,
				0.014805316497807954,
				0.04217112941442278,
				0.022273433744770102,
				0.03836994779137987,
				0.016013761704716155,
				0.04510251366759177,
				0.05800023311265154,
				0.020876329757649793,
				0.049748927818237844,
				0.031128956215944865,
				0.03830837480378113,
				0.029469224526189115,
				0.02499640766957774,
				0.04673281203683515,
				0.017752538013618983,
				0.019240072867477594,
				0.012866891292845026,
				0.011573674685655863,
				0.01985677217124612
			]
		]
	},
	"state": {
		"m": 1,
		"width": 1,
		"n": 300,
		"height": 300,
		"matrix": [
			[
				0.28649268649911913,
				-0.9999994077941302,
				-0.9999999995590179,
				-0.8718580666420623,
				0.9999999223824436,
				0.9282296913028271,
				-0.99999999998591,
				-0.7074844472183454,
				0.9999999999407728,
				0.9999999999999905,
				0.9999997282957052,
				1,
				-0.9958893592338288,
				0.9999818390081464,
				0.9993069382796758,
				0.7591112930570207,
				-0.9999999999999828,
				0.9999999999093925,
				-0.9999850143292963,
				-0.9998978626674887,
				-0.999999948497405,
				0.9999999999713423,
				0.9636356495449973,
				0.37750086603973854,
				0.8254384372969513,
				-0.8991836646584473,
				-0.9999976000445703,
				-0.9999999912212184,
				-0.9975657631972735,
				0.9999918428500238,
				0.6665974069614979,
				0.999999999652199,
				0.9331263885283924,
				-0.9999999999821055,
				-0.9967720993595294,
				-0.9999998596652772,
				0.9999993143203052,
				-0.9999596605666234,
				-0.9998897520261987,
				0.9999999999981138,
				-0.9999999913033816,
				-0.9999957769615045,
				-0.9999999999977606,
				0.9999991188547261,
				-0.9999996802133566,
				0.850567085046625,
				-0.9991825636576878,
				0.9808116359496974,
				-1,
				-1,
				0.9999984038825308,
				-0.9992110523540298,
				0.9970209666847213,
				0.9984604508020849,
				0.9999783660169599,
				-0.9972900835926061,
				-0.9999999999086255,
				-0.9999998107567747,
				-0.9238444841786944,
				-0.9999999999994367,
				-0.9999999999988418,
				0.9999999999950434,
				0.9999999998665048,
				-0.9997352323699655,
				0.9999992590248118,
				-0.9999999752004325,
				-0.6997968848689946,
				0.9999999041585772,
				0.9998777103041487,
				-0.9321392119793755,
				-0.9999999999963256,
				0.9999999871751594,
				-0.9999999992387454,
				0.7099749278778321,
				0.9999534239257752,
				1,
				-0.9985677801137357,
				-0.9999999674707619,
				-0.9999999999501835,
				-0.9999999634425931,
				0.9999999981672903,
				0.9999999997769341,
				-0.8305485313110391,
				0.9999167626059692,
				-0.9999108881374051,
				0.5960423898163424,
				0.5515071869570725,
				-0.999995534104564,
				0.999999999930318,
				-0.9999999999993104,
				-0.9999986914546045,
				0.8589227890956509,
				0.9977281222401726,
				0.9999999999992224,
				0.9999400714654665,
				0.9999999964776438,
				0.9441533957544028,
				-0.9999999999999988,
				-0.9999999377535254,
				-0.981623308758516,
				0.9999999994273794,
				-0.9352379814826867,
				0.9904635831809788,
				0.9999493407345658,
				-0.9999997798383534,
				0.9999993249161417,
				0.9999999824945093,
				0.9989971589014194,
				0.9910211139291478,
				0.9999999999998315,
				0.9999959781815528,
				0.9999999927895596,
				0.9999703316225727,
				0.9992096777848808,
				0.9999920015461901,
				-0.9968384445160345,
				-0.9999999999999917,
				0.99999996746766,
				-0.9958548735274213,
				0.9998904841535818,
				1,
				-0.9998210474618885,
				0.9711398521692978,
				-0.9070276018255856,
				-0.999999989214479,
				-0.9999999997199327,
				-0.9999999999989525,
				0.9910592686184198,
				0.961962838272296,
				-0.9999973641768167,
				0.3293716208258558,
				0.6411154949562813,
				0.9999953253163747,
				0.9999999996101409,
				-0.9944287782324219,
				-1,
				-0.9999999999999749,
				0.9999999972202968,
				-0.9943250087185084,
				-0.997721811819389,
				-1,
				0.9999993393613273,
				0.997433042541637,
				0.9999999993350297,
				1,
				0.9999999998421235,
				0.9617673654186901,
				0.9999891980376333,
				0.9999999999985558,
				-0.9999999588679214,
				0.9751131158685686,
				-0.13873809305691628,
				-0.9999999999992942,
				-0.9999999999976121,
				-0.9819744444058202,
				-0.9999794790159294,
				-0.9970292344692858,
				0.9985635410810036,
				0.5525534064669069,
				-0.9999999979059478,
				0.9999999999997905,
				0.9999999999997117,
				0.9999999997605906,
				-0.999999587621503,
				-0.9999998128920813,
				-0.9999999990146796,
				0.12602032244389103,
				-0.9999999999991477,
				0.9995868707857768,
				-0.6042777476576825,
				0.9998774015634102,
				-0.9999999999939948,
				0.9999999999285548,
				-0.9999999981920762,
				0.999999999818961,
				-0.9999999997206384,
				0.9999941840393199,
				-0.9186948096164753,
				-0.9999999041641524,
				-0.9999909080331039,
				-0.9999837619175179,
				-1,
				-0.9933905104278558,
				0.9999803367828269,
				-0.9989406863151634,
				0.9999987696531553,
				-0.9999999066025616,
				-0.41034995333454427,
				-0.9999999999998205,
				0.7715157760047227,
				-0.9991915098267968,
				-0.9999146280462028,
				0.9999999999999359,
				-0.9999999999844873,
				-0.9987354106942052,
				0.9999964240597579,
				0.29805939878925286,
				0.9999999999962923,
				-0.9976009734427429,
				-0.9999999767785835,
				-0.9999999999998634,
				0.980721774672285,
				-0.46969061927402994,
				-0.9999999817497663,
				1,
				0.992179936982309,
				-0.8935157935998685,
				-0.9999962505613356,
				-0.9835727017062174,
				-0.9999999913353582,
				-0.9999999174485649,
				0.952470344584634,
				-0.9999999957804532,
				0.9999999999999991,
				0.2955005778638237,
				-0.9999999197456771,
				0.9760283821963575,
				0.9999999999989638,
				0.9999997550217202,
				0.9999999430869002,
				-0.9954271078134628,
				0.9999996741143357,
				-0.994431282805521,
				0.9999999999825678,
				-0.9996079154254744,
				-0.9999999713076629,
				0.9976258301255949,
				-0.6897501875650244,
				0.9999999919337806,
				-0.9999980490616435,
				-0.9999999999999413,
				0.999999939737068,
				0.9999999997326282,
				-0.999998908466956,
				-0.9681556433628671,
				0.9999999920948278,
				-0.9999852015205376,
				-0.9999998840960858,
				0.9999765633347258,
				-0.883745177415792,
				0.9994715712151119,
				0.9908706593081478,
				-0.9743054163161499,
				-0.9999999999999994,
				0.9999924039035801,
				0.9534471078348057,
				0.9994150258443403,
				0.9999999999999607,
				0.999519721521037,
				0.9999918395269906,
				-0.9169373130411612,
				0.9926683553470401,
				0.9999997769037473,
				-0.999999984526407,
				-0.999988592584331,
				-0.9999999078629056,
				0.9998368448212855,
				0.9930665213192108,
				0.7320974755673336,
				0.9999238363866018,
				-0.9999999999921307,
				0.9999999339721881,
				0.9999999991242985,
				0.9999122819013511,
				0.9998033680381372,
				0.9989112297944889,
				-0.9999981275948638,
				-1,
				-0.9999996889469145,
				0.9997670908089229,
				0.9991666310477643,
				0.9892624010338711,
				0.9999999976461227,
				-0.9999774420265897,
				0.9999999987038547,
				-0.9999999999999998,
				-0.9999461081384867,
				0.9352516246197314,
				-0.27332585376640767,
				-1,
				-0.9727951766393685,
				-0.9958730384771004,
				0.2538146613326042,
				-0.9993068941216602,
				-0.9993885243485658,
				0.9998455542378183,
				-0.9999999999999705,
				0.9999999999988363,
				-0.9485481504421174,
				-0.999999755776432,
				-0.9999999999213454,
				0.7408262971958878,
				0.9999887762913675,
				-0.9691413515575773,
				-0.9999999982156149,
				0.996353763282002,
				0.9990852838920344,
				-0.8698355788621881,
				-0.9999999994753168,
				-0.9999999168680098
			]
		]
	},
	"weight_In": {
		"m": 25,
		"width": 25,
		"n": 300,
		"height": 300,
		"matrix": [
			[
				-0.16846984867958437,
				-0.6052063318439216,
				0.15505452011693066,
				0.09764437115345093,
				-0.5153951331711757,
				0.52313910476536,
				0.22796806867609343,
				0.08291145159748581,
				-0.39060560455823,
				0.8769355310486611,
				-0.5107105964612946,
				0.4553998604698215,
				0.1531043271067687,
				-0.8571996133933557,
				0.9556645113509923,
				-0.33220178128107447,
				-0.05808357174919898,
				0.273996009464172,
				0.04917749556588369,
				0.1739017247282999,
				-0.5520095439903279,
				-0.939728102985045,
				0.29593482147929606,
				0.8682997948051248,
				0.9364673468346543,
				-0.19815504704983278,
				0.8266957930084375,
				-0.17405154668412237,
				-0.3399851731279182,
				0.9405557565907983,
				-0.6155472722218014,
				0.21998818728537683,
				0.8967240749430161,
				-0.5002714832357076,
				-0.29658851844661704,
				-0.08256171591044037,
				0.6435396645408011,
				-0.24541097166701364,
				0.28211095075563897,
				0.9060092488729143,
				0.28012179233710377,
				0.8525368545556198,
				-0.43736719456285655,
				-0.26320370992750686,
				-0.3152613831717064,
				0.24306430571021087,
				-0.45642887319670544,
				0.9229295669861872,
				0.14326742468979425,
				-0.13891982076242382,
				-0.6129343976123511,
				0.9699231717782353,
				-0.8424759269511597,
				0.9621932684917285,
				-0.39965328215920115,
				0.9126635223055364,
				-0.4917109077587152,
				0.9007189931259774,
				-0.9785638591441028,
				-0.9004943396129064,
				0.10354292696161727,
				0.6559582520650977,
				0.19614738941119825,
				-0.26870463093620867,
				-0.8881671924003971,
				-0.25500320215462224,
				0.09699913617385825,
				0.33300697213384334,
				0.4724527844692994,
				0.3318189947155741,
				0.3083049519586325,
				0.09201920664346686,
				0.5319037219914797,
				0.6677123556350493,
				-0.40110960808472607,
				-0.7913397518759036,
				0.7927767516978266,
				-0.4420631596337503,
				0.6106811577676838,
				-0.8996537871686856,
				-0.8438525637096315,
				0.6674706435702071,
				-0.7024834449169854,
				-0.2421487397675044,
				-0.057322204353894346,
				0.335424351767144,
				0.6630640091376008,
				-0.02741145873164541,
				0.7439433258090937,
				-0.6679168848581525,
				-0.0880428543195797,
				0.9497179162381761,
				0.3031666687646277,
				-0.9794220049077165,
				-0.8066046864947563,
				0.6323546865735832,
				-0.7223105619381576,
				0.7895493716501085,
				0.41981111766873447,
				0.9499241496837372,
				-0.1386217750450407,
				-0.08032586949020804,
				0.02826681026077882,
				0.7177494000300668,
				-0.38357637202765726,
				-0.5799280097801369,
				0.6966168005331452,
				0.02609722591854924,
				0.03339476115687301,
				-0.6117324320234281,
				-0.6527079106279512,
				0.1858099792671144,
				-0.07360892260055252,
				0.9391722915964924,
				0.09867572972178706,
				-0.03844784245401556,
				0.9012496517136954,
				0.7516759415108942,
				-0.8093356983246558,
				-0.3837829318905861,
				-0.08660837781763453,
				0.25933447036352675,
				0.3609770498580822,
				0.822625374706826,
				-0.6415821512956881,
				-0.4504598351327864,
				-0.09126994023054458,
				0.661932444884711,
				0.7669735576749757,
				-0.732826690521903,
				0.2692912541344641,
				0.8470850998113266,
				0.6954945540664141,
				-0.12823740114504645,
				0.21250109154599617,
				0.3843565635186801,
				0.01745835714113264,
				0.9113418531207449,
				-0.05350016082193054,
				-0.48491911922478703,
				0.4824260520144459,
				0.7391500796149857,
				-0.2838627761592445,
				0.899482360183872,
				0.6004744510439957,
				-0.17176095583353046,
				0.13298230604470218,
				-0.5797696571815583,
				-0.9639795717538271,
				0.840943301978168,
				0.5593691250588932,
				-0.3490835433612576,
				0.30603818957881,
				0.19309816955663894,
				-0.34597029148398617,
				0.310540300560707,
				0.2412966293423291,
				0.9966282311819588,
				0.10085700229541317,
				-0.6562518249023204,
				-0.9090746224821418,
				-0.6712238692788359,
				-0.5991575541230287,
				0.06764497044428719,
				-0.49449611145841565,
				-0.7758467600882657,
				0.5588902491610583,
				-0.38075170993647456,
				-0.3330302558998737,
				-0.7760043081682753,
				0.7700184988623859,
				0.782844434169014,
				0.1285533749212293,
				-0.9515274889265277,
				0.6312995614064301,
				0.6070242182200767,
				0.12895192018875656,
				-0.16728586736357487,
				-0.8442807402680943,
				0.8017012177984131,
				0.8270721702620607,
				0.6544365552515661,
				0.7618951458599814,
				-0.9230489175796865,
				-0.734306623817155,
				0.3032423379300595,
				0.6106413109069471,
				0.6391851242269508,
				0.09264125314818727,
				-0.7067707781539028,
				0.840455597060902,
				-0.2950566819364666,
				-0.893855396447576,
				-0.42936179167293576,
				0.9965338065039817,
				-0.6747384973324553,
				0.9900451084464379,
				0.7149450896281273,
				0.7689713904080038,
				-0.5649645195741293,
				-0.43491468058249083,
				0.7882157816783315,
				0.7129059954900256,
				-0.5226185296268082,
				-0.6979172817063914,
				0.8799657626761004,
				-0.972122470291584,
				0.9781694542875239,
				0.6941860080650679,
				0.22605293337576704,
				0.6811844287638582,
				-0.2265488720801181,
				-0.6638005681099872,
				-0.39313721130955903,
				0.43357058041951024,
				0.020566337229014575,
				-0.7271301530284449,
				-0.19401126410776515,
				0.7814466075563771,
				0.665410598742707,
				-0.41467345156070623,
				0.0036559400044433588,
				-0.8280895085864288,
				0.04071928863738483,
				0.6204133894011448,
				0.0025548432474247207,
				-0.8816980718452205,
				-0.8104015372674738,
				0.8575751731597436,
				0.2288487933522978,
				-0.02267407105382313,
				0.11378537003148104,
				0.37262448317712815,
				0.8862998041476184,
				0.5063766521077677,
				0.8525797245685194,
				-0.05329068120518077,
				-0.3172894088208147,
				-0.18093484025306772,
				-0.07831399673161821,
				-0.3383332997341597,
				-0.18804901218888093,
				0.6676621196478205,
				0.11946636235012775,
				0.4452161516661204,
				0.10269277782721842,
				-0.4660045043558143,
				0.5418682211581416,
				-0.774079891006445,
				0.4899312025208813,
				-0.11915497212900572,
				0.7483852075052697,
				-0.6068509545641065,
				0.6604576642283413,
				0.49354847703851057,
				-0.13434290382214176,
				0.6396842002869549,
				-0.94677073323466,
				0.6197228658798628,
				-0.03180081915813826,
				0.44105793236728674,
				0.9686945010004551,
				0.5098563458609613,
				0.9220077513912699,
				0.7719959817712927,
				0.24639071092376863,
				0.7667979295334963,
				-0.5792593281176108,
				0.4910901571887867,
				-0.06734395361902923,
				-0.8256991208096691,
				-0.4392592544597478,
				0.8247386739531963,
				0.5627435206588256,
				0.5660159382017378,
				-0.8777918668336748,
				0.6734798121152039,
				-0.20107036845300685,
				-0.7213667446126757,
				-0.033367098936411654,
				-0.9129478156526729,
				-0.6729144218700451,
				-0.5425677071752473,
				0.8591802107739688,
				-0.009576639441049029,
				-0.5262361321522571,
				0.15032430121039742,
				0.7158535609227381,
				-0.47353767231108,
				0.2197916553137489,
				0.6392336027465078,
				-0.5820452044139564,
				-0.6002557654601177,
				0.42905370960356626,
				-0.36631230557023775,
				-0.8013420117986976,
				-0.11596674346551916,
				0.918691066857726,
				0.21107485865435738,
				-0.8158380162226764
			],
			[
				-0.4546307607904505,
				-0.733136549168028,
				-0.8571642733350133,
				0.0453273557858056,
				-0.04015995808919515,
				-0.0017708532222098228,
				-0.024257307883762014,
				0.9753179549877231,
				0.4330068150250277,
				-0.10492963235270647,
				-0.13264711669615314,
				-0.3779672812305064,
				-0.5452384700252026,
				-0.04064415450758485,
				-0.031186285444246842,
				-0.5614332566736184,
				0.8704814121999687,
				0.8323977568850691,
				0.19365063047150732,
				-0.4049598589191672,
				0.7010560160254502,
				-0.06035639549365257,
				0.17371373602545193,
				-0.6518262001518571,
				-0.17044095647695112,
				-0.7945014564759583,
				-0.832343007354952,
				-0.5463814240351113,
				0.6661491339388719,
				0.10109791498966203,
				0.08064099019526916,
				-0.6719903504761606,
				0.2821843695729478,
				-0.6253248135627163,
				-0.5620961897994361,
				-0.028092284108154786,
				-0.5852507487984231,
				-0.5816537169830203,
				-0.7224158913695917,
				0.29735867680728933,
				0.7518120759163338,
				0.5211833757447479,
				0.037028467457445924,
				-0.2267579688241148,
				0.9469075495761388,
				-0.16338278273240858,
				-0.8178836056690693,
				0.8500944530461805,
				-0.4453027877011855,
				-0.8940707088878685,
				0.07141751392678852,
				-0.8962582257371188,
				-0.7458032025802495,
				0.32424796028521596,
				-0.11668325206231467,
				-0.7780807568059753,
				-0.7179159434299676,
				0.6331190853037891,
				-0.012031663774523249,
				-0.1293700336857615,
				-0.5065512227149851,
				-0.2851748362633386,
				-0.5405797077390448,
				0.2226296482928496,
				-0.15771770568400134,
				-0.7759397224336171,
				0.912874821314412,
				0.9927752235821994,
				-0.9159111966973947,
				0.2100626073770413,
				0.020252006797573774,
				0.6948894863267778,
				0.9319829169495502,
				0.5811512226725162,
				0.6380889234311256,
				-0.875629167870501,
				0.4853657189800922,
				-0.20402626305719407,
				-0.5087619078019636,
				-0.19050091819708026,
				0.1762477904055193,
				-0.9651985267163834,
				0.6126707462267644,
				-0.14922269529232146,
				0.565541366981996,
				-0.12555842529382533,
				-0.6718722455611967,
				0.5005811508692299,
				0.21401415901973708,
				0.3880545896106984,
				0.8391854182316076,
				0.4290721231748309,
				-0.9732288430217007,
				-0.9749212947664776,
				-0.17966046059119156,
				-0.9243909385090991,
				-0.627022431170547,
				-0.651138534102397,
				-0.9045002319487159,
				0.3435984956056659,
				-0.805114806440717,
				0.49804402581241813,
				0.11704901764896247,
				0.821470223721597,
				0.39723225405821827,
				0.6082347837796203,
				0.8493822996772744,
				0.5716857689504211,
				0.09702865220261492,
				0.5262852964038278,
				-0.8901481020958295,
				0.9536266841565646,
				-0.5709899040288158,
				0.1821142097119144,
				0.450122855820978,
				0.35895741277049,
				-0.261699606725021,
				0.933476690256188,
				-0.6466764167219692,
				-0.6592016351834533,
				0.21426906976504556,
				-0.7729149629479388,
				-0.3701339150901939,
				-0.36012241578362003,
				-0.16797604129823318,
				-0.02953141217566202,
				-0.5940642005801187,
				-0.005178052918218601,
				0.8465308728795766,
				0.755252945823111,
				0.8266532171728156,
				0.8018925038906057,
				-0.5757765237672188,
				-0.6118610191388703,
				0.8861579807121647,
				0.14310510696013257,
				0.38077326445556015,
				-0.8490983976634223,
				-0.7475250924586136,
				0.5727305359269663,
				0.42295798588445077,
				-0.9841598296354142,
				0.9545365106693393,
				-0.5203488419792031,
				0.594938288842608,
				-0.8467555317393081,
				0.18688852369420195,
				-0.7509900073865698,
				0.17382624563398252,
				-0.47836976205513393,
				-0.4902184999233312,
				-0.27161637065023836,
				-0.9028918593351478,
				-0.2551421988680693,
				0.42267963768970374,
				-0.8463661718126807,
				0.07367424375255949,
				0.8070393777786657,
				0.3536183269473274,
				0.0153262130638403,
				0.713681928742794,
				-0.9273986035079003,
				0.03589089824013891,
				-0.7162240357081151,
				0.5886150408668307,
				0.7432592363550201,
				-0.039465086045675335,
				-0.8451996538715729,
				-0.5398759061650154,
				0.33621013373289577,
				0.5863948714796234,
				0.3630909458729561,
				-0.380524595973982,
				-0.22221171600594047,
				-0.9406423164856581,
				0.8644086222169887,
				-0.4552679839387861,
				-0.5550004058427911,
				-0.8019310495944283,
				-0.6410770301052207,
				-0.7168307149927862,
				-0.9178876846072965,
				-0.40939464686130567,
				0.9141656645556,
				0.7464333484564643,
				0.7875349058509364,
				-0.07940523460001225,
				-0.5098737034431795,
				-0.08767551213782099,
				0.9406792391798913,
				-0.9319726190498092,
				-0.7081253157217637,
				-0.9098984027938113,
				-0.8697370901055645,
				0.1663721934297091,
				0.3723547852670759,
				0.4576989416637085,
				-0.7638637916932121,
				0.9627052243664873,
				0.7429645602582919,
				-0.16004435751843804,
				0.6398583403657545,
				-0.09354834408604829,
				0.939422456426982,
				0.3607986290827121,
				-0.05515261098955904,
				-0.5175330833318594,
				-0.48738216918378807,
				-0.7915040487867038,
				-0.13769764692811481,
				-0.426723184467694,
				0.1263233936242747,
				-0.23192316749821096,
				0.41933280959986075,
				-0.8366060824242587,
				0.9500356548094415,
				-0.8443305505339214,
				0.11328587398177659,
				-0.01614955020206743,
				-0.6785028332078431,
				0.0052403997524903545,
				0.26038266052289183,
				-0.20076625822244587,
				-0.8209717702576902,
				-0.208102682620118,
				0.3432981597999567,
				-0.8097353363731759,
				0.30570055967402077,
				0.709241961782181,
				0.8801952723997775,
				0.9531139914105817,
				-0.6971857104544421,
				-0.17007763215327998,
				-0.045664974604801234,
				-0.851273772233113,
				-0.19973157415428666,
				0.43682474136450633,
				0.7430138724069111,
				-0.5136231568634533,
				-0.520767483811118,
				0.6550457038044497,
				0.7104688179648377,
				0.20531238935479168,
				0.5655502163166677,
				-0.5790688025103088,
				0.8110130078197404,
				0.21270329607024863,
				0.23343965513045672,
				0.6201695890383907,
				0.48972199502149705,
				0.3730468437471077,
				0.10917606662306367,
				0.1492051345983736,
				0.15515888969974956,
				-0.49579447479904504,
				-0.1891386426054189,
				-0.098837953300706,
				0.25758426303045256,
				0.8701174825024762,
				-0.7337962560910936,
				-0.5341119851777028,
				-0.1123808844229588,
				0.9211432336290848,
				-0.6017771451254141,
				-0.11860496573676516,
				-0.37702892945937005,
				0.5936376941982533,
				-0.04820275531559881,
				-0.057706644098679316,
				0.2767855246960602,
				0.39218173340412665,
				-0.8396978323782052,
				-0.30920815573966154,
				-0.7851678509589815,
				0.3267383377785369,
				0.21013931211405623,
				-0.9617073016069027,
				0.15568138466209014,
				0.06524017389929648,
				0.16609968148385335,
				-0.6262895587761377,
				0.6647482956808926,
				0.5336130247991031,
				0.02852477411825438,
				0.5741638081010132,
				-0.3277938097508106,
				-0.08391787650709626,
				-0.42897762882187607,
				-0.1926201926060922,
				-0.8373011996873578,
				0.6344088639566259,
				0.08793385201021531,
				-0.9273876368594589,
				0.7112141484518522,
				0.7012238609734291,
				-0.865254383563328,
				-0.11608535623751637,
				0.6608676207696669,
				-0.22425132340601595,
				-0.24910382203980364
			],
			[
				0.6476861999309191,
				0.7563072016520476,
				-0.013144898721056286,
				-0.34748678179251247,
				0.26403559383181907,
				-0.7277489150037559,
				0.24213173792158216,
				0.7545884518811912,
				0.6229876743974345,
				0.4598442520525525,
				0.8611527936021997,
				0.06344386653171208,
				0.04427716467126386,
				0.583248800670177,
				0.8999652231544033,
				-0.9645399478176491,
				-0.09111487499521553,
				-0.3653480690997628,
				-0.34764970195017453,
				-0.40579067369771904,
				0.6620664312333862,
				-0.785357114128634,
				0.3230384351874407,
				0.632065149751301,
				0.43476290823541985,
				0.5360492801873642,
				-0.15581151916769498,
				0.7303885127697605,
				-0.2644088423530562,
				0.06390477293755614,
				-0.025999148704759723,
				0.31810006146403147,
				-0.1713581699476281,
				-0.33148870690351906,
				0.9130303369569512,
				0.9300504534198599,
				0.6430754228695617,
				-0.14481966926108214,
				-0.18884018720363782,
				-0.47129147401521765,
				-0.5342404545272474,
				0.3556272589765834,
				0.0839605598166675,
				0.6239092134869106,
				-0.8946053310108657,
				0.36833463377895415,
				-0.16751556765466313,
				-0.6992340350249968,
				-0.9391488328384314,
				-0.05598059912439313,
				0.9700681001098514,
				-0.6074245658192781,
				-0.2808850834870458,
				-0.2231383200119219,
				0.5643362917761214,
				-0.581192345506802,
				0.052582617020319855,
				-0.06754236996164398,
				0.22495446835440136,
				0.3169224886262927,
				-0.023160389323794828,
				-0.2188652247216729,
				0.931839683746706,
				-0.5891996322318733,
				-0.30892810630410494,
				-0.7856870968289944,
				0.8864592783386227,
				0.6178553449442878,
				-0.19425860675968076,
				-0.622217990064772,
				-0.7019654648740241,
				0.18743813178715918,
				-0.7202306817375184,
				-0.5140386726665849,
				-0.189223414072214,
				-0.4272067391826351,
				-0.487868920800433,
				-0.10260403714684063,
				-0.33785023580606843,
				-0.9744577060031445,
				0.22823328776301555,
				0.8125446945905161,
				0.05607365267713105,
				0.8942708695183019,
				0.14880845790778086,
				-0.0072126105341014934,
				0.47721798814932503,
				-0.769989520812373,
				-0.8834439082470675,
				0.984856826793318,
				-0.6177940964375739,
				0.2532633380374132,
				-0.0715685129964787,
				-0.45189891701557716,
				-0.9235507909035485,
				0.11301773934339288,
				-0.9066365842686954,
				0.12237287515609241,
				-0.47119932625627525,
				0.4512029791047407,
				0.6525361928235349,
				-0.7624470105534265,
				-0.8745179494080455,
				-0.366506249230087,
				0.04845160913123525,
				-0.8362758720123651,
				0.7436264286814085,
				-0.08815270715871693,
				0.04172782489076221,
				0.5275381080795336,
				0.5896736510741003,
				0.729237755453576,
				-0.976096371994434,
				0.578066371055975,
				-0.3836065492767453,
				-0.6805985719200596,
				0.11699626687309506,
				-0.08374623641429935,
				-0.7671268224339305,
				0.8229180591745426,
				-0.8941874568679213,
				-0.7572822609834104,
				0.40741578371725495,
				-0.722157827900729,
				0.924379201504554,
				0.681167128446035,
				0.44999923648699447,
				0.16971659200722966,
				-0.5859460599041206,
				-0.8312028154122117,
				-0.9588658472951064,
				0.7030038322728962,
				0.4299012233697592,
				-0.8108264293481544,
				-0.30397416078315187,
				0.6006502041262052,
				0.2464273073705976,
				-0.547288318533329,
				-0.30292654106787564,
				0.6339956986965123,
				-0.44394545331315927,
				-0.12231662276587763,
				0.9252678761988653,
				-0.6653054534116594,
				-0.46610698762154756,
				0.4382686229392698,
				-0.0484980293363777,
				-0.9711425253616484,
				0.3472180279927657,
				-0.6730717363801784,
				0.1978462012272928,
				-0.7491403663598755,
				-0.961561741638508,
				0.6094453138866802,
				-0.488194812629573,
				0.4068842489071951,
				0.04374681418666704,
				0.9279350706319458,
				0.7758366019162657,
				0.40150347996841296,
				0.8064083373851818,
				0.8735863524982967,
				-0.8924837064302786,
				-0.5219426461180805,
				0.913771811892762,
				0.7865350669445759,
				0.2647401557492035,
				-0.30627176397644673,
				0.7212097994049822,
				-0.5468152178319281,
				0.9005408483424193,
				-0.1896789828392036,
				0.7085414662042742,
				-0.7245427087925083,
				-0.16940579969459524,
				0.03913302353130721,
				0.6845930153010507,
				-0.1211340102728573,
				0.08844737387149726,
				-0.2366929998646783,
				-0.5691800436348484,
				0.7835416075328774,
				0.04854257902755377,
				0.7786577957105836,
				0.5763897116802639,
				0.4123913335097935,
				-0.9978395725741764,
				0.8985894392657063,
				-0.5080850592736335,
				0.7159071176477849,
				-0.35104663086036325,
				-0.950723991740829,
				-0.5401524458933409,
				0.7295815664695944,
				0.9383936223007194,
				0.8899623943361634,
				-0.9467477657308723,
				0.6905703985770293,
				0.10735233410996914,
				0.6491261784089946,
				-0.6692339284434734,
				0.28168377029331193,
				-0.19940306979312794,
				-0.8748453087657153,
				0.30819173255458887,
				-0.29436184731548165,
				0.20157775741870676,
				-0.953442150337886,
				-0.6254297012585224,
				0.19236724321343246,
				0.06635051878723042,
				0.9217813454142894,
				-0.17264399295736954,
				-0.22352528620864787,
				-0.09906399824621692,
				0.24854482699450475,
				0.8148040816103261,
				0.9686538096546538,
				-0.46672097597484674,
				0.3874650133313704,
				0.6025088362127917,
				0.5210134370421624,
				0.09631598366652705,
				0.17523809572799953,
				0.13131321496968829,
				-0.9329027997217199,
				-0.8241246800348248,
				-0.19278062015915554,
				-0.6028317780885062,
				-0.007570703967404224,
				0.26641057411370594,
				0.4843297906945154,
				-0.12733615904192952,
				-0.7783725726627821,
				-0.2605673845074419,
				-0.9685096079622024,
				-0.9925955884942939,
				0.7474102632782254,
				0.842127848952102,
				-0.1753355581914291,
				-0.4932282542798929,
				0.747563830472251,
				0.8509322288695249,
				0.5752639723699162,
				0.36021031003534976,
				-0.138549556965458,
				0.19826635089690825,
				-0.7184665620516926,
				-0.3553671986644753,
				0.45594663623462406,
				-0.5481939753096068,
				0.48419457529561116,
				0.7202711926049021,
				-0.3980583727549991,
				-0.1279847634585054,
				-0.18659489363238357,
				-0.3087870180818295,
				-0.09155362458883332,
				-0.41312732628692617,
				0.4782766125914715,
				0.8158192916678328,
				0.7197398035374749,
				0.05616490867703794,
				0.8374065608951571,
				0.4959077420411915,
				-0.18590706913578448,
				-0.8977766387684794,
				0.9660646007747342,
				0.9930448621808803,
				0.2428180236627564,
				-0.47435351903227385,
				-0.6759667497633668,
				0.3816303861421919,
				-0.25225573211012664,
				-0.3011537286332251,
				-0.43439253504748887,
				-0.5206623762364542,
				0.19859622077136985,
				0.3999338364234948,
				0.6316657015156437,
				-0.36406393111598634,
				-0.036154274933399844,
				0.7891306422943534,
				0.545261706771694,
				-0.4710139301720102,
				0.6376982553580595,
				-0.16144848498460895,
				0.641749241219101,
				0.5050829591623844,
				0.8568959228453346,
				-0.20827119762900104,
				-0.43557268308725083,
				0.46799053862722806,
				-0.31926068200044533,
				0.45978744898202306,
				0.7038858457262811,
				0.44093390618961514,
				0.9323367078271461,
				0.9836396451629854,
				-0.5819162733863363
			],
			[
				-0.918866453667496,
				0.14156786911069208,
				0.9654284454266531,
				-0.06046365032939249,
				-0.27305320011048684,
				0.8978311639589052,
				0.0916605334329228,
				-0.783224967392504,
				-0.0009012372211243402,
				0.24104070153917467,
				0.957141425212976,
				-0.08999393867699812,
				-0.8311823351428096,
				-0.6813363347571704,
				-0.30704178858676157,
				0.978980672735466,
				0.33014251268345207,
				0.6377159419267802,
				-0.09000752904036657,
				0.06532196469978713,
				-0.3380664208794837,
				-0.11959703607453509,
				-0.837815239292973,
				0.9349807685873959,
				-0.8603046065583846,
				-0.7633359506452271,
				0.18190445833231106,
				-0.6989727769544172,
				-0.9935885210765338,
				0.43710412239687724,
				-0.3290789399690337,
				0.12179861731719832,
				-0.9255657606380563,
				0.6509548027612602,
				0.7542012281363117,
				-0.8464770014491694,
				-0.6185887418782539,
				0.7097234667038421,
				-0.9999020304189434,
				-0.5104548021284301,
				-0.7939102847886703,
				0.4681378892989341,
				-0.25118446505922565,
				-0.6349642774591566,
				0.6791013847564726,
				0.7981131360769633,
				-0.5289497258522546,
				0.665185465736883,
				0.6786902543991995,
				-0.5175239460282652,
				0.4387868225632463,
				-0.13111950935547423,
				0.13837272549805002,
				0.1604653392390234,
				-0.07823337544547826,
				0.0973967136864684,
				0.9631679083773697,
				-0.6306890617278245,
				-0.35390221444052816,
				0.8978418252464206,
				0.7867823288914697,
				0.9304432582647912,
				0.13349902884507436,
				0.06313322307756009,
				-0.35002796893052013,
				0.28395330858640744,
				0.9317858220834685,
				0.2470969676383108,
				-0.020087698904065476,
				-0.6498663890078076,
				-0.6362887628389502,
				0.8060142746699559,
				-0.41500770741531534,
				-0.8497303137914791,
				-0.13740033683812714,
				0.34616585178702053,
				0.9577644399792646,
				0.9822146104932274,
				0.429035352352257,
				0.479504814560078,
				-0.45960037537909715,
				-0.6248803657647555,
				-0.6696116035958091,
				-0.416990681632333,
				-0.4588963634707257,
				0.4044575059366826,
				-0.376091546044774,
				-0.26341828488043983,
				0.6946305720988941,
				-0.7094229128559428,
				-0.7192437963397889,
				0.9948899685659627,
				0.015632479186202808,
				-0.25305077175827506,
				0.7843351904057316,
				-0.317517298612612,
				0.7800434389159889,
				-0.5038815634199514,
				-0.7176590035836572,
				0.08446039392180316,
				-0.820283955033589,
				-0.6543136370008282,
				0.5257830549502733,
				-0.12493817574762556,
				0.35117947137397154,
				-0.47376045615676654,
				0.32596141665201506,
				0.9705317233196631,
				0.13507408349428562,
				0.5833920611652337,
				0.04887816091290231,
				-0.5095342526527951,
				-0.11369018819478782,
				0.5270196318171494,
				0.5620912219937297,
				-0.7939002226102656,
				-0.6688346937878302,
				-0.5086848597217148,
				0.6125483167380144,
				-0.021493541326510268,
				0.6774061675430376,
				0.6322787957191567,
				0.2956260773814332,
				-0.8134461912801818,
				-0.3745587149396479,
				-0.0886599539939752,
				0.8355004325021644,
				-0.6653435933360825,
				0.04986173498796198,
				0.005749981893696798,
				0.877706280462383,
				0.7918368780450296,
				-0.6566390405021423,
				0.41014062877620416,
				0.8996115742849571,
				-0.723098900022344,
				-0.8789482422509773,
				-0.32448375739966906,
				0.5548755210467515,
				-0.7180622318711563,
				-0.8787985028926921,
				0.32143724215621416,
				-0.39099361437222857,
				-0.18235956458665203,
				0.7450122777628327,
				0.8250361368352173,
				0.11340849870781788,
				0.09485147449151565,
				-0.48361271552574703,
				-0.975966977715732,
				-0.586059460447907,
				-0.3782907794386223,
				-0.8441668966761227,
				-0.09733028716805903,
				0.10761402337271075,
				0.36225278682408835,
				0.16513603062497761,
				0.9558145414534609,
				-0.3357998779984954,
				-0.05376199794898362,
				0.7838708835739445,
				-0.8175457622225268,
				0.5694835744067097,
				-0.4543348304931141,
				-0.5236931575515675,
				0.13598344501268533,
				0.613275382609126,
				-0.18749090194889106,
				-0.25449097558666,
				0.3056029234485056,
				-0.5598679183479724,
				0.48136499788531184,
				0.004163746966966642,
				0.6950919385343064,
				-0.8494467034841287,
				-0.9219580271721526,
				0.95907923623971,
				-0.49378855157674906,
				-0.7815481107719942,
				0.09991260613765096,
				0.32089072296158117,
				0.20094412228909286,
				-0.46445406586770455,
				0.13231999972776265,
				0.8606730050304643,
				-0.6826836258670554,
				0.24776109401721014,
				0.5288532866192845,
				-0.5202321098806428,
				-0.5675700218348987,
				-0.456410810684178,
				-0.0586705108260559,
				0.028596101562457843,
				0.7907774736385504,
				0.11119935723695384,
				-0.35520572071484624,
				0.605233924272309,
				-0.5410204778335013,
				0.5424280638459731,
				0.6755130678896908,
				-0.08811774139040196,
				0.1672418635854389,
				0.8946285427805418,
				-0.2566132016495155,
				0.2720000887813474,
				0.9477245851626135,
				0.6393293238153737,
				0.14896124186538007,
				0.1819259725083744,
				-0.9527575947996523,
				-0.880852313693592,
				0.32650151897895574,
				0.5708581056506685,
				-0.5364173990176164,
				-0.17071471327948817,
				0.40098688205411115,
				-0.17141897652230398,
				0.764597706974234,
				0.5001614800045262,
				0.84053058391711,
				0.393649006207081,
				-0.9721755138799217,
				0.4323377671911355,
				0.08109408497706028,
				-0.673941593108724,
				0.748603221085109,
				-0.2945071047738774,
				0.09091807737734392,
				0.19519192825383413,
				0.16891253623856572,
				0.33465234163674396,
				0.5827002831243786,
				-0.47590455251479424,
				-0.33533934077515815,
				0.33508962102556783,
				-0.4251776427114682,
				0.3337300510617518,
				-0.517859728472644,
				0.7328460913149994,
				0.40468557525286286,
				-0.7054347286857943,
				0.47356394947964464,
				-0.9489384595051824,
				-0.28228309583605515,
				-0.20324463334986564,
				0.4375337419449705,
				0.6015448728650985,
				-0.3734054222802974,
				0.023023156656764243,
				0.530915037915336,
				-0.459272857574339,
				-0.20277264641386816,
				-0.062219534810893595,
				-0.9612602936400614,
				-0.9808789505080426,
				-0.11558831510945744,
				0.6429325649998661,
				-0.19674354262426652,
				-0.37259223607461944,
				0.44246567621783583,
				0.5807257021992709,
				0.12996980765251198,
				0.7913381454904655,
				0.41397279601912285,
				0.8765017106434709,
				-0.19126435808449793,
				0.06413271976761292,
				-0.30256945737268515,
				0.6071989804340454,
				0.16722154766505204,
				-0.491964316140038,
				-0.24366743426345083,
				0.36507953651807723,
				0.2361102852076975,
				0.4176405723813845,
				-0.28608407064009,
				0.8950088290565472,
				0.21309690425062566,
				0.24682449397598472,
				0.3278416815720475,
				0.8031320131134696,
				-0.5029071712809281,
				-0.7500515518928461,
				-0.9052648129921423,
				-0.9686743990880009,
				0.9351577754752269,
				-0.15056857555795444,
				-0.8070958818123537,
				0.5711044641901601,
				-0.39264139897790606,
				-0.3866436983001682,
				0.6334025433054151,
				-0.5717750403510338,
				-0.9045636840584623,
				-0.4003273340445461,
				0.9067797161104032,
				-0.24836700501178077,
				-0.006263990805809527,
				0.9547826994144235,
				-0.5074153598045852
			],
			[
				-0.9024553808579907,
				-0.0830122770909183,
				-0.2129709444745962,
				-0.992903693542694,
				-0.17555020952400247,
				0.2544950935858452,
				-0.5778257855074456,
				0.14754987179240864,
				0.6757153147723791,
				0.3365485514918203,
				-0.07348679379331191,
				-0.03400715612883198,
				0.8489913657317927,
				0.4911950024003513,
				0.25130962055853523,
				-0.4250387331202279,
				0.7046716692872206,
				-0.06531479578755928,
				0.7730496669044253,
				0.23049474583276908,
				-0.08271502507626849,
				0.46897705358524533,
				0.03876049592723119,
				0.9071807385736568,
				0.892688634498914,
				-0.6056985369446597,
				0.2862795336378907,
				-0.21104241709528537,
				-0.22261651991930842,
				0.5108327326569015,
				-0.6240676464607495,
				-0.45677120522112435,
				-0.4076568500319566,
				0.6601106768062777,
				-0.2309336682085954,
				-0.9152646690253881,
				0.712551522638246,
				0.12248882488947821,
				0.1271454737259634,
				-0.9999065101987292,
				0.424477135821943,
				-0.20541958148986605,
				0.7710774404232605,
				0.2260251305133676,
				-0.9885596044693781,
				0.6452184459715027,
				-0.4224420543272549,
				0.20916438265072657,
				-0.8871274317116442,
				-0.03908063631274361,
				-0.31016417149913345,
				0.13211862962179532,
				0.5369000547672345,
				-0.1770240692165559,
				-0.46225764487995,
				-0.04169765937587311,
				0.48694288745584435,
				0.5192546905421116,
				-0.6856824568480206,
				-0.07764212956708771,
				0.9016921102779114,
				0.8430934981999116,
				0.9248142082964654,
				0.6090957675947428,
				0.010339672459919846,
				-0.2831382533547564,
				-0.30766832636867036,
				0.8094899400646134,
				-0.3895385403856073,
				-0.48345210065353417,
				-0.08006871306161001,
				0.12665048978120685,
				0.6098978928313725,
				-0.5981897289980669,
				0.07462512417454281,
				-0.9635716096594522,
				-0.2735095453932299,
				-0.8847788954892581,
				0.2753155096418678,
				0.9384904705301982,
				-0.6895741255654002,
				0.25071203666185804,
				0.9619318214665071,
				0.1780809890359225,
				0.5316700133488848,
				0.09218259997604372,
				0.8804382676733602,
				-0.7440759281282117,
				-0.7133636579374913,
				-0.2074739029517665,
				0.6556583812261598,
				-0.9308493749546489,
				-0.16550524356119034,
				0.9811863001628782,
				-0.8809295664732,
				-0.6399367184030087,
				-0.9148716518600075,
				0.6154784953254797,
				0.6224126923256348,
				-0.9469695020035931,
				0.39048373010050375,
				-0.7618621203219491,
				0.8367307825018728,
				0.6233563969469333,
				-0.7965027700411889,
				0.6372859518339009,
				0.38518154139230587,
				-0.7174732042810748,
				0.6560295285779927,
				-0.2649479715354839,
				-0.4066739621459208,
				-0.4637448030981006,
				0.8368820885986756,
				0.04465607745050937,
				-0.2996563398725911,
				0.17093140813421837,
				0.3358932498199776,
				-0.5982468012257147,
				-0.8343747736605134,
				-0.10737244401345691,
				0.6790050730168593,
				0.8546853752858854,
				0.6494335911094402,
				0.17642928373836453,
				-0.867851179474953,
				0.6498943169736315,
				0.06260163688707054,
				0.615982910575477,
				0.9319099649551887,
				-0.18753472116594594,
				0.8866744952130623,
				-0.8179830295983095,
				0.8025763039785381,
				-0.3408008463798562,
				0.89095550851557,
				0.8769052832659896,
				-0.18605007780124305,
				-0.8693169274643897,
				-0.8752437909805995,
				0.47839346758625956,
				0.2203040560172087,
				0.4566558855392562,
				0.19148582105059253,
				-0.15272419293362516,
				0.1394384849426058,
				0.8129849635481112,
				0.610788039835986,
				0.6862466204596487,
				-0.505112135197805,
				0.6903100468441821,
				0.4148443509967197,
				0.4952976276411776,
				0.5219149074488527,
				0.17123506241766506,
				-0.3620824753215861,
				-0.6108231641241275,
				0.9995898301912818,
				0.8304469924713329,
				-0.3133930541946617,
				0.9696877614489741,
				0.9060617312990109,
				0.5266692159295356,
				-0.1009051170926254,
				0.5511292135027164,
				-0.8654082672256345,
				-0.6247637498054575,
				-0.3113988702172481,
				-0.48742385790857545,
				0.569340900838736,
				-0.4437709317463874,
				-0.8688178964930704,
				0.17098134952011668,
				0.016036993961819235,
				0.938001856205311,
				0.987383012191883,
				0.9276835776862269,
				0.39447968698572966,
				-0.6600114262963928,
				0.38099531200272496,
				0.5822838114427444,
				-0.7704020969705261,
				0.6865131856937068,
				-0.3607352716505181,
				-0.3654396913852689,
				0.18698634860998897,
				-0.13737948915393483,
				-0.32591302711276215,
				-0.018120794346895064,
				0.3783161564920028,
				0.897942601867507,
				-0.9895576798974672,
				-0.009275781538005123,
				0.22520301056439251,
				0.29882461227290147,
				-0.47393930542794926,
				0.6309195064663511,
				-0.41248992769483817,
				0.8811360404184096,
				-0.6244543679816319,
				0.18570097453489653,
				0.5098787309508839,
				-0.4255840489608267,
				-0.85977087056924,
				0.32934831303022083,
				0.7645264510331291,
				0.838190466856358,
				0.8633920886439808,
				0.032776476787906184,
				0.3449401320810668,
				0.5510637598260848,
				0.037923796528572584,
				0.6805290181959567,
				0.8957394672561687,
				-0.17012493356995062,
				0.8626793538670281,
				-0.8111334773944443,
				0.11728679506532558,
				0.5008576728426819,
				-0.8156382213115974,
				-0.3310230950434794,
				0.615906846644231,
				0.5945645192914131,
				-0.015651584415194097,
				0.6858108995272465,
				0.9573963440348865,
				0.22042267160409157,
				0.18858551850501115,
				-0.44059556390930954,
				0.7167899646107219,
				0.02125337590937537,
				-0.6396881424836001,
				0.5780256738442553,
				-0.7736029670598432,
				-0.8948779474489466,
				-0.5810312887806961,
				-0.6307263154880092,
				-0.5731579845074855,
				-0.670109700530547,
				-0.09004440076215792,
				-0.8713409172215014,
				-0.6826836349667529,
				0.02673667252456413,
				-0.646780603769582,
				-0.6076281998421909,
				-0.101253885756174,
				-0.8859705183002977,
				0.07774232736055886,
				0.7501967916532544,
				0.020060520053053033,
				-0.3784019527681415,
				0.6711528533264919,
				-0.23023749102394397,
				0.461925836757207,
				0.7374498916446974,
				0.5346278261067297,
				0.006585265384860595,
				0.17108674475252394,
				0.20014585245930316,
				-0.5921155882033018,
				-0.4845142547825616,
				0.24012635224310275,
				-0.022678224022161242,
				0.17251836293851408,
				0.10717067749017062,
				0.039112715645286844,
				0.5158404807495187,
				-0.5882190580461217,
				-0.7847831423916607,
				-0.879647224797127,
				-0.1180080435639308,
				-0.47662919992838004,
				-0.7374849137748138,
				0.10170815734904037,
				-0.7844229424134004,
				-0.6109152666138202,
				-0.5475799853540604,
				0.43768613053356464,
				0.11365748884752946,
				0.3827453911930414,
				-0.022222694626968575,
				-0.33597359699814033,
				-0.354156617584668,
				-0.6357559777838921,
				0.28247901062799485,
				-0.7284305910970126,
				-0.754043912916321,
				-0.7778134031351702,
				0.7425779961310366,
				0.6394479448403034,
				-0.002760304661277857,
				-0.1604295325969587,
				-0.16555845913365097,
				0.49596542004375666,
				0.6614592085822073,
				0.012027958740609357,
				-0.6411475010159853,
				0.7416602247765236,
				0.9970750926296676,
				-0.6514594426172029,
				0.31317746189065154
			],
			[
				-0.5948525152004165,
				-0.4331784665110403,
				-0.483338302497927,
				0.9189844122634185,
				0.9608746296619999,
				-0.5004722618752089,
				0.9989083361039945,
				0.22435912173774142,
				0.10156534465136957,
				-0.931771493471762,
				0.5859123014554322,
				-0.2536207159951047,
				-0.9076543760901616,
				0.302691685872841,
				-0.5456195852963304,
				-0.9727371396496398,
				0.8397379425575773,
				0.20430432460491588,
				0.34004041073930136,
				0.3285690803832124,
				0.8982415082334616,
				-0.08152647558118842,
				-0.56293947939134,
				0.6878732688966407,
				-0.865669251607267,
				0.5753974920198788,
				0.3502708564151278,
				-0.1659228655618623,
				0.6779391922189539,
				-0.5377138786358984,
				0.9929545102198167,
				0.5267894336453622,
				-0.9092888311405676,
				0.5750565542063284,
				0.22101363381565697,
				-0.19825501431878845,
				0.4670847068652386,
				0.44055709726934333,
				0.5929786640189452,
				0.625482949943033,
				0.28670090377264623,
				0.006719816829980019,
				0.48790445375598335,
				-0.9823293118515459,
				-0.9654353332137457,
				0.6613673740365829,
				-0.9842191163397569,
				0.2891026620184176,
				0.2814567117124924,
				0.19917454614590424,
				-0.2334620064148245,
				0.14000831035379147,
				0.7913325044655095,
				0.1651861383771136,
				-0.06151317776360221,
				0.06258282533337223,
				0.8072946290193208,
				-0.37874814791301237,
				-0.6673580386992759,
				-0.4563760454606225,
				-0.48163147517819693,
				0.4729947403813326,
				0.9799754654426409,
				-0.755541951691967,
				-0.9173057296412641,
				0.7012249940249844,
				-0.12049111371808063,
				-0.04648570402571606,
				-0.20152153384717897,
				-0.8239464660267486,
				-0.887191892790264,
				0.7148205670805945,
				-0.6399154708775794,
				-0.6604965048731879,
				-0.20804730035410746,
				0.2337095325364631,
				0.5258353315090774,
				-0.7359577422878618,
				0.4620571971406866,
				0.767643574461752,
				-0.6412252002014744,
				-0.7225585168447974,
				-0.31958619368132535,
				-0.6286172018235803,
				0.30341049868979963,
				0.19895721986707793,
				0.04917853503930436,
				-0.9375278719124247,
				0.9621440121687415,
				-0.725796014296106,
				-0.6562092413671978,
				-0.1490248702882715,
				-0.10560245571043758,
				0.28425544030748284,
				-0.9113066519939319,
				-0.16469317132139105,
				0.09171412330899109,
				-0.7086365780668111,
				0.15838485462721996,
				0.48769070150750693,
				0.9805879217260691,
				0.8945557339454395,
				0.037434231291745945,
				-0.9127351070012888,
				-0.10127806951348539,
				-0.8956953385066715,
				0.5699240478131928,
				-0.20395788521898162,
				0.8908508709309899,
				0.08975031657394128,
				-0.11323236583052632,
				0.46323186318559495,
				-0.9180436723714487,
				-0.12316018245945637,
				0.34430976801253,
				0.46175799444817534,
				-0.10286965419953731,
				0.2777768170985291,
				0.5749314062274018,
				-0.7644511570718864,
				-0.6251895499570006,
				-0.6711876133590269,
				-0.7417912139655778,
				-0.9104826446302643,
				0.6800179457766906,
				0.25524341764735015,
				0.44476838345535974,
				-0.2736176804176029,
				0.9215388464535459,
				-0.8293846278973915,
				-0.5981285988138878,
				-0.18966215744499948,
				-0.35017370442785545,
				-0.5325860835127005,
				-0.04669616838392798,
				-0.9695939401076958,
				0.8149768278838314,
				-0.5932467285111618,
				-0.6543367053398681,
				-0.935159191131044,
				-0.1981353137467825,
				-0.2185857194330958,
				0.7352924018375173,
				0.5693092916370222,
				-0.5975199017630404,
				0.7392094487049734,
				0.40432247412805866,
				-0.2260913715509445,
				0.06508835461543194,
				-0.5066333222295252,
				-0.4171524067329626,
				0.6963566957204215,
				-0.8448463674692124,
				0.8200311977726837,
				0.8389089259288878,
				-0.3793057679231562,
				0.8902920092475886,
				-0.4550211473597767,
				-0.32358720654109785,
				-0.4528412023931718,
				0.0683700073192881,
				-0.6101746566829274,
				0.37512851611962006,
				0.628531293543511,
				-0.1752440837220397,
				0.7246919620111578,
				-0.7122844294620823,
				-0.5352562037963309,
				-0.6672317486107167,
				0.5789708755878653,
				-0.41457160336470666,
				0.042121653971101125,
				-0.6610324635102893,
				0.6985973039864195,
				0.7416496695039183,
				0.7352959752167427,
				0.9752807581305993,
				-0.5730545330519985,
				0.9089000803848335,
				0.5369033872041356,
				-0.6269511886071366,
				-0.8351886287503523,
				0.4637390389226774,
				-0.018556159117447457,
				0.6353297453247526,
				-0.8248480012163006,
				-0.08190972848925604,
				0.09566782399810059,
				0.06628833874655449,
				-0.7685410735338531,
				-0.29622106273939686,
				0.8975977202108969,
				-0.5789621797527569,
				0.5943288906217075,
				-0.6641824664183638,
				0.8045995236153201,
				-0.4729560469594887,
				0.5250195029392302,
				0.9846881612319467,
				-0.8482007548750121,
				-0.44576938861753135,
				0.4584934554911233,
				0.17127142259653771,
				0.977787929048207,
				-0.2412972358541876,
				-0.5170923154994549,
				-0.27835273691708284,
				0.007353699202270025,
				0.6697553040377597,
				0.9102119522122529,
				0.7551776781433661,
				-0.8610885087994848,
				0.30972918010683603,
				-0.4677074083570525,
				0.2742362624167085,
				-0.38110788905877513,
				0.9669764264559144,
				-0.5725289562060962,
				0.766518637012549,
				0.5762775218210412,
				0.749899376309604,
				0.32895534871561694,
				0.5447134230001773,
				-0.23666785835314563,
				0.6852346544342751,
				0.8561819452665911,
				-0.27300085949250263,
				-0.04687886554677778,
				-0.9400357870711749,
				-0.24008676494169734,
				0.5655106739529043,
				-0.5152753375684695,
				-0.36377915085896007,
				0.5230330653369406,
				0.43777088409742815,
				-0.7017590134978366,
				-0.4600427493233461,
				0.2558581266142568,
				-0.019471980503454223,
				-0.4310940299782957,
				0.38213956889355893,
				0.12036692287178097,
				0.2929076207664876,
				-0.25734890521942955,
				-0.5742605216361851,
				0.5204896143941733,
				0.6034205498776681,
				0.25479738343963154,
				0.27276177637481114,
				0.9958243342253206,
				-0.7709922186950555,
				-0.6474121073010233,
				-0.3989480765343698,
				0.20620441032966674,
				0.7920189387338046,
				-0.7255081272207269,
				-0.11901099372265955,
				0.9678372517393741,
				0.6841953664183387,
				-0.7522603983366949,
				-0.2778566886807159,
				0.16017552404945112,
				-0.2870398576571356,
				0.44728790829770393,
				0.30621082075012973,
				-0.595126824789117,
				0.5689371490795461,
				-0.9864223052405716,
				0.46623097617372045,
				0.8472114413768366,
				-0.8000866637632811,
				0.8300657412438359,
				0.9166152550088533,
				0.06643333279070429,
				0.49112052010040097,
				-0.9429289837574433,
				0.655086377906883,
				-0.07567247489368567,
				0.775876349559379,
				-0.4730883031800941,
				-0.8595412506078861,
				0.7403653974732913,
				0.032066892033601135,
				0.07857795135517698,
				0.04498590141174974,
				-0.6106664556085799,
				-0.21457938791984388,
				0.6019669997637656,
				0.5114103340905656,
				-0.15912427767234583,
				-0.9241205124343117,
				-0.9333001574338438,
				0.13823260418732497,
				-0.5198951621556205,
				-0.9258755094152877,
				0.4939900741008083,
				-0.9957404818408091,
				0.4481818740563832,
				-0.2744889510494999,
				-0.864285956264482
			],
			[
				0.24492021171029776,
				-0.41308813812357137,
				-0.7836473435473081,
				-0.31498669926008516,
				-0.3635658943912903,
				-0.8925664321567219,
				0.360566126713473,
				0.6060086325397398,
				0.06747148472778974,
				-0.6086081348682151,
				0.08028607162592083,
				-0.9225223793568222,
				-0.35503820969365396,
				0.8004764887263618,
				0.5207551627548872,
				-0.019489443514125515,
				0.046731049960095916,
				-0.8330321487543273,
				-0.8285483072174467,
				0.5814892749883578,
				-0.5916726776908563,
				0.7404415914083002,
				0.9436631373077198,
				0.44329920289297853,
				-0.2408408807970761,
				-0.4214099462934864,
				0.4433998054677737,
				0.9414675331648445,
				-0.734856991376462,
				-0.6669972055331144,
				-0.8473908669281136,
				-0.9120518692412642,
				0.1118892641797955,
				-0.6712244311108475,
				-0.9023226119759182,
				0.7731155628926416,
				0.4971405051437876,
				-0.10011024915537226,
				-0.08881408705199156,
				-0.7745012982521082,
				0.6612657875265029,
				-0.17293605055556327,
				0.5359622183144439,
				0.5245655611068396,
				-0.3555194532935473,
				-0.9691952293087254,
				-0.8488346907890079,
				0.6764649806951364,
				0.8754821324279716,
				0.3281148815515782,
				0.5442713763146201,
				0.46454998025520755,
				-0.7497872422892526,
				-0.3927297975899786,
				-0.01204631870294337,
				-0.21735969941134892,
				-0.7939910888443404,
				-0.7599536471137851,
				0.9349636913237775,
				-0.8174006954862931,
				-0.820340881077136,
				-0.6302365819426456,
				-0.12406819154446724,
				-0.7188645631870041,
				-0.5446433036859268,
				0.5669564764505899,
				-0.4713822142698336,
				-0.21769930506137936,
				0.2681623751737505,
				0.4409803133571759,
				-0.25620787862240135,
				0.2595244110524004,
				-0.06115042592577247,
				0.7871761897931351,
				0.23177242397285935,
				0.7877306023035517,
				0.16640995088602573,
				-0.35071417455304355,
				-0.9400284867938193,
				0.9595686629396418,
				0.2643216519325744,
				-0.7703501522649852,
				-0.17794446131614805,
				0.6664392064046227,
				0.6640749959798624,
				-0.8152997271034272,
				0.3113223067380684,
				-0.12917950838719205,
				0.9957640691253191,
				0.2833443174852377,
				-0.6229664278685423,
				0.45136980502941393,
				0.14576389936334966,
				-0.9418501443015881,
				-0.9084602310948395,
				-0.7601048774594812,
				-0.10653557687167403,
				0.9807564181999684,
				-0.8067167779313271,
				0.3605109182582451,
				0.9131766092018725,
				-0.39439079979105207,
				0.46280646543527926,
				-0.6950271560907741,
				-0.6771648624908146,
				0.4785880326295531,
				-0.7270558560288514,
				-0.07651378810604115,
				0.9190360619461093,
				0.1496341383945783,
				0.6872047646454487,
				-0.576572311213909,
				-0.9027388266120129,
				0.7855834651711522,
				0.18878756540912534,
				-0.13462017254202818,
				0.4164961014219153,
				0.8454044384311761,
				0.8901492734796252,
				-0.35526935825746664,
				-0.5666373781319112,
				0.09156988400480648,
				-0.575225224137375,
				0.15080551678801735,
				0.10173610606397698,
				-0.5860938628219494,
				-0.40257001898281297,
				-0.0327227084854953,
				0.30756796981340573,
				0.9116909877774484,
				0.8989655086672594,
				-0.4684936370053596,
				-0.37216117301264884,
				0.8408207892986543,
				-0.33653332379932754,
				0.7987984059841882,
				0.6956721356579991,
				0.22630587570629546,
				0.010412876178758523,
				0.05844249841776206,
				0.6357290367074615,
				0.3658418589887771,
				0.4872860329457209,
				-0.18277419350364843,
				-0.05041606788965236,
				-0.6250564465917243,
				-0.05706448966557387,
				0.6657353662694816,
				0.5943771317255284,
				-0.7497999135926099,
				-0.21755205820514867,
				0.5047594352876157,
				0.5602313010360644,
				0.7733049149027469,
				-0.30899107713447327,
				-0.6845596852605063,
				0.0358307254664707,
				-0.765421462300794,
				-0.39884499610942603,
				-0.8200458828483312,
				0.2665889206314369,
				-0.20468740085291204,
				-0.5815327295443034,
				0.23806950024299534,
				0.31119767527222697,
				0.3266447935138661,
				-0.13162198547374926,
				-0.33450947350198623,
				-0.1840194887632789,
				-0.11726086062387742,
				0.6689733985675157,
				0.28274250163590287,
				-0.39861268045761733,
				-0.3893540735462686,
				0.9823994631174982,
				0.3906278625023454,
				-0.16844197566748775,
				0.595572728939036,
				-0.9661160389738344,
				0.5473144188434738,
				0.1359170258436233,
				0.6959856883548836,
				0.31987664150856343,
				0.36311075055678144,
				0.9626040437625378,
				0.3798622841260775,
				-0.1505746477629728,
				-0.12585360951648417,
				-0.8029463045352165,
				0.7043894948014522,
				0.618986617930045,
				-0.9145631492282043,
				-0.3431488109972931,
				0.35270260632886963,
				0.5363846399080221,
				-0.10882684997032266,
				-0.08861952827304931,
				-0.8343660649458284,
				-0.22885131539687498,
				-0.8874093350637646,
				0.9388786749378495,
				0.7332232404670913,
				-0.9129077952141542,
				-0.48200307349079674,
				0.7935301484328439,
				0.09808377485589315,
				-0.16833972610931447,
				-0.37453920492157033,
				-0.3099721947872851,
				0.5932711993137625,
				-0.24726892636796194,
				0.08062866514748501,
				-0.5509145674854619,
				-0.9564333644433836,
				0.6441635923542233,
				0.9048788884651517,
				0.3574384566181035,
				-0.5472911820910054,
				0.6295612497776131,
				-0.5317686027542639,
				-0.2738893706875283,
				0.6701618906585933,
				-0.00977040125327333,
				0.7124193760421602,
				-0.6512972031004991,
				0.7181446966663487,
				-0.8185961540215332,
				0.39418765709889625,
				0.39924170304915974,
				-0.34398595747683736,
				-0.8360340705886098,
				-0.21294375906676732,
				0.4466411559011192,
				0.4974688014214612,
				-0.38396757062351616,
				0.6500819048476774,
				-0.2673373816927329,
				-0.7125230634181041,
				0.5807465793266604,
				0.6084988447648958,
				0.634486159777131,
				-0.709982341348681,
				0.8051564871811916,
				-0.9378469531481683,
				0.26639586955862615,
				0.3906309827489731,
				-0.20049823232906228,
				-0.12224992732683804,
				0.25171916764636837,
				-0.9972949472921244,
				-0.43245317714909737,
				-0.4655439736494884,
				-0.3432628281748147,
				-0.22076858220983686,
				-0.8035542531030475,
				-0.24467823448265236,
				0.2297572837117552,
				0.9082751362764037,
				-0.14676141356114458,
				-0.15108347882881912,
				0.7371024785351286,
				-0.3074894153237042,
				0.3371100852796096,
				-0.32420119176582096,
				0.9042148721485117,
				0.3635938276699999,
				0.23944372270976855,
				0.5680432250722207,
				0.5608593391721457,
				0.9654686347780723,
				0.6806452081117844,
				-0.6805674988713086,
				0.25880488647340716,
				-0.8832110099570594,
				-0.37572458365179395,
				-0.8433622521474011,
				-0.4305059732797827,
				0.39559863348877666,
				-0.1964126558874315,
				0.8744271356421605,
				0.3832114266538098,
				-0.7252818366616562,
				-0.9607056163833261,
				-0.6286628156320999,
				-0.25960839887078757,
				0.4785544388128331,
				0.8427100259359368,
				0.5467795314047783,
				0.12206569476616824,
				0.7168013021692774,
				0.24087424068105046,
				-0.5012457742280838,
				0.6224565788244454,
				-0.7142208023594185,
				0.6194882732372702,
				-0.6645851720180684,
				-0.5907094909110713,
				-0.005033401923787206,
				0.6021355447967935,
				0.02159337749658219
			],
			[
				-0.5546141948322503,
				-0.312020566495951,
				0.6230072217997655,
				-0.8924242011697991,
				-0.17385919786053705,
				-0.4053144078737594,
				0.5330712512219975,
				0.1241185737539996,
				-0.812750968909985,
				-0.7397139731125182,
				-0.6516766304155706,
				-0.29240194769856487,
				0.4050766880353649,
				0.8687453330218151,
				0.12817807170558115,
				-0.5294732419964618,
				0.7507897133898158,
				0.26992833491642587,
				0.4535517623634311,
				-0.29328554593149825,
				0.7993052063674115,
				-0.5927160902810482,
				-0.1291604665111472,
				-0.6527358375997041,
				0.38653753930208223,
				0.24653387305095897,
				-0.7915575016730427,
				0.538472236878881,
				0.12912376110707235,
				-0.6781190658483789,
				0.08730392399909892,
				-0.3065528917462039,
				-0.13498622426884266,
				-0.7176005669182994,
				0.1315507537653624,
				0.12251930997401983,
				0.7887825924510374,
				0.5068554093339124,
				-0.46107688459943086,
				-0.15777589395861025,
				-0.23173110431474697,
				0.5847470194699449,
				0.9015901944704559,
				0.1633934204791747,
				-0.7443668179113203,
				0.1438508389816735,
				-0.16458157426850706,
				0.18638406634402527,
				-0.23320278611383705,
				0.9562966968899658,
				0.8823984644392042,
				-0.33121290890510124,
				-0.11895112164038757,
				-0.027150547267821956,
				-0.850696772932777,
				0.34324819333178036,
				-0.32309488941835784,
				0.08299719526447458,
				0.7408092049074275,
				-0.7062007320694748,
				0.9740686490252592,
				0.8396664134311629,
				-0.8890785929729712,
				0.2009118767439877,
				0.4843581118436684,
				-0.7134430400110912,
				0.5175031083029218,
				-0.667779493996302,
				-0.3645806965118079,
				0.3424615413191914,
				-0.6588206727353438,
				-0.957900877002356,
				0.8147203386782316,
				-0.42939886065773614,
				0.2574005142792606,
				-0.0677240801185146,
				0.574421910687573,
				-0.171137849996712,
				-0.24034577362715837,
				0.11794650949247876,
				0.7921798334094725,
				0.2301556980653734,
				0.25135084264872454,
				0.8829969879004018,
				-0.9031659687773552,
				-0.10372219993495646,
				-0.8845225720579579,
				0.5544206449183475,
				0.7498963100817031,
				0.615273199781118,
				0.23097790468262058,
				-0.6353012342017088,
				0.16788080918050552,
				-0.17925552757118846,
				-0.4174884045606486,
				-0.9967319630864417,
				0.8901249720186564,
				-0.9927523271997223,
				-0.8593158991881209,
				-0.048102040559321324,
				-0.5282222407799071,
				-0.8662752316696185,
				0.4797910601739601,
				0.24328832636973585,
				0.7524260897288251,
				-0.3769232773496465,
				0.739604816905012,
				-0.5539279799447838,
				0.00513563222021185,
				0.3382394490603424,
				0.41165319021908475,
				-0.20148170570717783,
				0.6303987523581975,
				0.11404304962203948,
				-0.3391659159750686,
				0.41898117930215983,
				0.8911006629677494,
				-0.922063516135331,
				0.8609967434426467,
				-0.9559564169287218,
				0.5859696385307371,
				0.09766084154563437,
				-0.03542226835906348,
				0.39137441472706147,
				0.39935910184272805,
				0.6716239051364918,
				-0.34676904468201375,
				-0.978450651598139,
				0.953050532038398,
				-0.04947697875674395,
				-0.18839170810784855,
				0.5019240067030961,
				0.13174038287709422,
				-0.334305757807591,
				0.25506768125265866,
				0.9677136077553743,
				0.9167768192741055,
				0.5007614629505444,
				0.745453575782868,
				-0.28590458251523954,
				-0.05492019936942416,
				-0.018761785679059617,
				0.07646454559649296,
				0.6067729536240427,
				0.32777021600973466,
				-0.49151607855739776,
				0.2797718748251352,
				-0.0150719612866137,
				0.42168245477775956,
				-0.24123771958390172,
				-0.09901126501295288,
				0.9228284101252897,
				0.9088564972391704,
				0.5860912290495097,
				-0.576241722862378,
				0.10764013323898691,
				-0.23870686205645208,
				0.5886686220042541,
				-0.1133616312054726,
				0.7589550865852495,
				-0.758354769356202,
				-0.19492516594065323,
				-0.5076815421671728,
				-0.3858554152953162,
				0.864351182460144,
				-0.4203162397751772,
				-0.9361971200160055,
				-0.18833013811195398,
				-0.43912216274266713,
				0.3890463280340728,
				0.6455586297935847,
				-0.5030101864230927,
				-0.8325731825798703,
				0.46747602629041385,
				-0.638183235277543,
				-0.1694431306908788,
				-0.07622356514274697,
				-0.5188162011090474,
				-0.20663185590792033,
				-0.1321289026666026,
				0.44905107084906604,
				0.5276448930574449,
				-0.6457673687105419,
				-0.404549418634331,
				-0.570093334211673,
				-0.5060161910570447,
				0.22485460802999713,
				-0.18172221322368065,
				-0.18737730715239387,
				-0.7914316411660018,
				-0.6754435643180887,
				-0.5365588586596886,
				-0.5138229905783249,
				0.42671530318192996,
				0.4271031003973351,
				-0.35737721393255795,
				0.26057178311836804,
				-0.8902041939193674,
				-0.2822444545723046,
				0.10106440748915224,
				0.590380695303677,
				-0.2601942775658843,
				0.5858286319863764,
				-0.5134485568468992,
				0.8884744690833157,
				0.20335825343900904,
				-0.4939751220100983,
				0.5730519477342804,
				-0.2191577158580551,
				-0.24698167034573038,
				0.29526225324438604,
				0.5671682480655451,
				0.7124172955648849,
				-0.46017734083437434,
				0.3391349811576654,
				0.08764037981593864,
				0.5892336174842323,
				0.17248960427171278,
				0.1518446934338935,
				0.6661679299994749,
				0.48880624093830116,
				0.8015376453302356,
				-0.44519040076615246,
				-0.8963237583162336,
				0.8882393203119419,
				-0.5149038407132607,
				0.9584141271598874,
				0.678064363485698,
				-0.14319318365484746,
				0.15561298331325224,
				-0.7676947377743479,
				0.8590849373766285,
				-0.004669532948042843,
				0.861048337676471,
				0.5797098534078451,
				0.6884188615775244,
				-0.05203713897519835,
				0.7689889102718022,
				0.14641858033962585,
				0.8096629599488656,
				-0.4663452642847701,
				-0.401753917806567,
				0.3530084248158478,
				-0.5863252083689505,
				0.5983882744753068,
				-0.6697416732743502,
				-0.9775932095496724,
				-0.8472686653818604,
				0.48880178802545293,
				-0.7590361351247439,
				-0.14161400720629613,
				0.870788719964485,
				0.770462364159656,
				0.24200500834013017,
				-0.6442164611693029,
				0.6297420001771874,
				-0.025335190990093626,
				-0.8366907306564642,
				-0.09054014430292989,
				-0.7779310970706788,
				-0.4112045435741081,
				0.4793329037913008,
				-0.6058393079265274,
				0.49667672880698355,
				-0.5139721149219225,
				-0.016344073879336563,
				0.7285694169100383,
				-0.5503285889020395,
				0.40363057646503053,
				0.20033838180840036,
				0.5482854658065497,
				-0.6340524094486155,
				-0.3374047910657767,
				0.17374680577582557,
				-0.383495200325358,
				-0.035610046566120435,
				-0.31584611344896585,
				-0.42840113696986526,
				-0.2593025560804598,
				0.43678608541669783,
				0.31409579615697636,
				0.9246146469562833,
				-0.06417509015324141,
				0.4987040145972679,
				-0.866258657527855,
				0.33520031364026615,
				-0.9780047599584933,
				-0.5637052953836652,
				-0.1753806206214894,
				0.6337872886015199,
				0.9769282989198205,
				-0.33344996602100263,
				0.1990778903756354,
				-0.050359318355421845,
				-0.8424456223274817,
				0.4187225925267608,
				0.6051088392502271,
				0.9172505266207649,
				0.36516704282833023,
				0.020166122592346625
			],
			[
				0.155507504760803,
				-0.40293398767325206,
				0.27623760403612474,
				-0.9973924314747626,
				0.0987897363221033,
				-0.7927042036582046,
				-0.14626431891904357,
				0.7397541194219235,
				0.5025914792341486,
				0.5715376956377916,
				-0.4665002103813074,
				-0.7432301618194113,
				-0.9948696409535511,
				-0.1508883714180671,
				-0.42063733359435185,
				-0.15915291276250665,
				0.15870588072004033,
				0.648060840566564,
				0.9835237816729592,
				-0.04395596191167517,
				0.032475236409824415,
				0.44217068602647513,
				0.15542618867842783,
				-0.19961016153972633,
				0.6222904270448648,
				0.9685803225083669,
				0.336951881168289,
				-0.24498243583707735,
				0.19416626111800106,
				0.4574607042030201,
				-0.27191746291012686,
				-0.2003952247073828,
				0.12194006605971053,
				0.7333496102250301,
				-0.4342198128050523,
				0.9223414396186671,
				-0.19983891391975872,
				-0.0129144357179527,
				-0.7514331267357992,
				-0.6544560662472985,
				0.37795269819290533,
				-0.8068464948918495,
				-0.0924690096283336,
				0.09706541987607586,
				0.4229636922483859,
				0.737772677211177,
				0.042777520798929825,
				0.43919894390786096,
				-0.7554244678456312,
				0.5126296047979073,
				0.2690075605537623,
				0.3023259092647437,
				-0.16094721879065466,
				-0.5341038792736827,
				-0.04153176171779149,
				-0.8468968099125576,
				0.8450385379764125,
				0.12778936318412892,
				-0.6889719108634513,
				0.4617552874195452,
				-0.8838666509538515,
				0.23733476889582805,
				0.42230800418453285,
				-0.35389888764744715,
				-0.8227851520503711,
				0.958307443843216,
				0.18842278802688783,
				0.718177014361197,
				0.3192541405386109,
				-0.5689870676897102,
				-0.511612264944945,
				-0.48821847870531343,
				0.6055156462853848,
				-0.3734324311931734,
				0.800267811739884,
				0.19740790417757248,
				0.45413252282550376,
				0.84012622472429,
				0.11944433942553356,
				-0.5199271797190641,
				0.1792550429653419,
				0.7907644051202212,
				0.021863208189655925,
				-0.25412077408909095,
				-0.5284326356752644,
				0.4882375871312883,
				-0.4281952874065835,
				0.9684782146690551,
				0.483360304589564,
				0.8010214871542938,
				0.6897958545670488,
				-0.506204126430716,
				-0.6482389471730539,
				0.9422149459433529,
				-0.11360057731101891,
				0.14176943506098283,
				-0.7851758076025845,
				0.329284462609865,
				0.9020400663610202,
				-0.9396788189941829,
				-0.5170100246452622,
				0.5687553758285153,
				-0.298969108009266,
				0.10895970139864852,
				-0.933114799878711,
				0.923828709163272,
				0.0006035555708900908,
				-0.44598074189747994,
				-0.1849232477331859,
				-0.6739804679332275,
				-0.9329692633064721,
				0.5348191013166534,
				-0.6974611483985202,
				0.031863308369988186,
				-0.024475128913283406,
				0.7815945416325745,
				-0.4752323962841789,
				0.09923557525070725,
				-0.6508052617633129,
				-0.14604120206973903,
				0.24695846287285406,
				0.01870308882811189,
				-0.03176679639876623,
				-0.7491972804346396,
				-0.09119601580185854,
				0.5196582291318772,
				-0.8167816087209103,
				-0.014467556196482434,
				0.38173147434635357,
				0.5351793863587151,
				0.6152953455369468,
				-0.6375937125324609,
				0.2267247416586371,
				-0.8685501481340285,
				-0.6830368887005975,
				-0.8993377195293664,
				0.13532846154288958,
				0.09257986248519234,
				-0.17671550445551887,
				0.969400836688068,
				0.22256824033049094,
				0.8483663918422502,
				0.49290581046775284,
				-0.19488949649813492,
				0.12775928550518412,
				-0.8652582406903844,
				0.49168878751046297,
				-0.946443638727386,
				-0.4332015656627446,
				0.28330395564757316,
				-0.5010743559572313,
				-0.04057171818112071,
				-0.5709411017850803,
				0.5976845032024332,
				-0.4846208732486792,
				0.17581012469476187,
				0.9805581969759278,
				0.7409493232453981,
				0.731722592363544,
				0.8087653862163338,
				0.9648289096770184,
				-0.819959390961229,
				-0.8915887162291312,
				0.04429975082316551,
				0.9916642817166812,
				0.8684677075817913,
				0.35675733948699495,
				0.20523687524417555,
				0.9851591083811475,
				-0.8499466260827426,
				0.8931410605993024,
				0.15045701166986758,
				0.838979373175837,
				0.981533174880906,
				-0.0416234913961433,
				-0.8848293929354534,
				-0.034590945101600656,
				-0.6182333771614732,
				0.9987277282392357,
				0.2872377446025003,
				0.2754945683452932,
				-0.697842567073955,
				0.24642803742894825,
				-0.5893899075110789,
				-0.4162545486021063,
				-0.40801233990152186,
				-0.4832538931119714,
				-0.3818606669163884,
				-0.12849965438783428,
				-0.6811506671274965,
				-0.8140022004236895,
				-0.4794000408225578,
				0.8502766431491513,
				-0.8292635123498262,
				-0.37578041207783164,
				0.8438867835522283,
				-0.42992999115707997,
				0.8511067107800194,
				-0.9174254698718567,
				0.048106998470533124,
				0.04072047170305293,
				0.2685221743336714,
				0.9375271493637944,
				-0.7799454175483991,
				0.40926882164724,
				-0.6055387014431921,
				0.9760869694272207,
				-0.8118713287653767,
				-0.39311035602420263,
				-0.5650846044829487,
				0.33777041847479294,
				0.7586916662249048,
				0.6639122058257851,
				0.6392616966789544,
				-0.24642577267746058,
				0.3357863681052602,
				-0.48678695108355186,
				0.5103049670365571,
				0.4194198151184225,
				0.5736395694079741,
				0.7705401465199269,
				0.06792441335575239,
				-0.14916252440623134,
				0.7723980010633147,
				-0.3065557862016912,
				-0.3804910282361318,
				-0.37322061536333573,
				0.8162846481803161,
				-0.6570645387860403,
				0.8448117223884894,
				0.3492640065497943,
				-0.04870552446572285,
				0.3718959045746848,
				0.73458934607745,
				-0.6927651550575051,
				-0.6017373095445531,
				-0.02236761847516977,
				-0.8440896606273038,
				-0.3649684790313832,
				0.9680976209595964,
				0.790548398693502,
				-0.12364162601212492,
				0.030592224524454092,
				-0.09594309283906188,
				-0.5744538845815077,
				0.4698662701006464,
				-0.35635618097707633,
				0.5322761930572018,
				0.1974964281710201,
				-0.7089952301695042,
				0.031418137710384375,
				-0.340832243302688,
				-0.4775410718080124,
				-0.1662493979377846,
				0.6056878323452142,
				-0.11894182118096541,
				-0.10122709135229613,
				-0.5652174461482158,
				-0.37102220563082966,
				0.5729328826464921,
				0.4186296875209612,
				0.6156558264538625,
				-0.36720486390110896,
				0.5880580744399504,
				0.2780325935920782,
				0.11504957677305061,
				0.4706477085759695,
				0.7714594082507173,
				-0.563415597328432,
				-0.18374949959846099,
				0.247147500724882,
				-0.7632549017809982,
				-0.11244370001032777,
				0.6976660998623267,
				0.6351092994353866,
				0.19365157262578991,
				-0.925858437085286,
				-0.576695762944067,
				0.5968792319371734,
				0.3451331466401806,
				-0.6536988503341399,
				-0.03376841933658259,
				-0.3038856844485087,
				-0.3340548355677373,
				0.18922152009181792,
				-0.28563914591515127,
				0.5034568339811427,
				-0.9136093705310526,
				-0.034206940905705085,
				-0.8301998626630955,
				-0.22666643851075285,
				-0.7529860950361393,
				-0.08091234343677334,
				0.5116559670106051,
				-0.6628385484760582,
				0.07340583502360021,
				-0.13148932401126423,
				-0.8732364266479986,
				-0.9483686745753768,
				-0.5723349748891162
			],
			[
				0.9270154894840221,
				0.950002723883181,
				-0.24513377278818638,
				0.35152464170929454,
				-0.5028042907150154,
				-0.16312862162871733,
				0.45833371399211176,
				-0.4020095791249805,
				0.3584872146704656,
				0.8567066311406255,
				-0.5205363062367456,
				0.6670641951121268,
				-0.07492146051024129,
				-0.5759595434210283,
				0.40289138606701025,
				0.9839295075730798,
				0.3049897937211168,
				-0.2103964687227342,
				0.6528515979029037,
				-0.5503209689111346,
				-0.22777926104064994,
				0.10064025941707744,
				0.824133164499067,
				0.20861935537252885,
				-0.5486027504725737,
				-0.3247203928305398,
				0.9704686585484352,
				-0.5543964920870654,
				-0.3802825115731494,
				0.49856061632272874,
				-0.09937393313887943,
				-0.9298405602443371,
				-0.7829288507999719,
				-0.49728624204399896,
				0.349903575470738,
				0.8665080093506554,
				-0.23052570189570787,
				0.1554031664985609,
				-0.8122267931943092,
				0.45168666749726283,
				0.510291427873308,
				0.7716642862805809,
				0.37708391604438596,
				0.7541019190391025,
				-0.9442395345499692,
				-0.7049906827453527,
				-0.8239778984352566,
				0.7898218243999775,
				-0.382746043974048,
				0.37281013059930146,
				-0.34629590521603326,
				0.7473004196775888,
				-0.16125442894058262,
				-0.33488681740075554,
				0.7829923278455704,
				0.004010246689327701,
				-0.051539631686245535,
				0.5129578637885395,
				-0.6560069129042292,
				-0.8290486407399777,
				0.7107882230677078,
				0.6611686011162266,
				0.4963778721412315,
				-0.8597163009816584,
				0.3714065570076266,
				-0.37785507565152443,
				0.3212052073395375,
				0.6360421700759162,
				0.3864967311240175,
				0.4379648790869397,
				0.13565769062093835,
				0.6032385569014842,
				-0.03813573023352479,
				-0.528363098890742,
				0.16151781745602012,
				0.051756663646851386,
				0.03501739192895892,
				0.8546931590028914,
				0.7081395869372944,
				-0.8828167382270764,
				0.9393790181728345,
				0.7722220608051393,
				-0.9312796423386218,
				0.9504099075730483,
				-0.43523342055092984,
				-0.2081120417515181,
				0.004757804378201946,
				-0.578046601478241,
				0.00718312565842627,
				-0.6525348177525578,
				0.4688759004590568,
				0.7835441718015361,
				-0.13315171866357334,
				0.5865207330083315,
				-0.23814946004134718,
				-0.6321750861092603,
				0.3298686807920266,
				-0.8307777489369306,
				-0.3684127486496007,
				0.4706232485024433,
				0.5645370824788389,
				0.29771156832046675,
				0.09808990624030622,
				-0.11455288924074525,
				-0.11759911741460494,
				-0.2275048761883678,
				0.4035893992814512,
				0.8663085099927548,
				0.2036766478335914,
				0.5721046308013173,
				-0.0927509898019836,
				0.9673910800234347,
				-0.9289492304244216,
				0.8913609989219662,
				-0.6320989540865427,
				-0.8542507144994613,
				-0.10075824086816798,
				-0.3895096335579695,
				0.9542247719173496,
				-0.9298959402587377,
				-0.429567638905739,
				0.9131891029884334,
				-0.16390279783113515,
				-0.8794375504057537,
				0.34189720420123315,
				0.06244662713942972,
				0.7146594443071597,
				-0.8973020746973437,
				-0.8972833496755497,
				-0.8315946855048648,
				0.5145179866237082,
				-0.44217548966357434,
				0.5981257652832039,
				0.6872893237194373,
				0.6290773860670837,
				-0.7150494726165153,
				0.4752135949072338,
				-0.14769006734878687,
				-0.44266042987421406,
				-0.38511099947889393,
				-0.2020255478335593,
				0.7751855362802731,
				0.6690412319663799,
				0.6509575599663364,
				0.19042625900452625,
				-0.35305020794445774,
				0.23849399768458523,
				0.6993651593113936,
				0.2570705189344973,
				0.3098716426557182,
				0.1156023829334587,
				-0.685395478150181,
				-0.24627905437489783,
				0.061777785265491936,
				0.5860312400140177,
				-0.4055767050105956,
				-0.2985043834201737,
				-0.025675675445518742,
				-0.12023297895181351,
				0.29260634740542635,
				-0.2568396208565491,
				-0.10481440183157753,
				0.7449960586036637,
				0.6634935076744286,
				-0.199051993709217,
				0.1318147505780196,
				0.3390229616756124,
				-0.503233667302041,
				0.6090908879629415,
				0.43297797911170033,
				-0.6248921653065085,
				-0.43867403204197153,
				0.20158289195119306,
				0.47001466363848987,
				-0.73831486273065,
				-0.6740184529404161,
				0.9811158080777158,
				-0.9382667953240538,
				0.855636618995296,
				0.6552179397441042,
				-0.8037891022149632,
				0.7183540027480926,
				0.3490067555188707,
				0.6047670191273373,
				-0.8392824033832431,
				-0.6961910733071393,
				-0.4142590830714594,
				-0.5770260447222935,
				-0.5385834501866973,
				0.8367662189432594,
				0.1902490335593523,
				-0.27159805736555853,
				-0.7497930774662844,
				-0.009800430836961027,
				-0.4598436098461218,
				-0.13368717814479325,
				0.5903944674157717,
				-0.7504299334217626,
				-0.18191105422494092,
				0.14126465220039774,
				-0.4052377431562397,
				-0.7817617004237416,
				0.5105999918502584,
				0.6318891144683199,
				0.9433576846679443,
				0.5592880098006963,
				-0.9291505308618504,
				0.18359788603041594,
				0.52264293697958,
				0.5891040843061672,
				-0.5320231445198962,
				-0.2988768431843276,
				-0.6369668727888529,
				-0.410930100191218,
				-0.8367682826153868,
				-0.6725412696527018,
				-0.994789304545336,
				0.11585823407565199,
				-0.2802827783117219,
				-0.3024462354265931,
				-0.3986722736788608,
				0.353125982459662,
				-0.9701028148677024,
				-0.0006618836063232436,
				-0.8471077311110222,
				0.006911259704666772,
				0.2290079725349452,
				0.5466618168114867,
				-0.13887376471962476,
				0.605915880116568,
				0.860898805340125,
				0.9505197648758212,
				-0.8313174228674023,
				-0.18765484189727433,
				-0.8028224899292566,
				-0.2961361064809451,
				0.5781821097655784,
				-0.8355809402926524,
				0.6621501555611293,
				-0.878630684442693,
				0.5485229766863435,
				-0.45741807222588715,
				0.6197376959844694,
				0.45535068251923505,
				0.2695204833467235,
				0.024010325918464748,
				-0.5816106601824895,
				0.5375903717379731,
				-0.847535875853231,
				-0.18981726377282548,
				0.5161966589708098,
				0.43755295654143556,
				-0.7709211341523496,
				0.21234232046688994,
				0.6055308096045908,
				-0.2825722568940199,
				0.5831650169121905,
				0.08927562284452639,
				0.3428406512042499,
				0.4757713344054464,
				-0.7159428118035418,
				-0.7015348090436584,
				0.4128574642505396,
				0.967248776120408,
				0.1416563663792898,
				-0.028431872184547125,
				-0.5524583242770533,
				-0.9622547014090586,
				0.351613179418262,
				-0.44502116845750495,
				0.3793743499809543,
				0.6764998743935102,
				-0.32666774074036686,
				-0.008875133101788002,
				-0.2875620240672121,
				-0.48210182073522123,
				-0.519804205700598,
				-0.5500234899605858,
				-0.7310294746331332,
				-0.015262508769950944,
				0.5651351401473832,
				0.07462221366896671,
				0.086469362294054,
				-0.9574758932677336,
				-0.7555440504436102,
				-0.6624648114105254,
				-0.06697863054006437,
				0.44227062959567487,
				-0.2606141075760724,
				0.5109873184123308,
				0.39393548446264015,
				-0.28892537206334756,
				-0.3810597301303478,
				-0.3508958153806305,
				-0.46151939709546586,
				-0.6530379694286577,
				0.35141700924806685,
				-0.8097334869358312,
				0.1773171742227455,
				-0.3480995021753075
			],
			[
				-0.8999712978877228,
				-0.10776157907017625,
				-0.11304734694217178,
				0.8185925292376384,
				-0.5211404226320142,
				-0.1096907514395995,
				0.7825788637467079,
				0.4839325325443524,
				-0.8066617833486411,
				0.7905777101376961,
				0.41027242788312046,
				-0.29709982099707677,
				0.4641493168388209,
				0.1185372897810879,
				0.2801045399370614,
				-0.35604822765399513,
				0.9032471200138033,
				0.02091911748610853,
				-0.27784963196716284,
				0.062089049435397836,
				0.15600163528264321,
				-0.21716298144976243,
				0.07177913091313481,
				-0.6712682777157228,
				0.9911967199157958,
				0.6658561247996517,
				0.16059678738821503,
				0.09150953032843834,
				-0.13043655412480337,
				-0.44785484453478386,
				0.5345339603187056,
				-0.7548061333148874,
				-0.9165056183464237,
				0.31854122600834955,
				-0.5224128670096353,
				-0.5108342957943264,
				0.6185314176304946,
				-0.8272412049827849,
				-0.1007648313727203,
				0.9946190363599667,
				0.09392094641342563,
				-0.13749572897898288,
				0.35255844822591387,
				-0.17443641003648525,
				-0.9063055967454257,
				-0.1662650025469654,
				-0.18477319826861383,
				0.33488336969449817,
				-0.3205791521357213,
				-0.12602887679529795,
				0.5925278542523156,
				0.01005860860692298,
				-0.7412800050121975,
				-0.6095067097927238,
				0.7099470591404087,
				0.16977488866359502,
				0.6245335345891756,
				-0.8614708670032987,
				0.012088626417892545,
				-0.5514086099703199,
				0.7480803496661586,
				0.716715869578401,
				0.2918833802693537,
				-0.6191193329805889,
				-0.5235498758237571,
				-0.3226045719056656,
				-0.7524587009977748,
				0.9545013189443763,
				-0.43632848780398836,
				0.06745773056660687,
				-0.29124126374909354,
				0.04878147332418248,
				-0.6081028145885892,
				0.6491385465540946,
				-0.004012914128360023,
				0.5489381348368885,
				0.3724506111582486,
				0.0325884649210475,
				-0.30035532820947797,
				0.39161096468909484,
				-0.7277920753895968,
				-0.5065308363471619,
				-0.2851025401631846,
				0.6878616182506065,
				0.823286156094281,
				0.5158896328725113,
				-0.6614372727934681,
				-0.11211834012370847,
				-0.7648262335783778,
				0.9139484420893966,
				-0.43445762757011597,
				-0.9458015612896511,
				0.698324583408469,
				0.5618229139543813,
				0.26891773648289163,
				0.41208453591809757,
				-0.5920140418015216,
				0.38146786422472845,
				-0.6762944035999805,
				-0.7929288118689768,
				-0.1322983829354447,
				-0.7136668402554593,
				0.9467107528898375,
				-0.0935331196080198,
				0.5912180603755273,
				-0.5103355636561102,
				0.6755390497571803,
				-0.7426112218266421,
				0.9029016542199111,
				0.03934915960907004,
				0.0762462609908452,
				0.09591352991230995,
				0.16758765370120754,
				-0.8523218521642586,
				0.6483531793706208,
				0.5613061324497841,
				0.5663228161420779,
				0.26513187428085017,
				0.6353384784902518,
				-0.43207687879978796,
				-0.7895489902468444,
				0.8332647615242355,
				0.49267609350543706,
				0.07734343071252603,
				0.8925580426918875,
				-0.015469784047583257,
				-0.5626764933106054,
				0.4999179747038962,
				0.21282984616571188,
				-0.7885350586653894,
				0.007105828058489028,
				-0.43242887838292177,
				0.6865561303548824,
				0.2163434074839472,
				0.6229072845726082,
				0.18950457526006836,
				-0.4439091525597778,
				-0.6453745495223022,
				0.586572797376983,
				0.12072501425821924,
				-0.2508978587373223,
				0.7968581220425905,
				0.6611069277955393,
				0.35306134477038187,
				-0.4580251602986696,
				-0.15817129268890007,
				-0.20499460831048966,
				0.5381249886812483,
				0.33722139339706825,
				0.8281017599670015,
				0.7233082337782468,
				0.9588529614913335,
				0.06466524154548114,
				0.11403727195918201,
				0.761173940904202,
				-0.04489133719528349,
				0.9251352374184973,
				-0.6283162499574986,
				0.8856017968011431,
				-0.9393482571060194,
				0.830567863567901,
				-0.5865927101346702,
				0.029859391421416248,
				0.522607197855796,
				0.7497426557859761,
				-0.03616132745711376,
				-0.6184445428730703,
				0.2579405108037345,
				0.43938926787584487,
				-0.42750732554615123,
				0.31872209319048617,
				0.8990256959792311,
				-0.2850391861452515,
				-0.29498721409937056,
				0.5735012971215485,
				0.30298476444243505,
				0.6758140857616217,
				0.3950130369297331,
				0.8673969609961572,
				0.10364538204306406,
				0.6221790240621141,
				-0.647296563014435,
				0.5584795828721973,
				-0.5728628961761588,
				-0.28124316240271297,
				-0.0034990113882495955,
				-0.9940216212468314,
				-0.5578955934893024,
				-0.7200610381548693,
				0.5732636024598134,
				0.7943153521989199,
				-0.28084553707678594,
				-0.2615218393937093,
				0.5585224087939755,
				-0.09900405010462032,
				-0.5472391714785192,
				0.9265198076603114,
				0.6857333413003324,
				0.8281330572153287,
				0.47376859316936004,
				0.29157661270610946,
				0.5882901723781737,
				0.19353674990473113,
				0.32371210577395493,
				0.16275755083028765,
				0.6810583868889006,
				0.17403002618600238,
				0.04911727377906594,
				-0.6540901099463885,
				-0.03739814346267645,
				0.7617000844876296,
				-0.5173765052486972,
				0.01342424476190418,
				0.9145861355357208,
				0.6886061844518152,
				0.3977088032884004,
				-0.6455139447212783,
				0.20413899942159341,
				0.5596145250597142,
				0.7239521752710671,
				-0.8002057051277758,
				0.5123271985620699,
				0.3964878122837505,
				0.23077081036968394,
				-0.08047143092354903,
				0.5554492912578324,
				-0.23849396051553873,
				-0.8249443322070578,
				0.7276305353297245,
				0.9323030078052148,
				0.7254733952397849,
				-0.502984028222865,
				0.7759356499440515,
				0.6793632602599811,
				-0.5088264835271605,
				0.7327964807903475,
				-0.4289172496217395,
				-0.11891558387130585,
				-0.8011192971223102,
				0.0906204899473062,
				0.4528935356856394,
				-0.4095336255071733,
				-0.9827265885161527,
				0.9353534356227731,
				-0.08153267547449916,
				0.9983345250396236,
				0.7173131271614048,
				-0.8266498575330559,
				-0.15614947500737575,
				0.5619301180066052,
				0.2511131873260397,
				0.693228899918322,
				-0.18293474610835592,
				0.13810280106240302,
				-0.4658003474174617,
				0.6357204956688882,
				0.8200908878611006,
				0.79557773140038,
				0.9953117242970397,
				0.8403746943305754,
				0.913768738513447,
				-0.9464053868031557,
				-0.06294977119492406,
				0.6448706720487527,
				-0.8437464968516846,
				0.3327785544792863,
				0.2265787456152366,
				-0.7590245816367212,
				0.8747528606887602,
				-0.32229193340405393,
				0.8321274107283827,
				0.5263146156289222,
				0.46505727093443205,
				-0.8414560737303525,
				0.4077382348378671,
				0.8278790205233464,
				0.8316101354618164,
				-0.9283559222881186,
				0.44035824669220425,
				0.6683429227926037,
				-0.8689836290833406,
				0.9796729611004036,
				0.839005714996182,
				0.3058301668065173,
				-0.8484722681873813,
				0.0071940912597137086,
				0.7993935252168547,
				-0.7407144833949046,
				0.1102641313319066,
				-0.2506730698341886,
				-0.29896914184845214,
				-0.328366440100504,
				-0.5807480272724499,
				0.10007284266255789,
				0.6981864871752914,
				0.8965763219827445,
				-0.8128132257533309,
				0.4810253015200643,
				0.31194497415716826,
				-0.710967959367256
			],
			[
				0.4689384094262663,
				-0.42986516653289275,
				0.04755054685792448,
				0.9240184357998427,
				-0.3908371351092943,
				-0.9212337269766717,
				0.45902871822680513,
				-0.8108915121088862,
				0.6286687726794997,
				-0.10416299579744548,
				0.07131389896130269,
				0.6445653820827966,
				0.8185192825216987,
				-0.15316120709382375,
				-0.7844284482141473,
				-0.05327080296148612,
				0.7486564492955536,
				-0.2741174753011557,
				0.05305338459031406,
				-0.2319534491508688,
				0.2151852837357615,
				-0.6977927988239552,
				-0.6268247190095768,
				0.9437877998152793,
				0.7029011388767312,
				-0.9136716926205253,
				0.4240752204644589,
				-0.7808791089021367,
				-0.9466477217489748,
				0.549780574187491,
				0.6010699387578389,
				0.7406143736902688,
				-0.25879232866188273,
				-0.9729694096370998,
				-0.2353369628179225,
				0.5459696422026834,
				0.22175126557757263,
				-0.7766844582884671,
				0.4397295049804617,
				0.3167035694549529,
				0.4986557206840909,
				-0.711556148067805,
				-0.9096165740277864,
				-0.9044916301368642,
				-0.5393721485819358,
				0.1592794979773382,
				0.10083845490064025,
				-0.6342532128482357,
				0.7996292751144791,
				0.5028257452303042,
				0.36133874233409413,
				-0.14074515935172194,
				0.2728856516251037,
				-0.16772874669459048,
				-0.8720546140873457,
				-0.924735915595599,
				0.5113403431072072,
				0.11205965888174063,
				0.9472972661217209,
				-0.21513507945658095,
				0.7773359997974749,
				0.38733153661310427,
				0.8618206351370743,
				-0.17776269560621039,
				0.7138543987562969,
				-0.7103971024574354,
				0.1541989873606493,
				0.9423716796537476,
				0.09227773633250758,
				0.8891159320440893,
				0.363154132365314,
				0.1340508536459808,
				-0.29718234561256063,
				-0.2876580767802963,
				-0.9642226637235525,
				0.8121773528950698,
				0.8193349947641604,
				-0.41198008839753797,
				0.10190038249321409,
				0.05431205103012804,
				0.399243765404413,
				0.17080560345934837,
				-0.5741894093571984,
				-0.35222031016696853,
				0.8813203765518947,
				0.050443206280187614,
				0.4780406463383362,
				0.3653091392731862,
				-0.5343305688252937,
				0.08768728224234046,
				-0.4170579963835066,
				-0.6199817797148781,
				-0.33535571473991377,
				-0.32358832364881973,
				0.20047464424940875,
				-0.009741140539893944,
				0.9836659678307709,
				-0.6704378938034146,
				-0.7694402241422282,
				0.47045720704053906,
				0.5428997024751925,
				-0.8192914888094611,
				-0.3763690911600577,
				0.5325235397167587,
				-0.26373724101349616,
