{
	"bias": {
		"m": 1,
		"width": 1,
		"n": 100,
		"height": 100,
		"matrix": [
			[
				0.021957833768759816,
				0.7311402458118645,
				-0.20833749133227775,
				0.6416214507909244,
				0.9131782684372873,
				0.5404989457916085,
				0.2642101199514384,
				-0.6602985118303457,
				0.5772734315202168,
				-0.10752545237613376,
				0.6610437475821205,
				0.0054462310642238165,
				0.8220004412288495,
				-0.7002341003545878,
				-0.8203769087978983,
				0.957699487184597,
				0.2135108627704021,
				-0.9454988471974923,
				0.21357632333639698,
				0.18073869734371506,
				0.2842373029195544,
				-0.20740405638843562,
				0.7562415915264915,
				-0.377233078667365,
				0.7125803123338779,
				0.29560808961539076,
				0.9742292187297155,
				0.453643533827377,
				0.16724773104593416,
				-0.5214791128215404,
				-0.3603868540706059,
				0.24953054211187586,
				-0.5518617709650075,
				-0.6826184855756838,
				-0.6476129918867404,
				-0.7559973944461036,
				0.29793467001170537,
				-0.9576128158171464,
				0.5114758929342313,
				0.004845206197800156,
				0.23260113237189906,
				-0.29043810857556895,
				-0.7927418075842203,
				-0.6458493648044943,
				0.05786340006915047,
				-0.09931377185732249,
				0.9928064450707095,
				0.20707466347377013,
				0.2144031514348108,
				0.9679419939253502,
				-0.4237391563699453,
				0.5275255307888393,
				-0.0902748124553292,
				-0.5560165502828927,
				-0.7049507113346407,
				-0.932475785066524,
				0.6763777695126083,
				-0.7164559415671619,
				-0.1280790294849461,
				-0.04996223534267097,
				0.50003977678915,
				-0.8924737681202779,
				-0.15229758502477786,
				0.1160168495097662,
				0.4846124128135152,
				-0.6361282304073699,
				0.6436541704154726,
				0.12358509295801712,
				0.2908649375085788,
				0.8283478626325089,
				0.2748048119852915,
				0.20137329485892863,
				0.5376594050041605,
				-0.24506443952474521,
				-0.6437922623741388,
				-0.5774458691597171,
				-0.5366735153358717,
				0.13526478040269518,
				0.6076429857402075,
				-0.4904057703200566,
				-0.5971868639372264,
				-0.5252684816324158,
				0.05972922680057513,
				0.023510031762390415,
				-0.26288548578094684,
				0.29088484530979786,
				-0.49762326927181766,
				0.5416260064890452,
				0.6582272810388923,
				-0.9416808873511053,
				-0.056085903293730865,
				-0.7631465476437649,
				-0.5295542825889417,
				0.7440505003168694,
				0.789068227673325,
				-0.2736374374787247,
				0.4021439650111094,
				0.31917340248352444,
				0.3489207541960302,
				0.22441759034141384
			]
		]
	},
	"bias_Out": {
		"m": 1,
		"width": 1,
		"n": 25,
		"height": 25,
		"matrix": [
			[
				0.032245435376045496,
				0.004645694607767271,
				0.027387186388987617,
				0.010714029219438627,
				0.06882892391998395,
				0.03162232343279233,
				0.012870262862307063,
				0.03910118954761296,
				0.022212550953021416,
				0.03316808345196669,
				0.014928843015744838,
				0.04923173308637736,
				0.045118584320330606,
				0.019755095998728472,
				0.0423047772634522,
				0.03635612023103828,
				0.038938396071514045,
				0.02569227127447339,
				0.025854274545739856,
				0.038112869096314624,
				0.010989868614283825,
				0.015377633463160706,
				0.009886174598607224,
				0.014404273728167239,
				0.018571179765439233
			]
		]
	},
	"state": {
		"m": 1,
		"width": 1,
		"n": 100,
		"height": 100,
		"matrix": [
			[
				-0.9732344365003852,
				0.994092414162462,
				0.9965645939262167,
				0.9994679514510276,
				-0.75760976942004,
				-0.08658192220586598,
				0.9999999868949638,
				0.9837261409756197,
				-0.9999995332811487,
				-0.9999589021655142,
				0.9485473976012734,
				-0.5403766221922783,
				-0.9999997113833666,
				0.06328225817561817,
				0.9998253517514135,
				0.9899122593535561,
				0.81905438861155,
				0.9932315430722035,
				0.9855182051158661,
				-0.9999791647809395,
				0.9999369270183059,
				-0.9999999997596578,
				0.999979920731566,
				-0.9915026303682313,
				-0.8702810715974744,
				-0.9999999829904562,
				-0.9995688415725806,
				0.7476861901191156,
				-0.9999843551602323,
				0.999999686496483,
				0.9997501286407536,
				0.96831888838767,
				-0.9999999979157767,
				-0.9937981283339037,
				0.9999999984416397,
				-0.811941745675886,
				0.32886168303926194,
				-0.9075039614008752,
				-0.690504717661738,
				-0.9995527158143159,
				-0.9999839147050752,
				-0.8782448811851344,
				-0.5336080331581194,
				0.9999988378294222,
				0.9999999999296324,
				-0.9998816929144921,
				0.9997955598021667,
				0.9702963406300732,
				-0.9999981092551732,
				-0.9824362119416016,
				0.16633280835731432,
				0.9991681257327165,
				0.9999980100117881,
				0.9540335168352879,
				-0.9995388317087892,
				0.63344436743682,
				0.9999923487977875,
				-0.9991954516318579,
				0.9896030654522933,
				0.6566263313742637,
				0.9994523477115658,
				-0.9989568240559477,
				-0.999838286059786,
				-0.9959494576310299,
				-0.9999999921729548,
				-0.7457003491888534,
				0.9990445073422802,
				-0.9992206427254717,
				0.9999839699467709,
				0.9999986195547254,
				-0.5921304805253251,
				0.9999912038353701,
				-0.7107349903109009,
				0.480197429383901,
				-0.8537635025433249,
				0.9999992989371421,
				0.998978494957771,
				0.9999985588039664,
				-0.9996336308564435,
				0.772077015252923,
				-0.999999933721229,
				0.9772001831904932,
				0.9239601127706314,
				-0.999998888441467,
				-0.9733681635475752,
				0.9992515050187368,
				0.7845981976903782,
				0.9352269312052768,
				0.9999804510989009,
				0.6631404441215388,
				0.9999881981912693,
				0.048584775473665597,
				-0.7324432473728506,
				-0.997064153375928,
				0.9999160289318075,
				0.37037492139552813,
				0.999999044789156,
				-0.7850724009589525,
				-0.9999999833843427,
				0.279544703259611
			]
		]
	},
	"weight_In": {
		"m": 25,
		"width": 25,
		"n": 100,
		"height": 100,
		"matrix": [
			[
				0.7690404385568992,
				-0.5461047118272351,
				-0.5599072276297852,
				-0.52877348837161,
				-0.30819788897802836,
				-0.8534818979789192,
				-0.7768432285024311,
				0.6671595230727809,
				0.24262269491457955,
				0.11694878765845118,
				0.5033063456437552,
				-0.06600922988810787,
				0.4696366898569999,
				-0.6214838066248598,
				-0.3555314856801264,
				0.7217578277212642,
				0.33919147165434094,
				0.817055612443534,
				-0.24754234805256292,
				-0.10101986319823286,
				0.948951700900492,
				0.3619962075730623,
				0.02430411078452055,
				-0.5996610834559797,
				0.6325174279778492,
				0.19191991849492984,
				-0.8573705310444302,
				0.10988474335151643,
				0.027318745089282448,
				-0.1190069935547009,
				0.03123436893036846,
				0.7807259716417079,
				-0.42535348830420183,
				0.5248638180136354,
				-0.9550257777980993,
				-0.9381709685352004,
				-0.9932339163860386,
				0.39796250106828435,
				0.1262972671793543,
				-0.3081532769553723,
				0.0366411917643803,
				-0.2756925816331188,
				0.2365394292872196,
				-0.9731827363205907,
				0.8575428583860041,
				-0.10665878937198858,
				0.1282365470568445,
				0.8434124083998715,
				0.4302629945308407,
				0.3834760020971548,
				0.9648487544884086,
				-0.6805289605187506,
				0.8636020714315591,
				-0.7579253087069331,
				-0.09197055892955008,
				-0.559983414989782,
				-0.09264988424519238,
				0.5202087302475307,
				-0.8098870078975531,
				-0.8119450185261226,
				0.6050681594840537,
				-0.7855024802693578,
				-0.13002521417629342,
				0.4897500971561817,
				0.7645254583945351,
				-0.16932363321967525,
				-0.10872150062166774,
				0.1929732570048177,
				-0.9779005270015331,
				-0.6706987169974283,
				0.7783436284607221,
				0.304136856851426,
				0.5026389407991698,
				0.006024813740928003,
				0.2173936024801022,
				0.7666480478053206,
				-0.32901902863339894,
				-0.11583643505878438,
				0.9121913463324636,
				-0.8223448811775178,
				-0.6245124764382113,
				-0.28393447668888205,
				-0.4306823876954291,
				0.35712164524486534,
				-0.17118869768727452,
				0.18488653007959543,
				0.8203942968937299,
				0.4113535378709008,
				0.19440597787594216,
				0.05635635131252004,
				-0.3034054571802245,
				0.20334083224520727,
				-0.18994816717635432,
				0.539610677141773,
				0.8622017622792666,
				0.8845471986190425,
				-0.30238741060329977,
				-0.2724149326591463,
				-0.4179755914188399,
				0.8694384024403976
			],
			[
				0.3909311510955984,
				-0.014377322589935737,
				-0.15176185900922512,
				-0.8517589566675632,
				0.9200180877582138,
				0.2997205866558117,
				-0.42667672504978427,
				0.21097861625721936,
				-0.7286794326747645,
				-0.7227469433323264,
				0.8313545991494196,
				-0.7520130065578035,
				0.8224878577199299,
				0.7743137086710727,
				-0.5453557517241254,
				0.6592921755586043,
				-0.950111724014421,
				0.3615008557856543,
				0.09045961843889483,
				-0.598939874659147,
				0.012511068345538057,
				-0.11606698864158327,
				0.6325338187594971,
				-0.6206689911202514,
				-0.17728888130710274,
				0.9133054438441315,
				-0.8938032237411235,
				-0.9939327298549019,
				0.7757170033715344,
				-0.1432238685416567,
				0.9968389137367706,
				0.1737933196569772,
				0.868148452347655,
				-0.35823651122035516,
				0.22738984239347193,
				-0.6587791698287564,
				0.5692547545006352,
				-0.9249618249782343,
				-0.6466071787432623,
				0.6261882675166492,
				0.6926913612677019,
				0.7250110695672229,
				0.6932298809877913,
				0.12352718014641129,
				-0.33509683382051225,
				0.31388031223250623,
				0.3629921257972759,
				-0.31753270234671227,
				0.3441630202592614,
				-0.32114441907335145,
				-0.7560193782427214,
				0.32190057720552145,
				-0.6994167412956358,
				-0.8975545146344888,
				0.013510147923778248,
				0.2693915803591618,
				0.6746272943996865,
				0.233758905708644,
				-0.9375426058563883,
				0.1514113037425533,
				-0.15246558851636305,
				0.3484907928153236,
				0.7742278911132314,
				-0.4675321470515281,
				-0.5559853018088905,
				-0.4335934627354563,
				0.9724217766672956,
				0.815702524563584,
				-0.3893210047606157,
				-0.5121258271949496,
				-0.316949092586158,
				0.47260208929427394,
				0.8932154413945517,
				-0.7647392002691893,
				0.7179484885862002,
				0.6413796170395778,
				0.5623163711460544,
				0.6976532458137528,
				-0.30428188320346017,
				0.2842645526490819,
				-0.9580967674972714,
				0.012871772612171206,
				0.4429264630064105,
				-0.13242761223011446,
				-0.21313769832067297,
				0.12033379530622312,
				0.18008124536000514,
				0.3590428136483088,
				0.5384740811616839,
				0.05326054970151883,
				0.8497611721734621,
				0.07379767615842692,
				-0.6151744528067584,
				-0.19470337114607972,
				0.924178749415054,
				-0.3491118531362942,
				0.4787030446942482,
				-0.5548336888417222,
				-0.13267376019995547,
				-0.23103899734715672
			],
			[
				-0.11549580435274853,
				-0.539584597846166,
				0.6304933088165181,
				0.7091734862065393,
				-0.5618769653142945,
				0.45175966155300973,
				0.38108639512245857,
				0.31117145600821283,
				-0.04595984792490171,
				0.3021074490482296,
				0.2157591052058594,
				0.4780372381456992,
				-0.758748240489119,
				0.7100285228348526,
				-0.5290942264050322,
				0.1551941535199246,
				-0.6854511426329002,
				-0.5910485835970971,
				-0.5332011805304497,
				0.266107720873205,
				0.6366189203225656,
				-0.37556833343770935,
				0.18636513621921758,
				0.0797849465224223,
				0.046945955542146756,
				-0.6122435949866682,
				0.3167252830844043,
				-0.11375357923411178,
				-0.5043392418471804,
				0.17655941154252197,
				0.08489612043565709,
				-0.5979072608048503,
				-0.7494772433006469,
				0.08336486835238865,
				0.5706683133664643,
				-0.5104225901513515,
				-0.23166833261673814,
				0.03517981660164082,
				0.9138128926855122,
				-0.7478400914045382,
				-0.6980457435454186,
				-0.36562911437166346,
				-0.4183759112786887,
				0.2174912062420069,
				-0.0672844341643315,
				-0.9298000593780573,
				-0.4436895319580687,
				0.7049054111814907,
				-0.43786028495005747,
				-0.6152225317844797,
				-0.058982120102205826,
				0.779342333737028,
				0.42957691597290104,
				-0.5638581785086463,
				-0.9234028971888923,
				0.3791424171984623,
				0.9386017931904576,
				0.9824861785222168,
				0.7678382170216609,
				0.7431728250043199,
				-0.12886158850727147,
				0.6172312494601551,
				0.0730746182190738,
				-0.6291517231866885,
				-0.5865233961888987,
				0.6968216324831884,
				-0.2199908364177734,
				-0.9349680666762401,
				-0.9018644326929257,
				0.03622162388513672,
				-0.8304305993027192,
				-0.4743895956130322,
				0.25720929179556284,
				0.2608607437309045,
				0.4731005998377067,
				-0.2562953803104957,
				0.5445537921504022,
				0.18460727961515921,
				-0.5396934962127822,
				0.42861178106594355,
				-0.9260111997732019,
				0.5960556156329067,
				0.40103899538609733,
				0.039902204666053986,
				-0.6885766819391645,
				0.7770770207868085,
				-0.7387249713249702,
				-0.31821666167895435,
				0.3000597510171059,
				-0.012640581185150435,
				-0.739698177813163,
				-0.4301929251559313,
				0.83290374570882,
				-0.5824078107248312,
				-0.03861078165350884,
				-0.9772481205116628,
				0.49187750282974685,
				-0.6239448671746834,
				-0.5303247694052606,
				0.7510783487216726
			],
			[
				-0.5132401264734292,
				0.7330489193321217,
				-0.6241650995743329,
				0.6931849023891505,
				0.08515724751864306,
				-0.8490206589366789,
				-0.46523526518190117,
				0.31134679804244136,
				0.6581670869178762,
				0.09757661782256388,
				-0.8796779297803017,
				0.5017586379625008,
				0.42830526228415877,
				0.11111497210431542,
				0.9783086234915124,
				-0.4849955561379655,
				0.03119379205207773,
				0.5778319946385455,
				-0.797069709799104,
				-0.5011444242338796,
				-0.16358201469010725,
				-0.3269135924552815,
				-0.5942852359498261,
				0.820265901477113,
				-0.3029276112436934,
				-0.6291652632060929,
				-0.4989578217056665,
				-0.46190448504872395,
				0.38089315967020987,
				-0.09268963335651392,
				-0.5321748265906767,
				-0.922847444064081,
				-0.8857137592225963,
				-0.30802431719200873,
				0.9361049252334586,
				0.02589086821834341,
				0.14237830669805884,
				-0.4799110107293014,
				-0.3229099456157467,
				-0.0899433193114394,
				-0.4578062522311308,
				-0.6680128319251164,
				0.4953319583989191,
				-0.9237981766010814,
				0.17107680743517806,
				-0.23092603839019876,
				-0.021682133268236203,
				-0.2763931119418457,
				-0.19135945462318427,
				0.6381742755802731,
				-0.8600860463672975,
				0.37767134612992015,
				0.4083011355118833,
				-0.817303877825299,
				0.6641296056468979,
				-0.7084014646684977,
				-0.6545353267229541,
				0.6231123867076924,
				0.6250660903472407,
				-0.7633194909010936,
				0.12137562199856333,
				0.5410078363394022,
				0.21138711433782298,
				-0.2374674680922868,
				0.0072716423098095895,
				0.2855675872193415,
				-0.5534643854071768,
				-0.526286452049971,
				-0.1516965840727469,
				0.8433677514722273,
				-0.4034598365055371,
				-0.6781534021274123,
				0.748696329559857,
				0.7004127942503815,
				-0.9176907418460689,
				0.9096033938829975,
				-0.5314717841239007,
				0.8411527017591749,
				-0.6912384109190239,
				0.8494394128995846,
				0.08980184817421177,
				-0.06813262355144722,
				0.08209072679259011,
				0.6865251456872037,
				-0.6743027075949497,
				0.3227814054149176,
				0.29198578535258424,
				-0.9259536215488318,
				-0.41475775204546617,
				-0.8562339973081987,
				-0.5648592866590443,
				0.06384579648272037,
				-0.8086243496507972,
				-0.20821739263351713,
				0.7597285770795148,
				-0.6260028670347775,
				0.3996902683593633,
				0.9765995461178707,
				0.2981235757504912,
				0.4922151306276046
			],
			[
				0.16254700524708765,
				0.01727811430666648,
				-0.4542183101717159,
				0.5196361592136909,
				0.471845920410221,
				-0.10541127956868168,
				-0.26866994474838,
				0.17375033453845123,
				0.757182161594641,
				-0.7050115288430048,
				-0.7317958106374416,
				0.4212795966116656,
				0.4974336997378974,
				0.8707558859150302,
				0.6777461824214974,
				0.3895157654158825,
				0.19329357114520818,
				0.059267683829391515,
				0.30421775007321195,
				0.9497766131129453,
				0.2085771018767666,
				0.35662598770150655,
				0.9008380811210119,
				0.7827734303228646,
				-0.21933520904128212,
				-0.7865553828328684,
				0.23785898722735865,
				0.6577268401748722,
				-0.7572952906389956,
				0.6335668808034662,
				0.9340973436798925,
				-0.3470665317891841,
				-0.40382792772701714,
				-0.8551485414264044,
				0.3399519820469443,
				0.45434535714307467,
				0.8451589008573457,
				0.09424325274388146,
				-0.7278081747604443,
				-0.031534711648476765,
				-0.7096496857280479,
				0.15471239114838875,
				0.322150498496939,
				0.6296584405103989,
				0.16058800850633492,
				0.8531865264652287,
				-0.6246947555876123,
				0.8411701233860529,
				-0.3453615825486338,
				0.4388635161329453,
				-0.07885512890069979,
				-0.5470764746505927,
				0.5057085870444067,
				0.5747774101922687,
				-0.7245335183862163,
				0.8771510371815818,
				-0.11372908720939856,
				-0.07748485436755326,
				0.7914080341923118,
				-0.10831501942151833,
				-0.9643643909307893,
				0.6864053322390893,
				-0.7207090995063923,
				-0.3681281465006263,
				0.45915074051178095,
				-0.2861579195777253,
				-0.24284589156645842,
				0.4747005770609669,
				-0.522092848066877,
				-0.3305302072563223,
				0.1576788394732742,
				0.5796721090343433,
				0.9294442319234619,
				0.23676434393883516,
				-0.9289549871519873,
				-0.8227592688278498,
				-0.513632504303724,
				0.3852366447750062,
				-0.4760268217653554,
				0.7123339562216664,
				-0.401658336943139,
				0.46909527079214364,
				0.732102674580684,
				0.5035125331995065,
				-0.8905057722969629,
				0.4799417137334774,
				-0.8254829298399491,
				-0.1520662832138595,
				-0.5938257489970464,
				-0.00028416467084602104,
				0.8633431517849535,
				-0.6426458984743566,
				0.7458608413871781,
				-0.6615245699984822,
				-0.744278471391365,
				-0.39003008047016285,
				0.4204058306346754,
				0.28416022613061287,
				0.9092240090903392,
				-0.7906390982389024
			],
			[
				0.2620481441310729,
				-0.7565189260762484,
				0.6341203297858713,
				-0.9194751341765772,
				-0.8471859014407892,
				-0.047223478361698046,
				0.9859744499540475,
				-0.2975066023211137,
				-0.9744921581709587,
				-0.8292857860751437,
				-0.420484218078057,
				0.9645217997066382,
				-0.5520001575324835,
				0.6470110574605226,
				-0.7957370414644469,
				-0.16206273090971068,
				-0.018223273749156554,
				-0.5159449175741262,
				0.7900368322173836,
				-0.8051627277367173,
				0.34466560366124943,
				0.7225340386713932,
				0.7139305277081167,
				0.5812377459226585,
				-0.6983718354162525,
				0.19763623708578004,
				0.6449628894683821,
				-0.9596430520457564,
				-0.44966541059885845,
				-0.5399309455220171,
				0.699847375066168,
				0.86512185427708,
				0.9624144547586777,
				-0.5348615217750545,
				-0.13148911336996916,
				0.779556445233057,
				0.5672600906996328,
				-0.24994080204261726,
				0.8012328875068251,
				-0.053513527232886826,
				0.4037716798711548,
				0.6137852706901405,
				0.5988995298641497,
				0.7444057142732841,
				0.16815412640437533,
				0.921904739743248,
				-0.923673769212352,
				-0.18139467476602,
				0.94100894918589,
				-0.09974839956774817,
				-0.021119365460512185,
				0.6919643496031913,
				-0.8687914115630528,
				0.8649325733395106,
				0.7021644484396519,
				-0.9980427705790484,
				-0.20523745184596676,
				0.16133497782095763,
				0.8570089607322875,
				-0.7542611599182347,
				-0.6545508215715166,
				-0.5358393116240907,
				-0.8921110382599662,
				-0.2513837913729424,
				-0.6226249768059464,
				0.3757171328479201,
				0.9803045961323615,
				0.3757221675275302,
				-0.12217349075376838,
				-0.5840363600687466,
				-0.7188979623831262,
				-0.5667385741236042,
				0.6836025147294045,
				-0.2932570627757376,
				-0.3445732909475563,
				-0.08373940283657211,
				-0.7425272405605767,
				0.46419213603928666,
				-0.5317011769547912,
				-0.8739522539780187,
				-0.03483287957375358,
				0.5476705261495605,
				-0.12447886401144226,
				0.23449329289987775,
				0.34003407282842213,
				-0.12171023531830771,
				0.5733466321214817,
				0.6260887171786291,
				-0.9725723017398265,
				0.9002471273789956,
				-0.5122035008028898,
				-0.9681385072208446,
				-0.8878459443836659,
				-0.24516501015224845,
				-0.7162668010420346,
				0.6631421001466866,
				-0.45242507136528776,
				0.6230390940647736,
				-0.053558363994244296,
				0.7767527904060305
			],
			[
				-0.2026133571313884,
				-0.25455692961056897,
				0.3267597115234615,
				0.11335694066632218,
				0.10212484957911316,
				-0.9352226146922029,
				-0.08564545184665873,
				0.17253969175647788,
				0.3419779025490617,
				-0.24960580667224663,
				-0.45987354319463547,
				0.1944684365678646,
				0.6447610997181061,
				0.014840792419703597,
				-0.9750146117755105,
				-0.7003451245268044,
				0.4019466844447446,
				-0.5338388248254162,
				0.3357229550653402,
				-0.0843882817958912,
				-0.44351539673256113,
				0.7706434285947847,
				0.8007326758257829,
				-0.7318141101497813,
				-0.09596426076834463,
				-0.11485883532080932,
				-0.6325749922654316,
				0.11308303811423048,
				-0.834564989325763,
				0.37761263083907837,
				-0.43490149344116835,
				-0.012077683157364127,
				-0.48013771635357916,
				0.8311578842025558,
				0.9741366695141043,
				0.4783126524805681,
				0.17995592067451183,
				-0.31659138455721036,
				-0.8971558088934035,
				-0.9496227836825861,
				0.3797921498999126,
				0.08259898097101237,
				-0.49999583320591734,
				0.30493293479536066,
				-0.5379238462298273,
				-0.7166519831745854,
				-0.21428430457428504,
				0.22657438911358385,
				0.3977943169617104,
				0.41041460203609503,
				0.7119505081924586,
				-0.19483827738810833,
				-0.2801380455110465,
				-0.8257197910965028,
				-0.1487187979643796,
				-0.5422417519731679,
				-0.06748744729833778,
				-0.9057866914507611,
				0.535731017361571,
				-0.09369737225587516,
				-0.52193771523137,
				-0.8249637192668859,
				0.25331605526319967,
				-0.24231890687648905,
				0.42396341899834056,
				0.9248950787487393,
				-0.9582497426357288,
				0.2977488833939783,
				0.6094525878085539,
				-0.6545168718772807,
				0.3187413913791177,
				0.6505332809779372,
				0.05708026585651549,
				0.4058270230625953,
				0.9452967161892878,
				-0.4108488556077545,
				-0.2613825973915085,
				-0.9816908615550366,
				0.7709690914044369,
				0.34266764963128793,
				0.9992651255610392,
				0.7735149182617631,
				0.7095248160943832,
				-0.24000541066697378,
				0.30918433891637864,
				0.9875319532140412,
				-0.8692111286447344,
				0.25259764358513426,
				0.06639462019450271,
				-0.3387886318086242,
				0.9854624597310346,
				-0.9524038530840468,
				0.5358163485103926,
				0.3745177811445548,
				0.6857101289824561,
				0.5898727660156298,
				-0.7362858676177888,
				-0.9623060388739204,
				0.5613171782294288,
				0.5568349401442791
			],
			[
				0.905061233113547,
				-0.840133159502161,
				0.8304846416092233,
				-0.8555610363571216,
				-0.9370114951094846,
				-0.30414002808894436,
				-0.04809471140536026,
				-0.25204193642641837,
				-0.5963780676941095,
				0.2613100534303112,
				0.4318819396315905,
				0.5748364623915072,
				0.9728730938693624,
				-0.3736981402850468,
				0.6600941352665397,
				0.10115576595740361,
				0.8983651794945873,
				-0.06768058859943826,
				0.37843733081353825,
				-0.9161403648428412,
				-0.4862089203345281,
				-0.22588344623210954,
				0.373933923462229,
				0.7868986506443791,
				0.7063588062805461,
				0.01972025291890578,
				0.36282228550089535,
				0.8006710508295969,
				0.9321290844698527,
				-0.782525052337145,
				0.24302326479366032,
				-0.3907042060145738,
				-0.06958493036752111,
				0.08796684598500537,
				0.6042242506625577,
				0.019514266787463264,
				-0.38437890830115373,
				-0.5883319452325084,
				0.48889655332165605,
				0.22392871095632083,
				0.9594876402332937,
				-0.986771963738529,
				0.4823482696552084,
				0.08953838746404585,
				0.15948549158370717,
				-0.346012044079258,
				-0.44956767403676956,
				-0.42179289482084226,
				-0.7728872137224743,
				-0.7044998530677455,
				0.31999553759481403,
				-0.3355675114609258,
				0.3364387367967199,
				-0.9010493879090142,
				-0.7399812872095368,
				0.9859850722604486,
				-0.7709719911890947,
				-0.5431342487030064,
				0.645669688991005,
				0.4978922227356386,
				-0.15645002675990005,
				-0.7929423313938315,
				-0.8795763272078458,
				0.9591998897297214,
				-0.15227088966962343,
				0.2643833677956269,
				-0.1125751167911826,
				0.29633199207523475,
				-0.9284892404748715,
				-0.8297856515247837,
				-0.010069040258394057,
				-0.4331884049355734,
				0.9417085188423764,
				0.5142191516537338,
				0.9561829001037037,
				0.5526382895517581,
				-0.9065827809466174,
				-0.9660647426558935,
				-0.5688514182802131,
				-0.5130858298682557,
				-0.052453651828241465,
				0.5876630657682886,
				-0.7728269850854068,
				-0.11294611576121705,
				-0.09909912961864409,
				0.18736209453062935,
				0.8813793849939668,
				0.679788038283871,
				-0.8647026507997144,
				0.10583002478805792,
				-0.7723065596074479,
				0.08960440367346134,
				-0.6547349147266277,
				-0.4125402155614326,
				-0.9813400754827919,
				0.3014237729648013,
				0.8559992997008949,
				-0.4953939806923007,
				-0.8124950630301062,
				0.1443697911904369
			],
			[
				-0.9355207660918996,
				-0.7858420598071727,
				-0.921763635084238,
				0.5650229092880492,
				0.3517206752012818,
				0.6125384971387393,
				0.6039311123865234,
				-0.06186378444935281,
				0.29209949097496546,
				-0.8331864400057638,
				-0.03558783672584953,
				-0.7955392710862572,
				0.07445690861598564,
				-0.19037939230513068,
				0.6352577800507686,
				0.26191594402065643,
				0.35648199679914194,
				0.6752924567871346,
				-0.2040147500368068,
				-0.8703642336204545,
				0.3573563751448452,
				-0.5973843199806974,
				0.18049264809494847,
				-0.3799255082403663,
				-0.7115507156725012,
				-0.771782764686761,
				-0.048195779289081475,
				0.21987699789451565,
				-0.0461667478991421,
				0.5190260748962814,
				0.6664238993161522,
				-0.49798265902786065,
				-0.571740713094135,
				0.26569743879845475,
				0.19002629491272227,
				0.9031714888245284,
				-0.6999913922652925,
				0.5485582536019229,
				-0.8774330766111196,
				-0.2612668061273373,
				-0.8971079922441341,
				0.8229028535482596,
				0.8519449322031369,
				-0.4417731136361178,
				0.17897563855347798,
				0.8515382384795545,
				-0.8567410928592967,
				-0.23374709790518367,
				-0.5438462997486333,
				0.3956696789929919,
				0.22599913568315522,
				0.1426371895113263,
				0.7854792868273526,
				0.8776215376516201,
				0.9997319981059625,
				0.06244910542048565,
				0.14905951462150124,
				-0.7392298676610811,
				-0.34007933172476257,
				0.01909088288458083,
				-0.3486903856114618,
				0.4326354025960861,
				-0.3514779291719692,
				0.12275991945613374,
				-0.37265526040245556,
				0.3925438949545845,
				-0.15574537367936925,
				0.6937687461156195,
				-0.9087248449673355,
				0.4640267864119503,
				-0.47864962887209117,
				0.6182895218762727,
				0.04475403590642735,
				0.6420570841885951,
				0.44389270178088225,
				-0.06127045783825347,
				0.6560945687951363,
				-0.8668654609046675,
				-0.07249839205048758,
				0.40963717164453994,
				-0.1657036169309145,
				-0.6615860555700932,
				0.910444666698127,
				-0.7718762736060247,
				0.5850272588355243,
				0.25670587182258764,
				0.4137201000026236,
				-0.8631360478040708,
				0.9453998472983427,
				0.9101631902388041,
				0.2908519885686922,
				0.8345205145128731,
				-0.2736131967352011,
				0.3263144790520358,
				-0.6394455776597128,
				-0.5711413165313806,
				-0.7498442597883925,
				-0.9666588132777139,
				0.2292908961859581,
				-0.16621113974460267
			],
			[
				-0.4112942845304417,
				0.8209304297017455,
				0.772669137135515,
				-0.678863254456096,
				0.03509457362928936,
				0.36250758450490084,
				0.020285286489480914,
				0.44944443318445515,
				0.35148753960048307,
				0.8331403731088387,
				0.6557141744690242,
				-0.13094798618426884,
				-0.09354334246764928,
				0.8724660767153312,
				-0.029126904963300948,
				-0.48598770598607066,
				0.174858730226076,
				0.3328653547864344,
				0.6003622860958457,
				-0.5988423031706329,
				-0.9847953333962853,
				-0.7092394608893335,
				-0.782516897583438,
				-0.010686337714735927,
				-0.18212627081248556,
				-0.05591692144481453,
				0.9883680184338912,
				-0.13316371233168312,
				0.33419876796648884,
				-0.45367729489591735,
				0.7296081057624315,
				-0.526916589574848,
				-0.9269929149085101,
				0.2513174023425413,
				0.7619178974626233,
				0.5369261550529578,
				0.4220229566406326,
				0.027666554988353464,
				-0.5698103880344529,
				0.1559508213997547,
				0.8410490297298239,
				-0.967207554364077,
				-0.03144345765698375,
				0.5841202037970454,
				0.5316070217747892,
				-0.5345961550570348,
				0.9627265973366446,
				0.22100367338772164,
				-0.6408171939149563,
				0.56679236258999,
				0.5032163011929347,
				0.950287328359154,
				0.43080152471876554,
				-0.9567510382674556,
				-0.9185231395526379,
				0.8203940157776493,
				0.6072962720242772,
				-0.36554301758324836,
				-0.43919757448723384,
				0.0055037944473368405,
				-0.11704046421544367,
				0.16617784365962907,
				-0.5277283562369623,
				0.23519139659995147,
				0.2787294404283327,
				0.06578080901897376,
				0.7393510242907446,
				-0.16138595564161085,
				-0.8297830519830969,
				-0.7922188304121005,
				0.4779853099012321,
				0.14582162081237282,
				-0.21389715829075628,
				0.13057646762009067,
				0.41114050199946783,
				0.46903838973815004,
				-0.37458936065281323,
				0.17160450848796494,
				0.884762574706925,
				0.7791665861852519,
				0.05065097380405614,
				-0.9082299633913036,
				0.7355583495305735,
				-0.573691871916008,
				0.5326614795256064,
				0.32067283588077444,
				0.7619801877778127,
				0.5922776491378672,
				0.2526985501141339,
				-0.9355856444121402,
				-0.6949950312959321,
				0.7120079883310613,
				0.13234339361102387,
				-0.23001690826878507,
				-0.962109574438724,
				0.08950493963333317,
				0.728327589651192,
				0.5815836454141463,
				-0.6839887506956979,
				-0.8575110582197332
			],
			[
				-0.9529587660965326,
				0.8645763346649522,
				0.06298574863653705,
				0.6806446777006148,
				-0.10511441751799211,
				0.9046312182850791,
				-0.994276164119023,
				0.7614429164967218,
				0.9265358665350591,
				0.2738312975366264,
				0.9701100976413803,
				0.04154016306227559,
				0.7890934061105948,
				-0.6061963269306174,
				0.3011709320326861,
				0.8339031919383739,
				0.39337611051294274,
				0.6536079750447112,
				0.03688046829131375,
				-0.09104558519301253,
				0.2540534291339789,
				0.20744998596498787,
				-0.404378542486854,
				0.8929250584765134,
				0.11966447639670363,
				-0.1748456763857198,
				0.14179836671070012,
				0.8796622856766754,
				-0.65710919223288,
				0.3508750121765707,
				0.9050348893026299,
				-0.4154183660760462,
				-0.4059255225538192,
				0.18725217988983323,
				-0.5675118149705329,
				-0.7978404226736044,
				0.006964845931046515,
				-0.08701087734886936,
				0.4468277218155392,
				0.7643065864463061,
				-0.7385839283694726,
				-0.23913439942879666,
				0.9715031946835899,
				-0.08463551841539241,
				-0.18508532526985588,
				0.35373441887560153,
				0.6815993955494855,
				-0.2445883501463233,
				0.9650312178184395,
				0.7358267950792126,
				-0.6200628084755402,
				-0.32362586994258047,
				-0.22846960560462515,
				0.6252751092978102,
				0.11636334301202433,
				-0.432338217022465,
				-0.747395777984186,
				-0.7803477152416822,
				0.08713739312785274,
				-0.9681261599217366,
				0.5667548847560986,
				-0.3071342518645541,
				0.5851372133518149,
				-0.9404030834174986,
				-0.29050145336932953,
				-0.9321903382739833,
				0.5822657579361068,
				-0.8353386305036983,
				0.7307574768680256,
				-0.13326033351815747,
				0.9515946607194574,
				-0.46712879553573083,
				0.47908639969750544,
				-0.2813418781327859,
				-0.36783201408668154,
				0.40795975865116274,
				-0.40531382011798467,
				0.9423911576398218,
				0.7665484758361449,
				0.9143698063711563,
				-0.600929226724126,
				-0.29115113928404446,
				0.6984028078521876,
				0.8998337843924755,
				0.36331141440467096,
				0.6623057214728192,
				-0.23021814897002146,
				0.7158402036244063,
				-0.8361597826570479,
				-0.16102727853644616,
				-0.1382720304285403,
				0.9398751234539033,
				0.5025664179869733,
				-0.011225396265247767,
				0.8361006581734207,
				0.29524020885342406,
				-0.10863131578912588,
				0.9092467163588034,
				0.614219733415434,
				0.14926425545116873
			],
			[
				0.11691351556141427,
				-0.23626125214586802,
				-0.6366305931310117,
				0.5144902603720678,
				-0.07011852379176009,
				0.13553503856347593,
				0.28529697922753794,
				0.2802969424427193,
				0.5567695499644811,
				-0.7197899152774561,
				-0.7273853360795961,
				0.5707299189717787,
				0.8191437750989201,
				0.8185276473579224,
				-0.24976339926082325,
				0.3260279013531915,
				0.32477960007436035,
				-0.5754079311732196,
				-0.7553182834722598,
				0.8669385388473128,
				-0.18784008331273183,
				0.6540645013853141,
				0.6360369670630242,
				0.06575287387881001,
				0.43837854370887497,
				0.5388920200500587,
				-0.5710911061582498,
				-0.5175340623932545,
				-0.5098957516139966,
				0.2593387684639623,
				-0.32341056216848596,
				-0.8847181858379987,
				0.3708341039479084,
				-0.6623881957475821,
				-0.5159426390147583,
				0.7389060932590694,
				0.5053868627332339,
				-0.3253406803130705,
				0.5116859298036487,
				0.2817246341766517,
				0.4505208091712616,
				0.7605900736458997,
				-0.3236224517384043,
				-0.8746333943970321,
				-0.6770187767366345,
				0.4848107167823943,
				0.8864232061284638,
				-0.19266720844237195,
				-0.3888638391181285,
				-0.44407762747332535,
				0.8914201213475792,
				0.011899997217623692,
				0.25720186853223215,
				-0.2729378971334362,
				-0.24407944341560706,
				-0.31935658045012083,
				-0.5786848047832782,
				-0.0655855933139331,
				-0.31684158274286567,
				0.12700192692433632,
				0.6756906670536695,
				-0.7873431769952957,
				-0.7239275145568644,
				-0.38574088476128043,
				-0.7414507149430953,
				0.10266658906841108,
				-0.23426132067142236,
				0.1662887282984844,
				-0.39998203932800047,
				-0.30603706712198697,
				-0.6416811405077554,
				-0.42730778803747427,
				-0.949602273395576,
				0.5823811345827061,
				-0.7157449940203788,
				0.026729208892610767,
				-0.17429213344730687,
				-0.30211837258211016,
				-0.09639352252412303,
				0.4694451307136327,
				-0.5087566511981589,
				0.5630136233789522,
				-0.26192005673954943,
				-0.45157723095577396,
				0.3576416275934613,
				-0.24619470952438816,
				-0.14817961985102146,
				-0.35413733136595793,
				0.023613628604056913,
				0.4775110303347945,
				-0.7023892179028808,
				-0.649030037297734,
				0.5153607828682953,
				0.7705693391387789,
				0.8857936432648006,
				0.9587578563776118,
				-0.0883294349454311,
				0.4528086706883463,
				0.5785338946488432,
				-0.8534947920404163
			],
			[
				-0.9006131100866099,
				0.845690476036931,
				-0.192604176816769,
				0.7714817024439244,
				0.4677263349035865,
				0.49632380055197833,
				-0.42999832642022495,
				0.4870281900687474,
				-0.8522446413590115,
				-0.7180982747437374,
				0.632225489302618,
				-0.9050710267646966,
				-0.7540307606617511,
				0.8498742576555021,
				-0.471183136092876,
				-0.012971921655426932,
				-0.5652456188082025,
				-0.3259813490185839,
				0.07772681869012521,
				-0.589807291320259,
				0.5231000180626251,
				-0.383374757511187,
				0.7395237262301633,
				-0.996965274076091,
				-0.41835961796241206,
				-0.5669094347398427,
				0.8179654084946502,
				0.6925702164694205,
				0.8009240241427547,
				0.1986610063438512,
				0.7892524254823741,
				0.6213180310329429,
				0.10602990451693595,
				-0.40925144261295454,
				-0.5204186482103847,
				-0.11779808431844296,
				0.7935487405418717,
				-0.5218628269679395,
				0.8522203468800482,
				0.13472324711943262,
				-0.7914256094018688,
				-0.09562206984653487,
				0.535076540943475,
				0.9130912454555151,
				-0.42614234060787703,
				0.3181524473961943,
				-0.6963542037965511,
				-0.21287133298751426,
				-0.880946325951359,
				-0.3224026586169546,
				-0.6337205251740152,
				0.25532313526464634,
				0.37644463627387603,
				-0.9418222681145276,
				0.8818751049552054,
				-0.9270582210545704,
				0.7186560950212866,
				0.11170157501553568,
				0.10583850018485474,
				-0.8784208183068243,
				0.49466091145121727,
				-0.6158555727848647,
				-0.9004849169649662,
				-0.7431142055759077,
				-0.24167339754959727,
				-0.4973025306490193,
				-0.6970577169614085,
				-0.7415178345734237,
				-0.8768639520242143,
				0.40630569573423037,
				-0.25697162295933795,
				-0.6524212887475342,
				0.7228051869974568,
				0.6853304274882932,
				0.4769090918974799,
				0.9582265765227111,
				0.8628813418280137,
				0.5964293112121988,
				0.34798611578277194,
				-0.004900902966755716,
				0.6457817568342081,
				-0.7193966972516264,
				0.28917010524962583,
				0.6236572947711134,
				-0.5434519493443055,
				-0.968094123814168,
				0.11450378671462236,
				-0.0927767766303873,
				0.7744302987961462,
				0.9002960659700907,
				0.05321016053474459,
				0.10606407409356367,
				-0.6742996844236719,
				0.0012951232827145276,
				0.4252145588098819,
				0.5709495538170941,
				-0.10793756196442938,
				0.8166709725745243,
				-0.09429981439461699,
				-0.30209642444246265
			],
			[
				0.9108333272712148,
				-0.3668525248925918,
				-0.35195184551512515,
				0.9279179472933672,
				-0.39394046957670614,
				-0.6369858783355844,
				0.34205622242067424,
				0.34244708569275506,
				-0.4051584487353148,
				-0.8579497431918135,
				0.49142238583484765,
				0.5068038516582578,
				-0.0774388237101089,
				0.6482029894269412,
				-0.5306383138724065,
				-0.2128909730097126,
				0.12639183599915738,
				-0.7945091883899353,
				-0.3918860482846336,
				-0.6440397556467379,
				0.5903319528205202,
				-0.5643940401551899,
				-0.6812470364291778,
				-0.22739279464509154,
				-0.9772643365393665,
				-0.9621423735898329,
				0.7871994701689076,
				-0.25492507287489374,
				0.8162792510407506,
				-0.7618549676895849,
				-0.5734532469898364,
				-0.8946518321953301,
				-0.9455327741521238,
				0.5086879232855792,
				-0.3331609789784231,
				-0.9362200233738389,
				0.30217408749205266,
				0.3540401494436427,
				0.5114225843385283,
				-0.6486434332398803,
				-0.39986571542137606,
				0.7625302092158783,
				-0.8324111176461932,
				0.5627282233257698,
				-0.1432204983487555,
				0.0629654355674849,
				0.8845799161214796,
				-0.6809331608175109,
				-0.6129832487516236,
				-0.692932309513258,
				-0.09966888467087598,
				-0.2504091155669741,
				-0.8209762031664973,
				-0.46780251243056714,
				0.46520898630323604,
				-0.8979315883331114,
				0.23946265153621704,
				0.24874759873128927,
				-0.292672071627857,
				0.22801931988420598,
				0.9646001429005584,
				0.6344775477228479,
				0.6032840977094307,
				0.908903576754188,
				0.06347100571053854,
				0.8928917776915406,
				0.036925076435616155,
				-0.3910488532798442,
				0.13710149449990938,
				0.33246003737787344,
				-0.743115875975267,
				-0.020593889803648846,
				0.9769224233145386,
				-0.7211497687677029,
				-0.8131521257442849,
				-0.23673454866627264,
				-0.1141221455899597,
				-0.7444800879958864,
				0.13847249784812776,
				0.7944041086694811,
				-0.04380320157024187,
				-0.8219829713828468,
				0.8214305690835078,
				0.14484940227684762,
				-0.4127356554180288,
				0.6495189764611156,
				-0.6218114715293686,
				-0.8720710397883091,
				0.5235435694518658,
				-0.028808430721584344,
				-0.7118245105310721,
				0.8717481411575152,
				0.38273918213376357,
				0.5997511331675458,
				-0.6711453588835168,
				-0.6741500021893332,
				-0.15715434049888577,
				0.6513179699301777,
				-0.9050019489785663,
				0.9005015308113635
			],
			[
				0.3261240337354545,
				0.15734405710179855,
				-0.7160479782427855,
				-0.2423201049653554,
				-0.27651188502093893,
				0.8230170805196066,
				-0.6984656868911205,
				-0.5316667666702055,
				0.053704645212736324,
				0.678981404537335,
				-0.2780392054772589,
				0.10034084910272956,
				-0.4094584927352778,
				-0.7337470302960973,
				0.8280881647831562,
				-0.21219618689434094,
				-0.5930731955508914,
				-0.07548376304373461,
				-0.9863747917153134,
				0.9945296129606072,
				-0.579923202081158,
				-0.07743031101184261,
				-0.21321698333941708,
				0.7145699950215758,
				0.5731288107285604,
				-0.7976908573836812,
				0.189322539149944,
				0.8265694157006833,
				-0.9227255656636766,
				-0.2994838417368264,
				-0.20911354808299842,
				0.13513676623347326,
				0.5790222272442138,
				-0.17369456348747514,
				-0.0971885171383593,
				0.08268512866317002,
				-0.6899352384118407,
				-0.48064638732776865,
				-0.7958115340117558,
				0.9635259239440797,
				0.9774647023729273,
				-0.5717687154209159,
				-0.4604879480210875,
				0.03590225360942734,
				-0.7713508933558497,
				0.14141179227469047,
				-0.8705445231892228,
				0.23395803522044378,
				-0.007589352882399147,
				0.4445551280597049,
				0.10357315338433315,
				-0.315117744681884,
				0.7819655528174576,
				-0.2950589866138311,
				0.6362496459480047,
				-0.5225666255285271,
				-0.8687193425082222,
				-0.7398593308276933,
				-0.8600208457381568,
				-0.7734366427151742,
				-0.30371743196964873,
				-0.6866740174410149,
				-0.28208013356132966,
				-0.20294330457521026,
				0.43644727229786184,
				0.18014962118186073,
				-0.35014403985111375,
				0.48149477830387744,
				0.776644004416104,
				0.6320513618981729,
				0.5851199565629628,
				0.7029489911803402,
				-0.06061377084266306,
				0.4350798339258901,
				-0.8600588157840341,
				-0.9070528319688282,
				-0.6027013875190379,
				-0.9677979376858463,
				0.1951989365979907,
				0.1892507121461544,
				0.9253411206465638,
				-0.4092988615561426,
				0.787229382601196,
				0.39298608626630926,
				-0.22820897002896556,
				-0.39319405222734094,
				-0.59377476887683,
				-0.6523780057532562,
				-0.4269386913081523,
				0.10127494653834423,
				-0.9493010604576564,
				-0.03729869267293484,
				0.7032024034058617,
				-0.3087420526419189,
				0.21577193765372193,
				0.7928791405582891,
				0.7497200081910256,
				0.05486935149444605,
				0.31651519279915163,
				0.1854912566209066
			],
			[
				0.5750934990393652,
				0.4824683404410517,
				-0.89121902576291,
				0.6393581349226718,
				0.4073453919026915,
				-0.27873415345728336,
				-0.9580257114192632,
				-0.05507656746173373,
				0.988139036894613,
				0.06519366690213424,
				-0.6829611372974886,
				0.2636652006309359,
				-0.1658711694779278,
				0.027433701768656782,
				-0.9078979766354385,
				0.5861831337798256,
				-0.493879198995244,
				0.09108924903569626,
				0.9292011834339307,
				-0.9525686546302823,
				0.9441940861035065,
				-0.10287200276785846,
				0.32519319985985806,
				-0.32207829161606893,
				0.022907486580863612,
				0.22831303725871832,
				0.6434082515070423,
				-0.6593255056307008,
				-0.7998867329543988,
				-0.32903137068156596,
				0.9758147453843868,
				0.9631334117241819,
				0.5456606768738888,
				0.18832031499640411,
				0.5028809584786869,
				0.038005557471362916,
				0.59409726460754,
				-0.6008368770058325,
				0.7436406912284799,
				0.6320994466679632,
				-0.09746945253156891,
				-0.07392720328288505,
				0.657641367179258,
				0.6122289718834919,
				0.03208866568237001,
				-0.7645064998560502,
				0.47877482275337613,
				-0.30299997855123406,
				0.5057418688789119,
				0.7525659742503552,
				0.7800075442043441,
				-0.6604833221423854,
				0.6461735014734944,
				-0.6009727019565059,
				0.8691182272512972,
				0.5034857060463991,
				-0.1334087237442363,
				0.1170482937210644,
				0.37130244036098414,
				0.7036352114992286,
				0.36390801799578476,
				-0.7860092074841853,
				-0.5650595404549881,
				0.051594415980146024,
				0.8859046104609889,
				0.7942031792763258,
				-0.9278285224508842,
				-0.09673008411950823,
				-0.8507727591952716,
				0.10556123873013856,
				-0.4033906880973497,
				-0.5288896583242395,
				-0.4614951117059123,
				0.7678288471976042,
				-0.13154321019724158,
				0.8527670803255032,
				-0.025793315157392804,
				-0.8642154923122845,
				0.5655533426600718,
				0.8331287388244362,
				-0.6059369885215018,
				-0.4121979289405573,
				0.6050314197642428,
				-0.7300988093450362,
				-0.22488437891572088,
				-0.9764813755449202,
				0.0508506062547025,
				-0.43313895764276644,
				-0.24234618284002174,
				-0.32871854529112365,
				0.9125756638572571,
				0.3357896915138632,
				-0.2212941072907193,
				0.9728427434527402,
				0.8150497595542747,
				0.8901159514017976,
				-0.8654560963462101,
				-0.9981077006901211,
				-0.9659251967890801,
				-0.918691860472368
			],
			[
				0.8533901898744447,
				-0.018803690778306237,
				-0.64360481761776,
				0.1443960093391432,
				-0.6620636986156967,
				0.8804870336661943,
				0.20333630028544247,
				0.25105662140246876,
				-0.4334164982369546,
				0.4832070670040536,
				-0.4358456754917528,
				0.16389784317811884,
				0.6940832176314009,
				0.8651160323683436,
				0.25954594400334097,
				-0.9172622514167439,
				0.9349637888493985,
				-0.28098139054984284,
				-0.9422453225088621,
				-0.4806720976877217,
				-0.8026379678672515,
				-0.9043244505108459,
				0.5601470049546013,
				-0.737413426795809,
				-0.15748511443418867,
				-0.08431905555054398,
				-0.49615183601928425,
				0.6520092247447411,
				0.8620780681514222,
				-0.13305751620468387,
				0.3002517584301976,
				0.4822307723826267,
				-0.7735001974109905,
				-0.9872642449143285,
				0.7129160818748574,
				0.08988626429548896,
				0.15920585825101163,
				0.9252502709247374,
				0.4139961814057753,
				-0.4127314000181026,
				-0.5633690876794644,
				0.7632729089629153,
				-0.834928568976292,
				-0.8688886423047788,
				-0.7800981758157017,
				0.3396004807072863,
				0.06324201754504344,
				-0.718668930803934,
				0.003554623977211069,
				0.6187180087605184,
				-0.7322985110715514,
				0.6310391699953111,
				-0.3662682421927501,
				0.7453185010131618,
				0.014501586221525642,
				0.5920645198394103,
				0.5269309369674757,
				0.9015285930361419,
				0.745733007217567,
				-0.13872450386695956,
				-0.206452886716757,
				-0.07993662505734145,
				0.5028237849869406,
				-0.14966443803967788,
				0.744815219066377,
				-0.3238954795119837,
				-0.602907006573437,
				-0.282984435913038,
				0.13317608099541722,
				0.6441364518822037,
				-0.7618226138720141,
				-0.20129664782132517,
				-0.8100277482651697,
				0.024805781686173756,
				-0.697749199528547,
				-0.14455299741561856,
				0.07296604160263431,
				-0.6902752485592654,
				-0.5767467982422794,
				0.32359521918895995,
				0.7593396887713935,
				-0.9895598207962588,
				0.8312735650808389,
				0.23275839442166246,
				-0.40142888278234823,
				-0.4759353229234051,
				-0.11651003489074485,
				-0.3407808780760315,
				-0.8320681601412478,
				-0.4628148024281109,
				-0.6183542298191131,
				-0.177442761770906,
				0.2878813718313866,
				-0.2969165850154236,
				0.9337227443599581,
				0.18411760956184198,
				0.6991690932027157,
				-0.517896306370849,
				-0.7398512907995718,
				-0.8965315653207822
			],
			[
				-0.31586993123532103,
				-0.3121104215858912,
				0.7855360313010489,
				0.04034810668525557,
				0.4852404293859949,
				-0.5723416679106155,
				-0.6237776944997147,
				-0.6623856596288755,
				0.8336002693308058,
				-0.1593585814122198,
				-0.715346897695647,
				0.15045520357526687,
				-0.20639733716596886,
				0.05422912552003156,
				-0.43807252819005393,
				0.7608914242114841,
				0.15759085692583463,
				-0.7373117610661364,
				0.2856776874010576,
				0.10909820438425566,
				-0.507217386313918,
				-0.4593575076762213,
				-0.8482610198686009,
				-0.6397813630596136,
				-0.9073421445950349,
				0.8493613688638093,
				0.035438630623882084,
				-0.8126491310332602,
				0.19267965467474202,
				-0.10408497043058285,
				-0.5096102163604521,
				0.7350434237069021,
				0.3082435798279213,
				-0.30776139909682687,
				-0.5957944874435457,
				-0.7314178261200821,
				-0.5639454964064381,
				0.8079759952217942,
				0.38366732155203964,
				-0.5350605417450693,
				0.5578866731073298,
				0.25090512350335414,
				0.24411868330946973,
				0.4439104869416033,
				-0.23858206848854513,
				-0.8946512147364434,
				-0.8045538765786122,
				-0.931431266716924,
				0.11817636982168311,
				-0.5537503371295194,
				-0.5184224735899612,
				0.29680529355876883,
				-0.31072932445505597,
				-0.7542648588279812,
				0.9257888065700186,
				0.4480665481470787,
				0.4282090599505741,
				0.13082232994016652,
				-0.01448289274328296,
				0.35173207858446665,
				0.8979490118198012,
				-0.3604876862888622,
				0.4236526685359361,
				-0.9990697130569668,
				-0.21828584170968224,
				0.9564765975689973,
				0.004991083177254385,
				-0.7462681879254243,
				-0.07240561546135993,
				0.4335453228537123,
				-0.2146039854170012,
				-0.11423071976889565,
				0.49160258010635527,
				0.9905674916471354,
				-0.048779433682179185,
				0.8266635973529519,
				0.1300814158432586,
				0.8277589236482097,
				-0.7161103812804721,
				-0.2696670479663603,
				0.5762074855517723,
				0.09802534451211242,
				0.2409834522608736,
				-0.05445017355901394,
				-0.5387986033761769,
				-0.27338311164006734,
				0.22365045050465504,
				-0.22401031577245378,
				0.9363701419559796,
				0.30183892154208936,
				0.13505095261330347,
				-0.84480020011511,
				0.9734042864731189,
				-0.1585758878257746,
				-0.4639585430631734,
				-0.44575895939667065,
				0.4822351334942021,
				-0.06580244297567761,
				-0.5148892512576353,
				-0.47542880970717993
			],
			[
				0.24839756168692428,
				0.05870303085841311,
				0.9747340423525759,
				0.9327725285062907,
				0.5508329394532243,
				0.19738832919658567,
				0.29647325930748947,
				-0.786847554153232,
				0.39113236653336925,
				-0.6202424524689452,
				-0.995129225700575,
				-0.15136686280168687,
				-0.2697836893782175,
				0.5393657580655113,
				-0.9773369779849377,
				-0.17542989701700495,
				-0.012184361819551182,
				0.856918806518328,
				0.30043463937113835,
				0.7217680436802913,
				0.23827478700590188,
				0.10042066758467616,
				0.38194695327169903,
				-0.36855210651128534,
				0.3213043893342018,
				-0.6753852809804752,
				-0.21789791740657982,
				-0.9795083263587099,
				-0.8294347642742403,
				0.5071577649829981,
				-0.7907402962775838,
				0.8352764107174444,
				-0.4260996046114851,
				0.9229384267139036,
				0.0747883829962479,
				0.8949552897744315,
				0.6855596721838082,
				-0.5466437048379347,
				0.24525557703966294,
				-0.05661705356197988,
				0.9700861233867304,
				0.15382315903556654,
				0.026564341962286964,
				-0.8674642830313077,
				0.9586015865071675,
				0.7863180776039052,
				0.6747645813003134,
				0.897452771805991,
				0.48172607380623367,
				-0.7031122655943429,
				0.5906112940872759,
				0.8414471206986107,
				0.6200504148744606,
				-0.4677266173207597,
				-0.3356185271752419,
				-0.495088978164413,
				-0.4300288284493181,
				-0.5218982199211228,
				-0.07176708887419325,
				0.7010704450028502,
				-0.5771881104951779,
				0.9916529816549358,
				-0.1304937231059271,
				0.15627623130085988,
				-0.8732924652407368,
				-0.44002228639800123,
				-0.8894781230516569,
				-0.6245948136577368,
				0.7525341198625721,
				-0.9163060533742722,
				0.5700929482619759,
				-0.6585881915026848,
				0.9944153092905879,
				0.47680411673311296,
				0.6941205510747013,
				0.6369518529119533,
				0.6766323743093703,
				0.0805696372857545,
				-0.3243408103304697,
				0.13732822029688752,
				0.8100023570066681,
				0.6645030111086032,
				-0.3299182882569389,
				0.38480906332005693,
				0.34067185141248535,
				-0.37101857890881496,
				0.29659160872550894,
				0.08320343477979364,
				0.8050074059090426,
				-0.9833780680326165,
				-0.18176304030432178,
				-0.4277753497961667,
				0.9523667920234717,
				0.6144393668369807,
				-0.7854842727845366,
				-0.2637623437410448,
				-0.4510905714314224,
				0.03942551971809394,
				-0.8215113081329113,
				-0.23307777757289339
			],
			[
				0.15580246505615314,
				0.9378886314482449,
				0.037300809503360455,
				-0.3856997020351982,
				0.023573466937478305,
				0.9473774925822398,
				0.5640568011035683,
				-0.44306312430334005,
				-0.685073838638528,
				0.6630250772869282,
				0.7582409657769227,
				0.4347001337021168,
				-0.25812195951680916,
				0.9518075143177716,
				-0.672526464986781,
				0.09529932965551158,
				0.014413867147156978,
				0.8008479880254233,
				0.47890754983603356,
				0.0907520803851587,
				0.28793110143991596,
				0.009729786288208864,
				-0.9472098023180577,
				-0.034985783994427866,
				-0.8146547274769231,
				-0.8785957361436099,
				0.7029251472930516,
				0.1653695733762217,
				-0.5727807334747053,
				0.12298302000436756,
				0.6717599452770293,
				-0.7093583350569843,
				0.6258097000734897,
				-0.6061878732829831,
				0.9099714961317433,
				0.766498837668633,
				-0.45378343429468115,
				0.5170053000171007,
				-0.9813979811493612,
				0.2495156226103652,
				0.3290823023371159,
				-0.4280844956087586,
				0.5169337103190417,
				-0.037625565945903716,
				-0.15361861388529174,
				0.8388135397366634,
				-0.14241172857435602,
				-0.09076453467834833,
				0.874763956631555,
				-0.31803565022974034,
				0.17294888065118208,
				0.6480877582116795,
				0.6422258828676637,
				-0.9855792512227404,
				-0.9048641028275686,
				0.2523903080571883,
				0.8899403489594455,
				-0.8988551224256911,
				0.27506455609884295,
				-0.5943952536415944,
				-0.3749614349853747,
				0.43751093365408034,
				-0.9985556824312911,
				-0.6580906920826903,
				-0.09701982841869894,
				-0.3015248764386964,
				-0.44333185469606917,
				0.26764124296225056,
				0.8326897766348944,
				0.21254988376842565,
				0.23222611481077937,
				0.2678405521631877,
				-0.23117786220102676,
				0.9205217863912272,
				-0.43329957202326286,
				0.9580281451162573,
				-0.4249496500035561,
				0.6343468148608364,
				0.554620353814157,
				-0.5172538365982011,
				0.5120852540533609,
				0.9215967745412588,
				-0.1210076166602092,
				-0.45395833201195446,
				-0.9717733347985167,
				0.9099733103157304,
				-0.3796826074827253,
				0.24675825660628092,
				0.8763368435645464,
				-0.03441546470830659,
				0.15535642981361653,
				-0.12899576962952564,
				-0.4797437805388247,
				-0.9523365088277735,
				-0.365003327105466,
				0.4326433839694914,
				-0.7084417906917606,
				-0.9514788202772526,
				0.04691401626542291,
				0.8393951461393176
			],
			[
				0.15007138091352878,
				0.6344086317720392,
				-0.38419984576672306,
				0.7802325451925798,
				-0.9511802986242368,
				0.18351541702596874,
				-0.46361545667377024,
				-0.40911874877645715,
				-0.3696788850662118,
				-0.3869859376261404,
				0.14040698030189613,
				0.5467417486512485,
				0.4874114788842232,
				0.32424302594216137,
				0.2918714757532368,
				0.017378940151496547,
				0.44078054936151734,
				-0.2167553025527753,
				0.4322010087492081,
				-0.3754340141215531,
				-0.6465440191171297,
				0.17278312595675605,
				0.09571104439904721,
				0.8165528651780307,
				-0.4234230098882743,
				-0.8394764160991262,
				-0.08319326481231215,
				-0.8645395184755507,
				-0.29638832993474606,
				0.8699757196093061,
				-0.32145478990281084,
				0.5216978744408416,
				-0.016381761077030266,
				0.42481685546938364,
				-0.2350209556247269,
				0.06174510811374612,
				-0.264144172959206,
				-0.9176652847150879,
				-0.5975641242899723,
				-0.2980975202623153,
				0.04794166652645382,
				-0.6584956755286107,
				0.4350979571664588,
				-0.21973466887416704,
				-0.0828851153687733,
				-0.39559141183066115,
				-0.27914753137976067,
				0.10878792121886027,
				0.7447209497742491,
				0.6394952567246333,
				0.6669811865662587,
				0.5333501703627697,
				-0.3615013951160786,
				0.1798355607100448,
				0.3381486963139526,
				-0.6309196767880545,
				0.6547215801978492,
				0.8293364260612308,
				0.6785082660612654,
				0.5072801076475209,
				-0.8429744223295894,
				-0.45135341323656597,
				-0.04666324691154333,
				-0.39921964625413064,
				0.1289836525765593,
				-0.11011417441661031,
				0.6556141847325541,
				0.09255031666561342,
				0.3237910133404669,
				0.6941327996903115,
				0.23385665964302627,
				-0.5113552848429439,
				0.011822971427375428,
				-0.75705775612587,
				0.38309244771770157,
				-0.7352524847265283,
				0.6808851433939607,
				0.5599887831260251,
				0.10703959802767748,
				0.9350640156145436,
				0.8432022500106249,
				0.851993547112921,
				0.026249533272512338,
				-0.3076719727388091,
				-0.15085370144993293,
				-0.29778446462001096,
				0.5565147273342306,
				0.048413538300455805,
				-0.8994626273925248,
				0.7291422707232789,
				0.3439439512324358,
				0.6294032649698744,
				-0.6670946273569398,
				0.6367977071132414,
				0.6906664701875371,
				-0.5811893376566295,
				0.1748934943417768,
				-0.828135082474486,
				-0.9633048705893636,
				-0.9515070911353658
			],
			[
				-0.12059764833991693,
				0.6727105684044483,
				0.020450387228008182,
				-0.32818627220451324,
				-0.4285648779213771,
				0.8100082832074902,
				-0.954940397938957,
				0.4757226394097125,
				0.5100148845542609,
				0.4136237589334715,
				-0.04772495071788496,
				0.3129735934575679,
				-0.8039536988808096,
				-0.929825609620158,
				-0.7092897399906453,
				0.6371300185707018,
				0.08762371499229005,
				0.8116368626711363,
				-0.5898250710875264,
				0.5176069896103899,
				0.7685115529403093,
				-0.798123067443409,
				-0.4454010152661443,
				-0.22719830483755832,
				-0.3071080477436694,
				0.26789607859226594,
				-0.727136649105558,
				0.26767567069405507,
				0.9047385336603697,
				-0.725436103844761,
				-0.3972218951196673,
				-0.6889299658862691,
				0.17633318565209954,
				-0.4365024628213221,
				-0.5990743805766301,
				-0.7491962058292763,
				0.7466034412915881,
				-0.6819587133394203,
				0.7975425880312561,
				-0.10116917111384405,
				-0.21790553535217105,
				0.0735971019489936,
				-0.48611910947276593,
				0.4106684888168508,
				0.8342449959559572,
				0.5980221208431109,
				-0.9418744731672706,
				-0.6445045708826553,
				0.2378279459709285,
				-0.13326433580160213,
				-0.8403933300375961,
				0.8560947394305751,
				-0.08554159387865612,
				-0.05070570008570563,
				0.5072209354333821,
				0.7774210822979115,
				-0.7528125673495247,
				0.569207956064683,
				-0.9518182712394858,
				0.04796630965839377,
				0.8254841357707754,
				0.17869161938822176,
				0.6267828189756965,
				-0.8286304178262123,
				0.43371263602378507,
				-0.2824690400565033,
				0.07010135486249114,
				-0.7035460557553481,
				0.6704736881416316,
				-0.841950680963536,
				0.4082149170895253,
				0.2253130047385139,
				-0.33727109780301134,
				-0.4656230095813281,
				-0.05215611133915177,
				-0.6340095811306496,
				0.9147516811373531,
				-0.3827107951022475,
				-0.8695283730964132,
				0.9851852968958621,
				-0.39606985087396795,
				0.6899877591304944,
				0.7144318357417729,
				-0.732240645771673,
				-0.07588015543837923,
				0.07418104768508682,
				-0.6953285096377235,
				0.9582422572648768,
				-0.5910635217997133,
				-0.05803091225335244,
				-0.7767049517761055,
				0.8220828894870751,
				0.6038611465110808,
				-0.489979411267631,
				-0.046815404658484994,
				0.43789780444327553,
				0.04027683210485522,
				0.9979638481440065,
				0.9790512395965925,
				0.2895485534214477
			],
			[
				0.15668435051509055,
				-0.4304956254626049,
				-0.6457557811079524,
				-0.8155700097229452,
				-0.8614863944587201,
				0.21389737469611125,
				0.8556140431852968,
				0.17136594936649585,
				-0.7360996364847714,
				0.025192788867386184,
				-0.6304749122857545,
				0.6770871829922056,
				-0.2948287393478153,
				-0.41249948008512627,
				-0.9542665289094105,
				0.5448211537049552,
				-0.7644191102525539,
				0.905442037149828,
				0.9935183701233976,
				-0.06657970351698106,
				0.8101912586928424,
				0.2085964777399223,
				-0.9426263623203028,
				-0.6957808182500091,
				0.8175887549807155,
				0.4835127477627035,
				0.46670339906182967,
				-0.8182478923465482,
				-0.5698988825601883,
				0.5295545789642149,
				0.4341025979562505,
				0.8962100808854001,
				-0.7712275158268147,
				-0.6158368896453799,
				0.9837114378405625,
				-0.7669260938883458,
				0.3879860207340857,
				0.04847435120935373,
				0.6987745602837769,
				-0.5234529043290075,
				0.45942434598725024,
				0.3502376479073219,
				-0.8873061905970876,
				-0.8054686241143787,
				-0.2788936395387145,
				0.760125076284409,
				0.8674584199263755,
				-0.28355471234189134,
				-0.7674547047616462,
				0.9795975043203056,
				0.25252133697209134,
				-0.39457057387532224,
				0.583355225183317,
				-0.9943429162493556,
				-0.14673360516626133,
				-0.5559114614976552,
				-0.35721730473348057,
				-0.025276878547177084,
				0.19951646686547608,
				0.5824897734166767,
				0.4469902312269953,
				0.24951551508947922,
				-0.9127604533700966,
				-0.9848910372605708,
				0.9521839498941338,
				-0.6695743033010144,
				0.7273664611292858,
				0.6010695060198303,
				-0.3469323493693519,
				0.8190964382376036,
				-0.64488182381591,
				-0.8867462167259172,
				0.4696570924359378,
				-0.4887142301769485,
				0.7448551973625714,
				0.1476729034915336,
				-0.2790238689875011,
				-0.8333525993117976,
				-0.5770515210486753,
				0.9824077773665643,
				-0.96323160905713,
				-0.4069212201242216,
				-0.3807353972410219,
				0.9029879488335948,
				-0.2966473336923565,
				-0.2516703695456348,
				0.7345411440301941,
				0.43551664655184474,
				-0.14744281339927845,
				-0.8995581061874334,
				-0.9489137162961248,
				0.8680589925525513,
				0.9810950248793713,
				0.6523684868909347,
				0.8865205938267957,
				0.4047509592191765,
				0.4859397378896242,
				-0.5744034689694151,
				0.1818828871947118,
				-0.3395686245373626
			],
			[
				-0.39679990803695064,
				0.9082784485028963,
				0.14554480820771776,
				0.47271820379486096,
				-0.5198192416365974,
				-0.8693352776562016,
				0.008641880777598754,
				-0.5162046735059134,
				0.08737187818567937,
				0.9299753325002049,
				0.7061704753636424,
				-0.8065959907407159,
				0.6946697479876924,
				0.6045930509304807,
				0.45170394736071984,
				-0.4733952955945804,
				0.45413070971765945,
				-0.6971211735945553,
				0.29714422945407915,
				0.4557183334575816,
				0.6787940959861709,
				0.7025696536137627,
				-0.9451143666772546,
				-0.5878784859824884,
				-0.06767457298538737,
				0.5397132695776392,
				0.5141488197727204,
				0.57094831560295,
				0.00349009843620518,
				0.33940622405142795,
				-0.580264778131049,
				0.47280433988224235,
				0.10025120331722448,
				-0.921873038336881,
				0.188665657258428,
				-0.8930891458543009,
				-0.12186005158636659,
				0.7727417043667968,
				0.30714135419091626,
				-0.18746920142263024,
				-0.12766179351531903,
				-0.5929381365881925,
				0.8224117038434082,
				0.8335462137460179,
				-0.3536440568908801,
				-0.6664348666365361,
				-0.08239649469854893,
				0.43329165195059804,
				0.020249665329094668,
				0.7796439734914622,
				-0.7755798121028015,
				0.5856724283866654,
				-0.34453856417942275,
				-0.07214571552014881,
				0.9225611269491476,
				-0.7245749192328916,
				0.6624959102697279,
				0.1830376096776014,
				-0.16681786531633103,
				0.3468607232712313,
				-0.3721557645002269,
				0.7947707413829859,
				0.015017319508668248,
				-0.612781206352182,
				-0.02583627700628588,
				0.42958473774161066,
				-0.25486312324568017,
				-0.5342138241883045,
				-0.9489058531318304,
				-0.16111246640472743,
				0.5972684934735035,
				0.7172485560786108,
				-0.8524885127694071,
				-0.9642267695336391,
				0.369931631883444,
				-0.8055508852185618,
				-0.6514354691324944,
				0.8185338645557159,
				-0.49172651270399736,
				0.5133853931780061,
				0.6178761270688136,
				0.5185586928861694,
				0.49971549445801466,
				0.10698150112563054,
				0.6307010380475369,
				0.4001700712386378,
				0.5745469723223469,
				-0.9110766781234503,
				-0.9500530319642269,
				-0.07521355585005418,
				-0.09966993050347428,
				0.5009111813150726,
				0.8453367641794864,
				0.8799831537088867,
				-0.39026467259293707,
				0.45767903722984205,
				-0.2085553241758773,
				-0.05720337530207242,
				0.5248884845496664,
				0.032790243335078184
			],
			[
				-0.08897013635782924,
				-0.6985338123310787,
				-0.7152663558049688,
				0.8563942755355054,
				-0.9852905794471325,
				0.5588477067341291,
				0.9427054512902475,
				-0.6014261132562582,
				0.6064858493040743,
				0.26044759149607133,
				0.3528701680402744,
				-0.011322152857335066,
				-0.21181089499009786,
				0.8232042670181734,
				-0.1277969161974446,
				-0.31452397883016836,
				0.11061995308095707,
				-0.04601868657838715,
				0.7109396897309983,
				-0.7355121730304552,
				0.42217443197286286,
				-0.08536150794714992,
				-0.41364800176636773,
				-0.18625370579133893,
				-0.5628697678087051,
				0.5395447265649169,
				-0.47481949462492157,
				0.9548410140511354,
				-0.0432711211345147,
				-0.5946965928357297,
				-0.18236109498439568,
				-0.7926823480454446,
				-0.06393885058824589,
				-0.8018132559677609,
				0.09787509035198205,
				0.8811906325411933,
				-0.24127432954214845,
				-0.5010312366892529,
				-0.7499738943181891,
				0.20914614676322119,
				0.1543214703161322,
				-0.9653386944762605,
				0.18640422863003314,
				-0.7759178736118746,
				0.8215998135011997,
				0.12836584999842993,
				-0.018734212156140018,
				-0.42246898627247154,
				0.9161505114276296,
				0.9737649560444215,
				-0.16736450469774367,
				0.21567965827386137,
				-0.4801288363380096,
				0.2679504112897044,
				-0.09108028880980701,
				-0.871872240221375,
				-0.848935969730003,
				-0.7310130285394689,
				0.778192001059915,
				0.5157048739169898,
				0.7507542981837054,
				0.5310573297450594,
				0.74664997723881,
				-0.5356762045796808,
				0.3259597544299786,
				0.2720385045017215,
				0.24108399980818662,
				-0.7204994859082872,
				-0.17518047564030015,
				0.21392031126235622,
				0.11263572852731807,
				0.2371562824711888,
				-0.08002128644080964,
				-0.06796059306504976,
				-0.1462954433700867,
				0.6675323988115363,
				-0.46578002317053,
				0.8362711613090714,
				-0.5450097123722393,
				-0.6547513035820502,
				-0.011850498181487534,
				-0.13085001982536815,
				0.5671417355913717,
				0.9508492837230627,
				-0.8854000864105278,
				0.36036642756651904,
				-0.8624151487912219,
				-0.2961831338073786,
				0.5383745575221948,
				0.47005966569662183,
				-0.5166518044498845,
				-0.4420710144376061,
				0.36377664296168,
				-0.010675527765331427,
				-0.0954392813333449,
				-0.6707565418394874,
				0.7335192002932867,
				0.20584140496126624,
				-0.5015393565723394,
				0.4751858946628267
			]
		],
		"isComputing": true
	},
	"weight": {
		"m": 100,
		"width": 100,
		"n": 100,
		"height": 100,
		"matrix": [
			[
				-0.08481783767868656,
				-0.024952985340771505,
				-0.6681329872790522,
				-0.06859995779417138,
				0.733618370259014,
				-0.7807806219785078,
				-0.3342762991147432,
				0.5688041466918574,
				0.1518547670831505,
				-0.4707965626231947,
				-0.2401555314937811,
				-0.8259305462939275,
				0.3621430037308815,
				-0.8279944228952356,
				0.8294034772235985,
				0.32815082946407115,
				0.08435101331678574,
				-0.2330533835064732,
				0.8956780678224345,
				0.4401314638986462,
				0.5029150346965441,
				0.5699016311956777,
				0.11986840514443164,
				-0.10909409292696726,
				0.573336411491336,
				0.3968122095129951,
				-0.6920043558131508,
				0.21864892388888402,
				-0.9758761529557534,
				0.8721271672233963,
				0.6218481391531396,
				-0.6044406717673407,
				-0.2193041752738938,
				0.11722490033375399,
				-0.24565540590711832,
				-0.8280575335478697,
				-0.36621519217601595,
				0.9104558709809005,
				0.6230705774745648,
				0.9996063157234922,
				-0.5146579610428805,
				0.08354194030576378,
				-0.2196698567724793,
				0.71374683272782,
				0.028905923531877598,
				0.6018291915813649,
				0.37566089507182854,
				0.8130930858252916,
				-0.3478712928551748,
				0.7205549248642784,
				0.7670768326352908,
				0.43466819237659404,
				-0.9502035790820926,
				-0.9959457652001027,
				-0.919650066107228,
				-0.726427993008254,
				-0.6922545301181207,
				0.7663109064675342,
				-0.08131559109693587,
				0.5039454316721765,
				0.8266602426533862,
				0.5266749656122061,
				-0.5171839972357168,
				-0.20364103160102953,
				-0.23480862954563442,
				-0.5695802690129144,
				-0.49214933076519785,
				0.18765263918273067,
				-0.10138004300470804,
				-0.2522803054097258,
				-0.7244615406218076,
				-0.0044479336361149535,
				-0.46525094626079344,
				0.7577654979049853,
				-0.5295294293139423,
				0.021885244217064503,
				-0.29948475270283703,
				-0.495752189381081,
				-0.07056082800189323,
				-0.41164768002695684,
				-0.23922148640186958,
				-0.6901259296284747,
				0.05456656236831181,
				-0.5252390824558382,
				-0.6650425038269456,
				-0.4921342515349112,
				-0.5817143038583086,
				0.09546183860200097,
				-0.3413775134846957,
				-0.42352042929333145,
				0.7040302228199327,
				0.6675949754579444,
				-0.18371429380791993,
				-0.8686996272231013,
				-0.2931446705170013,
				0.9115037304302,
				-0.41606500334390795,
				0.7008551132440655,
				0.5272830281963374,
				-0.4876503093428606
			],
			[
				-0.3382130056870545,
				-0.11787428913261078,
				-0.9605695891075774,
				0.6854151807452413,
				-0.9611263663463241,
				0.9029770203298004,
				-0.40972954325640254,
				-0.37024404806037214,
				0.9332935627318322,
				0.1152458574426527,
				-0.5591468197687002,
				-0.1737101381367241,
				0.15131396328917557,
				-0.4363270525516585,
				-0.02101811187816338,
				-0.48510159132634945,
				-0.7365627017598819,
				0.36460466587978724,
				0.42041259516324825,
				0.9669508642921261,
				-0.4657926462029911,
				-0.17818502468970054,
				0.8143224170578733,
				-0.5457714244879823,
				0.4005311442139887,
				0.6376312607792669,
				0.4910134933917698,
				-0.25591702714776154,
				-0.7821226175708946,
				-0.44658517647226903,
				0.7333692320755527,
				-0.08898820658049367,
				-0.21013467361068328,
				0.45054999755600633,
				0.3595651264459625,
				0.7311915850514459,
				-0.28831502000021425,
				-0.7079416178831677,
				-0.9221023400208597,
				-0.23771588780721986,
				0.9384051714717923,
				0.5127151833722499,
				-0.2305437664013854,
				0.6473899940058496,
				-0.6714154233361427,
				-0.4032607779839048,
				-0.929994241701058,
				0.2870850266592728,
				0.9132033220132545,
				0.8742141125075604,
				0.8487019461159888,
				-0.26491132627734704,
				0.20774511260282624,
				0.4102450460288254,
				0.09557953680053988,
				0.5336203546782503,
				-0.6888083371909999,
				0.7379634957084789,
				0.33771808687951754,
				0.14695236785566967,
				0.028629953388030316,
				0.514439061969306,
				0.4221835029065373,
				-0.24581859321177113,
				0.8417444799460565,
				0.7630928555520189,
				0.20727528685786067,
				0.23919889862312305,
				0.5277251671853276,
				-0.9190913817966715,
				0.7405429101679868,
				-0.46748410098286053,
				0.949884984143845,
				-0.547704811818249,
				0.09849126349637594,
				0.9512778043161001,
				0.16578719055037983,
				0.13302445224412862,
				0.5587100421462239,
				-0.16794056070657692,
				-0.6437083477157675,
				-0.6742435855254296,
				0.2803711069705703,
				0.9276553363760685,
				0.25780652987937147,
				0.3365385507395313,
				0.5509795671460767,
				-0.19044779796035227,
				0.3851387652884628,
				-0.5594310921452652,
				0.9391082386583136,
				0.5039811141983983,
				-0.12292902827530705,
				-0.971607279601137,
				0.34924623308193814,
				0.4635379895318361,
				0.9055157820555313,
				-0.02929634885040011,
				0.7276202016695934,
				0.8518760915930388
			],
			[
				0.14760914705467076,
				0.7069450966794086,
				-0.5773991359816004,
				0.21907387708801318,
				0.04729584983140578,
				-0.6708907632597065,
				-0.10623768130947164,
				-0.7411257090119099,
				-0.41462085241217306,
				0.51072708756252,
				-0.23665001054537038,
				0.9106291126440205,
				0.05078889776643747,
				-0.43319720540611906,
				-0.2628277388014286,
				-0.006456991675023449,
				0.052995361152598175,
				-0.8323991479431561,
				0.47296671494076836,
				0.12710314406062828,
				-0.1609901714455635,
				0.4260078199707764,
				0.9664490580005989,
				-0.0506672368485952,
				0.20085146605161786,
				-0.6223316636127869,
				0.7280131474151901,
				0.8267822309155943,
				0.34547724645761324,
				0.46347188833056085,
				-0.5592548409411076,
				-0.4088166276234002,
				0.5151919593927992,
				0.9147511714145233,
				-0.0841798168881196,
				0.8333364525080444,
				-0.4374328036169568,
				-0.2732005122256034,
				-0.8370678407407475,
				0.587650659396588,
				-0.2824038227825585,
				-0.8218613805387722,
				0.8444904396871462,
				0.8658371158189935,
				0.8223073291987912,
				-0.5756253732708045,
				0.33309208387107736,
				0.9569974900714451,
				0.23433203728418883,
				0.46282669598313975,
				-0.8628241500788221,
				-0.934286681142058,
				-0.03819361051220804,
				-0.9580904337044447,
				0.38874478592854533,
				-0.5519536605319497,
				-0.8431709739041371,
				-0.48731507656040174,
				-0.26746057690387026,
				-0.35383021349281263,
				-0.8531217917697029,
				-0.47370910351687456,
				-0.8128942787794262,
				0.5534752779311982,
				0.3210319208325525,
				-0.18710254900037082,
				-0.12150533366197136,
				0.6779891985636484,
				0.8838196616690257,
				0.9003617361532763,
				-0.2668859066593181,
				-0.7075317990732319,
				-0.4129018302809926,
				-0.10741135846912941,
				-0.7189018478482758,
				-0.8863729544095467,
				-0.5903918509200423,
				-0.6360909748407004,
				0.7854161248036258,
				-0.4819685143204433,
				0.15190296407499115,
				0.5416896533321833,
				0.3471155113437101,
				-0.12370584060389911,
				-0.32088338335945954,
				-0.37623467197143867,
				-0.7836344218409965,
				-0.015180071434163445,
				0.3314351586852671,
				0.10152705815698049,
				0.5555622294127076,
				0.28374956520470684,
				0.6907350375822556,
				0.42003578876169545,
				0.26420230834965963,
				-0.8607721275151317,
				0.951237508798485,
				0.09808478189507319,
				0.9211090809365294,
				-0.29607245004949334
			],
			[
				0.4500258177524543,
				-0.4034667761462054,
				-0.6058865117831256,
				-0.8349093394028402,
				-0.24023049503812688,
				0.25081034422021053,
				-0.6490440538952602,
				0.7008174259779971,
				-0.5996678411972542,
				-0.8556900090089017,
				-0.8517393584022739,
				-0.3565050783927086,
				0.5502530399633021,
				-0.9813869983732864,
				-0.8609397804702392,
				-0.8998412792594563,
				0.530934779828792,
				0.04294450054647836,
				0.10619134745891534,
				-0.05743159325161162,
				-0.04812942733714598,
				0.4591166337073127,
				-0.5015053778316458,
				-0.4153850694614092,
				0.19308381130998553,
				-0.9634507086025561,
				-0.23681974624582525,
				-0.9675265837781519,
				0.17764781716297895,
				-0.4380171694993482,
				-0.9652932089410151,
				-0.10300440964542679,
				0.7331818747092287,
				-0.4773485828834887,
				0.7428825499094316,
				0.6458919787406079,
				0.42874258324217607,
				-0.662932321979874,
				0.9647394183297675,
				0.6628351253975251,
				-0.24801294513475058,
				-0.3319635679191464,
				0.7782044023006449,
				0.08222061078565623,
				-0.44029970584072764,
				-0.6513924880519628,
				0.7729092927981625,
				-0.78204993384059,
				0.38337451973868975,
				0.5722115969176209,
				0.17849992118672242,
				-0.12922997719436102,
				0.2823220170655216,
				0.7116806658977377,
				-0.9931920767837457,
				0.6233868785640064,
				0.17411025740662245,
				-0.649249921176895,
				-0.5382975323989001,
				-0.17197096533844736,
				-0.532945773398577,
				-0.6344620017428078,
				0.3964275491879037,
				-0.3548915843513467,
				0.8874759838960662,
				-0.537080861356924,
				0.5266940684047707,
				-0.06545721021671946,
				0.6194950302539382,
				-0.30482247454605105,
				-0.9512582853878961,
				0.5763691877978183,
				0.4403775852604377,
				0.782038351061829,
				0.2634084205525955,
				-0.24807092028782485,
				0.33236012888229594,
				-0.8148069707605954,
				-0.8005617514943606,
				-0.878732679677769,
				0.10309615283329476,
				-0.4021604524980118,
				0.6880800962940485,
				0.8673571306891166,
				-0.4620171899076473,
				-0.3996768230057608,
				0.21335472470963301,
				0.3042612419441415,
				-0.3227286415573709,
				0.3524933730810056,
				-0.6033282788410301,
				0.7387529028040984,
				0.9108536475104527,
				0.32109487336163767,
				-0.8631679303475543,
				-0.6066223282815209,
				-0.2765632874797097,
				0.20835875385423375,
				0.8193288286467242,
				-0.4841551329456193
			],
			[
				-0.7417851576263628,
				0.8582703013158817,
				0.3704842065726921,
				0.20188590453675337,
				0.8118013900908019,
				-0.3683163682971524,
				0.056255146865113126,
				-0.05799944747083874,
				-0.25024113026936323,
				-0.1403025897383947,
				0.9446541751712605,
				-0.02443029522053175,
				-0.5148053819447798,
				0.8250092671820908,
				0.47743091976421725,
				0.8013235796988245,
				-0.699320675859032,
				0.4572268672469173,
				-0.06782462106259102,
				0.058605263329514656,
				-0.47442014180821834,
				0.3577750707541343,
				-0.7061272160488943,
				-0.9734028473549126,
				-0.21012848254566352,
				-0.2572400034988114,
				0.8727876746556302,
				-0.6334799245842855,
				0.9709680649300236,
				-0.2988380090199141,
				-0.5806845274221271,
				0.8715297017404735,
				0.33855591851093303,
				-0.15210577066892572,
				0.2884646386302663,
				-0.055891110840776914,
				0.2517305575756459,
				-0.9634471272090015,
				0.848059482960076,
				0.06820306238071439,
				-0.15823935015503654,
				-0.45174797888697027,
				0.054426591278269765,
				0.3910983678272073,
				0.3657769208409265,
				-0.5540022498162238,
				-0.36224346757090453,
				0.9271360916032547,
				0.8536878324069277,
				-0.8217213030726147,
				0.7646384484092357,
				0.23198126483324444,
				-0.472136154426841,
				0.8112202230512713,
				-0.5669673502749553,
				0.7345037597692268,
				0.8064861431016883,
				0.7103614544750396,
				0.8188850479447276,
				0.704438425684978,
				-0.7938544372124827,
				-0.7365567964113442,
				-0.1415888460103809,
				-0.9501485133322691,
				0.4637929954197708,
				-0.933857987361749,
				0.49676371807952435,
				0.7159145886614402,
				-0.18508766919744435,
				-0.6505628532391929,
				0.6776408127392761,
				-0.621219923264722,
				-0.38156851200798014,
				-0.49102205181746683,
				0.6551265398369921,
				0.6042054590499815,
				-0.03393902893605061,
				-0.5608197313043202,
				0.672801633884109,
				0.7342098241922974,
				-0.5586742874235866,
				-0.7429044792107611,
				0.7880556548873345,
				-0.16946418725596812,
				0.8182247636511764,
				0.23934510009696774,
				-0.3868324231399405,
				0.2357011576733421,
				-0.41430697345402034,
				0.7492227658892112,
				-0.28871087906472326,
				0.10597468306462998,
				-0.8041627858390901,
				-0.4950585773912568,
				0.892936151457628,
				0.979708984076114,
				0.8282017458046433,
				0.2964939350133835,
				-0.775192660078178,
				-0.5605562915659115
			],
			[
				0.6163584982170107,
				-0.4724121788863034,
				0.9894636755555406,
				0.10668019999384981,
				0.41187924865972514,
				0.28680172345116883,
				0.9430539391193418,
				0.9298602743276874,
				-0.7681956122556919,
				0.13088786083595227,
				0.30548862595304715,
				-0.08436602082730538,
				-0.5722682731330044,
				0.04360575051545412,
				-0.9413033233424728,
				-0.6816806601277992,
				0.7818254451439652,
				0.9181340273113263,
				-0.13830149186976382,
				-0.09085442163671109,
				-0.028476619830386074,
				-0.029409300330970112,
				0.14913978003351014,
				-0.01248966036073762,
				-0.5631678452634068,
				-0.7820629306012141,
				0.12290826784786635,
				0.09807732033254757,
				0.42174523212099224,
				-0.28972592613654014,
				-0.8319046547778761,
				-0.5312148449615055,
				0.4115082297115986,
				-0.6262374748680926,
				-0.8333917724372548,
				0.2840701628899205,
				0.9166107814411646,
				-0.5143121637928827,
				-0.513087282729344,
				0.7592093658964636,
				0.6222760834214616,
				0.08603039899173615,
				-0.9983171778050695,
				0.5694595014807482,
				-0.6297056901148381,
				0.26376492368123694,
				0.09303546445903788,
				0.312610509019815,
				0.629093158455464,
				0.024217363083854693,
				0.05289502940639057,
				0.30112567855220806,
				-0.3473597878776786,
				-0.04854308367131699,
				-0.6416530538166856,
				-0.19036622000121728,
				0.040296270817816726,
				-0.8427095500223993,
				-0.5318260985398293,
				-0.7164885890487476,
				0.06977929853584453,
				-0.5440443540281539,
				-0.030469225095504537,
				-0.652194162126515,
				0.6944159348486791,
				-0.37957889301482783,
				-0.3117368672315002,
				-0.9257783601609693,
				-0.4264852768324183,
				0.5253344810007463,
				0.3513083817713092,
				0.6130208091300027,
				-0.48632237012187973,
				0.6544087794197031,
				0.16264773050522408,
				-0.01135224698305981,
				0.5509901464503608,
				0.5127028167870677,
				0.3632225183281199,
				0.015540964418047754,
				0.9601751761812642,
				0.0031614261590728887,
				-0.8441418619348808,
				0.4958494127605588,
				-0.9737766535261909,
				-0.5005334580694685,
				-0.8102144850446642,
				-0.3906456433646741,
				0.5673891576795058,
				0.214857845448297,
				-0.37182020835335994,
				0.23562940001004673,
				-0.8303482868126069,
				0.5821908126645257,
				0.6618530857591982,
				-0.7056779306186658,
				-0.5646184025056384,
				0.9456312461869225,
				0.5306959276689884,
				-0.8885342584573142
			],
			[
				0.559651384172251,
				0.6229960977510798,
				0.7274157600734203,
				0.6420730953499465,
				-0.6769380211531799,
				0.2973493016128934,
				0.38301807486063,
				-0.366439277241712,
				0.659826565924881,
				0.5232401560806026,
				-0.4969746256844698,
				-0.8856888895558601,
				0.14792629720439843,
				0.5967274458939471,
				-0.2554566843766337,
				-0.28170280822901805,
				-0.44316166268840584,
				-0.15916765565916524,
				-0.8488351705042523,
				-0.6437768140977163,
				0.38956178642116335,
				0.8530953987206735,
				0.6722987991629257,
				-0.1014379782288759,
				0.7700937461187829,
				-0.5042229454132086,
				-0.10269148718864418,
				0.6732131499061604,
				-0.08008484420387418,
				-0.7505860957589303,
				-0.05601261320524298,
				-0.49511333592709317,
				0.4081531877562461,
				0.8662710436619676,
				0.5903896254546246,
				-0.2146674972398288,
				0.3830607217835227,
				0.9900284215866293,
				-0.7385157507048161,
				0.32175337423645844,
				0.2795968461976823,
				-0.19489731088291906,
				-0.2878139913781612,
				0.1357264830342979,
				-0.7068442345284289,
				0.6557782657093316,
				-0.4763589599734477,
				-0.9369743830491051,
				-0.7202435947520911,
				0.5648703310418135,
				0.9478888687107876,
				0.7284378820501805,
				-0.9426331191834589,
				0.01814039817233626,
				-0.5602105284964529,
				-0.75759896158781,
				-0.0031739837937845294,
				0.14158557593430432,
				0.18655931429335126,
				0.5633112917594518,
				0.5389770521092823,
				-0.3873335695371565,
				0.6443160408466375,
				0.178203354459471,
				0.32619355382932724,
				0.0477287108808051,
				0.24360029488548207,
				0.3156129581175233,
				0.35071912004805084,
				0.10950959708940156,
				0.967073404379942,
				0.293762162635685,
				0.733426693536587,
				0.24441645218813868,
				0.9856986370963732,
				-0.24060845345286141,
				0.5257225896432134,
				0.6220980713620663,
				0.38960116841368153,
				-0.31830259296303787,
				0.0013731482436400988,
				0.299997196572916,
				0.03739252920747127,
				0.6042528003135748,
				0.14988752710189335,
				-0.9898950166658866,
				-0.3959679909012337,
				0.08933681943995797,
				-0.45001089540210115,
				-0.3239334565574956,
				0.11276474455475816,
				0.4146972726554523,
				0.883915612822987,
				-0.06355757645515281,
				-0.006179100089022782,
				-0.2283479178526142,
				0.6804112893560488,
				-0.7695189338884805,
				-0.8828528482368938,
				0.08401145948346755
			],
			[
				-0.7778461945071387,
				-0.576404421971346,
				0.44129575991104897,
				-0.6178801668100666,
				0.1500797529032547,
				0.817028592604971,
				0.8599328004777131,
				-0.534032699990215,
				0.43395784316490804,
				-0.777844533088027,
				0.36854744403076545,
				0.8532856390635302,
				-0.7704776828605415,
				0.20582447387469882,
				0.5227676088207907,
				0.2407791077987116,
				0.1224219385203269,
				-0.7105643260640755,
				0.579852194174042,
				0.01294265558248986,
				-0.25264308953132053,
				-0.6824557868372945,
				-0.9381495854809052,
				-0.822824901078024,
				-0.11070838516984427,
				-0.28514808698097616,
				0.8114928729296493,
				0.07794790495551629,
				0.7757943993556444,
				0.3305599102494279,
				0.9293698668161778,
				0.697527056512194,
				-0.9493708221486119,
				0.6745030967500272,
				0.5278577988416693,
				-0.17883670622114645,
				-0.13370614832874095,
				0.8759024067722616,
				-0.5056746884023884,
				0.5154829161497654,
				0.5472271970597866,
				-0.21916833146458137,
				-0.7942667606516078,
				0.6384135857825894,
				-0.18055757600122524,
				0.44335937647213974,
				-0.5330956169616363,
				0.0687897315287711,
				0.5150245305906722,
				-0.415352817654532,
				-0.2621226708454749,
				0.43821470130971374,
				-0.02470455067076438,
				-0.5464854251560793,
				-0.367485979409544,
				0.1547992165823655,
				0.9054069973146288,
				0.4582352289702101,
				0.32747909488493,
				0.7919692900707114,
				-0.9147097409039766,
				-0.15367471810211386,
				-0.16176580082593528,
				0.9579489207870244,
				-0.2564011076641939,
				0.5429466672330023,
				-0.9847770671916658,
				0.3219867774575307,
				-0.6131242278443301,
				-0.2292962129363576,
				0.6449004427395022,
				0.4396247152168322,
				0.21840167481909623,
				0.898952440015921,
				-0.9064771205996305,
				0.30334624483705364,
				0.8859547044053566,
				-0.7574323930361198,
				0.5474846740000783,
				0.2597170994905942,
				-0.4926473723123861,
				0.7006297636573069,
				-0.10588194879194024,
				0.9521148968596398,
				-0.7123187338059473,
				0.14621527467937634,
				0.7115984982242485,
				-0.6985773004429565,
				-0.45246798211397676,
				-0.7845593736738432,
				0.667989619100017,
				0.26778612689517445,
				-0.6079787556827152,
				0.28001122524506217,
				-0.1504755045467654,
				-0.5707714617208559,
				0.5908016132399894,
				0.4153080659715549,
				0.5285591455772152,
				-0.9225078826840107
			],
			[
				-0.4489954590839358,
				0.11889857084369382,
				-0.09389502344090683,
				-0.92779780365988,
				0.5876020658193197,
				0.4850586616572521,
				0.7762249917559534,
				-0.003562894859455934,
				-0.4803493336523754,
				-0.02545946677477806,
				0.1835796025179861,
				0.1831511228346714,
				0.5307549870383359,
				0.9989060566393322,
				0.9344105233075961,
				-0.6450950753227493,
				0.3379717932166426,
				-0.7140355979023694,
				-0.5604823309894136,
				-0.7514069052065468,
				-0.4864050390367196,
				0.19576973410688048,
				-0.2521697217196932,
				0.9452689274073363,
				0.5306750281417596,
				-0.19409528728184444,
				0.9356056033119082,
				0.8194159195003383,
				0.4398190150113903,
				0.7690541025698199,
				0.539095311638877,
				0.8788380241480591,
				-0.23121754163098673,
				-0.6628430548697484,
				0.14161511825237127,
				0.48016880595904077,
				-0.24979147720038064,
				0.9327907954179882,
				0.5190189676799299,
				-0.5923519123778607,
				0.3769553359691007,
				0.6662183563863122,
				0.9099155827374505,
				0.9405555365181977,
				-0.5621566287326689,
				-0.03409988078916282,
				-0.21820112343993125,
				0.338128735269998,
				-0.7210419356026212,
				0.8491307238700192,
				-0.6489336752149568,
				-0.379901514385236,
				-0.556662713120522,
				-0.5570558762902524,
				0.869902356840043,
				0.02190907779390905,
				-0.5218366825670668,
				0.12620501208126633,
				-0.20176630164548115,
				-0.45588667348051093,
				-0.9654020891589226,
				-0.5038467661583015,
				0.613630523349153,
				0.8052578178186924,
				-0.25897420267489446,
				-0.06732897584604336,
				0.39889803036633253,
				-0.8762484083649564,
				0.5814362677806191,
				-0.6519317839173162,
				0.17435155873196528,
				0.08236293526297933,
				-0.8601629610717394,
				0.8042689539687045,
				-0.02536236137916248,
				0.7451260735493062,
				-0.11546472963337573,
				0.45030214636037424,
				0.7943256322464789,
				0.48663470360707395,
				0.1491150343222758,
				0.2713602929425427,
				0.9840096946346066,
				-0.4904858782246446,
				0.31637002969108563,
				0.3541436829762299,
				-0.3512217196351246,
				-0.24665865469893156,
				0.6754302727720463,
				0.3290987275784394,
				0.29073902346599345,
				0.6614045756938296,
				-0.1594331022005977,
				0.9116926896870519,
				-0.721657100580722,
				0.39769849736067364,
				-0.3499730206561833,
				-0.6500189778180334,
				-0.6943949825141638,
				0.40727820977897444
			],
			[
				0.8489699009842355,
				0.5535348936125186,
				0.4563959986918835,
				-0.2752015288311873,
				0.47244867200920115,
				-0.16976319721192734,
				0.31577241266245926,
				-0.1450222290531893,
				-0.4847465707302634,
				0.7850484334643908,
				0.779254025028179,
				0.6512293411418484,
				0.1818911206712266,
				0.16354389580529594,
				-0.5775622821337629,
				0.5318804745676351,
				0.3338733545787864,
				0.5108105389335598,
				-0.6831554739618371,
				-0.20352541271512026,
				0.3807208517389249,
				0.34943591985095557,
				0.6715671512820718,
				-0.28620430634263005,
				-0.2495429677401364,
				0.6562743031664686,
				-0.07960444525113974,
				-0.10116795937956624,
				-0.44169634421601467,
				-0.04055373490820724,
				0.7470378597779059,
				-0.5295270444697318,
				0.11990843433801412,
				0.11052971823963276,
				-0.3639570920890294,
				0.1719651904953703,
				0.49477493041020626,
				-0.45747818410947305,
				-0.942124130853375,
				-0.4054677356011753,
				0.13389393158493545,
				-0.029884903611328006,
				-0.11480245342856232,
				-0.23700060248876254,
				-0.45208970571472484,
				0.21694248570129337,
				0.7280089862547499,
				0.30555150096120043,
				0.54385560721169,
				0.7871922312907422,
				-0.7293593846408886,
				-0.03089172167092258,
				-0.5141696031188165,
				0.6071084882772722,
				0.9565546604937962,
				0.35601010390564447,
				0.1036171565161692,
				-0.36800397912247496,
				-0.9226713587854047,
				0.14928812729764251,
				-0.9100082949929025,
				-0.9205959861041628,
				-0.4465877344081499,
				-0.038036104839342055,
				-0.810145802077971,
				0.12337515936255405,
				0.6475835492735023,
				0.08951707776441742,
				0.5755065830719688,
				0.7570299228864679,
				0.2259783052164659,
				0.7881320947025929,
				0.10021494782522966,
				-0.10553214483825268,
				-0.9342761125593673,
				0.7255736950752918,
				0.6661868113580565,
				-0.006562122424023986,
				0.9304173863305816,
				0.41843658470318745,
				-0.03438515122303709,
				-0.010055377493835227,
				-0.1828044823265138,
				0.8327920406290343,
				-0.3330064198181093,
				-0.09852318781784497,
				-0.25591624412598657,
				-0.7524203770551141,
				0.9409999186031772,
				-0.7660744244234192,
				0.39308413101771444,
				0.34779644305351987,
				-0.3290185227861646,
				-0.4162021392267077,
				0.5251159336682454,
				-0.5834472804608408,
				-0.5433965212763727,
				-0.07834208491647798,
				-0.4699728373714058,
				0.9994592161431295
			],
			[
				-0.027867614905941362,
				0.24032690866391615,
				0.018944591987434922,
				-0.44335809728439957,
				-0.5835814621473636,
				-0.134669515485621,
				-0.5098601829272584,
				-0.029320198806706887,
				0.5751310690470581,
				0.2651097963593756,
				-0.45431085147749517,
				0.6750798694531013,
				0.5059464754984253,
				-0.6565141106382577,
				-0.833986045756224,
				-0.8487097792465659,
				0.4489757410283617,
				0.27615118910685554,
				0.12064113218280381,
				-0.38775649438253224,
				0.3966899997687041,
				-0.10557209057285855,
				0.6398568315074384,
				-0.7370902279030851,
				0.7920458513559812,
				0.3241563865279269,
				0.019886209250007614,
				0.7231512751968898,
				0.9212901951705965,
				0.25115049756017926,
				0.016519747514823546,
				-0.015947491113859957,
				0.04003345497608324,
				0.33393700637931145,
				0.8451826009523438,
				-0.7464639182308219,
				-0.4827858075392095,
				-0.8080173778976407,
				0.2350897236673175,
				0.17753697953688485,
				0.2013803882589822,
				-0.7653553323196332,
				0.2993045165271244,
				-0.5468236186762652,
				0.9643467433117454,
				-0.8852866145295359,
				-0.8431453985870343,
				0.5417000948628288,
				0.7632236936646355,
				-0.408333674667698,
				-0.8965171210427219,
				-0.9326142536977176,
				0.43895119213804,
				-0.15415814817506845,
				0.4540551737485172,
				0.23424870858899194,
				0.004950679167632366,
				0.13735808134186245,
				-0.8081223874116721,
				-0.8260150855679922,
				0.18336381921155676,
				0.18915369458824927,
				0.4608654283943552,
				0.8385683983714145,
				0.7260943775585109,
				0.818524568705226,
				0.18239394149517452,
				0.8454650823470358,
				-0.7615162377259832,
				0.03786765634936762,
				-0.8011983603487045,
				-0.25111132632686806,
				0.004267400255092202,
				-0.64080549528361,
				0.7409495000282535,
				-0.957236537403229,
				0.7623947208935626,
				-0.01850805309881487,
				-0.7010811022879837,
				0.4052395599344494,
				-0.1391301195374739,
				0.20646674140866494,
				0.42874723927596303,
				0.9870872076880026,
				-0.0013875445174114098,
				0.5871878365394352,
				0.45970012077803313,
				0.034950008173974645,
				-0.9897987247675109,
				-0.7196908827533797,
				-0.28388202839874177,
				0.38987494598380357,
				0.1607812908991284,
				0.6543679150684958,
				-0.6532784893958365,
				0.4260524000694721,
				-0.20247841161882896,
				-0.2038648822548863,
				0.17139258050472028,
				0.7138498232558024
			],
			[
				0.8213628898850418,
				0.1609920625578427,
				-0.2847356440434128,
				-0.10918957268268237,
				0.28885926068541234,
				-0.06120117117233681,
				-0.1427894370475924,
				-0.10198845771952669,
				0.2940038991327665,
				0.3384276591316784,
				0.6928977577505782,
				-0.28993316645928147,
				0.05951166693538967,
				-0.71306539161277,
				-0.3327286333764401,
				-0.0010025370411459456,
				-0.698188293638585,
				-0.5675059723245055,
				0.14740407759417717,
				-0.6622718435276891,
				0.7674346825792542,
				0.7503009224614239,
				-0.5968060030961961,
				-0.8867497761509315,
				0.6870484147950005,
				-0.4321216184194765,
				0.6677938198955333,
				0.20065236500814487,
				0.5627740666837417,
				-0.45170209600277955,
				-0.8718286470904233,
				0.8795069817963319,
				0.7318025206896022,
				0.3900016814718388,
				-0.2413427705332749,
				-0.9420678991809139,
				-0.11024878213875944,
				0.512489250919482,
				0.796633323196799,
				-0.5570089548606356,
				-0.9717905830192208,
				0.42901600690062525,
				-0.5704857077810859,
				0.4376328513888894,
				-0.3166711688641106,
				0.6778302729957217,
				-0.13350321411631771,
				0.3479640675948805,
				0.5181055070802771,
				-0.18860482331130335,
				-0.8026166588204307,
				0.09117745347469652,
				0.6347942982422587,
				0.2047864802775572,
				-0.875854189905481,
				0.5362430017897548,
				-0.7603139598582587,
				-0.5345862194687263,
				0.6406392969538572,
				0.9386902020403189,
				-0.06332150310313489,
				0.2961330806352178,
				-0.038822255078875934,
				0.7291202579647291,
				0.9833362955020415,
				-0.21389764168557335,
				-0.21443462575602057,
				-0.7056359893181372,
				-0.4535598710017563,
				0.8356722692661749,
				0.09563830795822348,
				-0.9844709865636951,
				-0.8585658968804735,
				-0.6587762308357634,
				-0.7324084975122154,
				0.12772598276250635,
				-0.9742637413358852,
				-0.6545291550786114,
				0.9251331920746124,
				-0.47374949505727804,
				-0.15007880890147307,
				-0.1312336319617513,
				-0.7330252809126625,
				0.7488087590585248,
				0.6269264647692685,
				-0.7385751767376565,
				0.051314703976405696,
				0.9402068553018501,
				-0.30173178793783606,
				-0.5584996699065345,
				0.0819775868358521,
				-0.6248255940416994,
				-0.6637004451475441,
				-0.01236786936036971,
				-0.187267723119231,
				0.27413814280534066,
				-0.6298151272813546,
				-0.8817590444013836,
				0.5814118181990753,
				-0.8328280894321569
			],
			[
				0.45012197510969854,
				-0.6120604003656922,
				0.6563242340624149,
				-0.4292193235404196,
				-0.3069084233345767,
				0.778053747661573,
				-0.7774403920741046,
				0.4691603816121961,
				-0.7688894887507924,
				-0.7597995408331388,
				-0.10748542744091427,
				0.14348554505892563,
				-0.7777214086827522,
				-0.6686268707124392,
				0.17928233828324291,
				-0.3044936902631199,
				0.15091213271651105,
				-0.9708300140446524,
				0.4530344392096741,
				-0.33665636080077777,
				-0.36208217064347314,
				-0.49358170701666815,
				0.4555691882452195,
				0.6190252804590677,
				0.33869120312076006,
				0.10561869469108975,
				-0.34386027871136404,
				-0.596745507889128,
				-0.6267265531681465,
				-0.8968627290698912,
				0.2467159604439746,
				0.5749545947171071,
				0.853988821865038,
				-0.0312306053558995,
				0.26406388032664685,
				0.13354761603117282,
				-0.759970621738391,
				0.999287709861874,
				0.2022820643249026,
				-0.2964560426725984,
				-0.008212151837653003,
				-0.907651142052242,
				0.020847551102325834,
				-0.8110447960539768,
				0.4786036384980683,
				-0.9928508647449701,
				0.5419233971815789,
				-0.48125063644695354,
				-0.1021666621393309,
				-0.9916779532978688,
				-0.7670015262615855,
				-0.7377826596418995,
				0.7653379120901489,
				0.5712418644428374,
				-0.7735924235817677,
				0.07162508071610585,
				-0.8790081490986217,
				-0.323267742261109,
				0.9485427444249863,
				-0.9777563389569868,
				0.5239975979898146,
				0.321089603776914,
				-0.16026615959891144,
				-0.16026862608440728,
				-0.24015989782390745,
				-0.7212171167446293,
				-0.18580098929365763,
				0.5056678160366452,
				0.022383490880079293,
				0.6939157496338648,
				0.5788899809938561,
				0.7627627732330016,
				-0.12522595723689767,
				0.4293690255707667,
				-0.15105993519152294,
				0.07863362162343224,
				-0.41171987544640976,
				-0.8489287327601449,
				0.3817703507647128,
